{"learner":{"attributes":{"scikit_learn":"{\"use_label_encoder\": false, \"n_estimators\": 50, \"objective\": \"binary:logistic\", \"max_depth\": 6, \"learning_rate\": 0.01, \"verbosity\": null, \"booster\": null, \"tree_method\": null, \"gamma\": null, \"min_child_weight\": null, \"max_delta_step\": null, \"subsample\": null, \"colsample_bytree\": null, \"colsample_bylevel\": null, \"colsample_bynode\": null, \"reg_alpha\": null, \"reg_lambda\": null, \"scale_pos_weight\": null, \"base_score\": null, \"missing\": NaN, \"num_parallel_tree\": null, \"kwargs\": {\"eval_metric\": \"error\"}, \"random_state\": null, \"n_jobs\": null, \"monotone_constraints\": null, \"interaction_constraints\": null, \"importance_type\": \"gain\", \"gpu_id\": null, \"validate_parameters\": null, \"classes_\": [0, 1], \"n_classes_\": 2, \"_features_count\": 10, \"n_features_in_\": 10, \"type\": \"XGBClassifier\"}"},"gradient_booster":{"model":{"gbtree_model_param":{"num_trees":"50","size_leaf_vector":"0"},"tree_info":[0,0,0,0,0,0,0,0,0,0,0,0,0,0,0,0,0,0,0,0,0,0,0,0,0,0,0,0,0,0,0,0,0,0,0,0,0,0,0,0,0,0,0,0,0,0,0,0,0,0],"trees":[{"base_weights":[-4.409091E-1,9.559748E-1,-1.2226149E0,1.7471265E0,-0E0,-1.4372294E0,-2.5925925E-1,3.4710744E-1,-1.3548387E0,-7.407407E-1,-1.5145631E0,1.3333334E0,-4.4E-1,7.586207E-1,-2.9850746E-2,6.666667E-1,-1.0434783E0,-1.5498722E0,-7.2E-1,-6.086956E-1,-5.7142857E-2,1.030303E0,3.448276E-1,-3.4146342E-1,4E-1,-0E0,1E0,-4.6153846E-1,-1.5E0,-8.333333E-1,-1.5795149E0,5.4545456E-1,-1.3333334E0,-1.25E-1,-9.268293E-1,2.2222222E-1,-6.666667E-1,-5.882353E-1,1.25E0,1.6666667E-1,-8.5714287E-1,1E0,-5.714286E-1,-1.0588236E0,4.6153846E-1,-1.5384616E-1,-1.2E0,-1.6307693E0,-1.12E0,-8.5714287E-1,3.6363637E-1,-1.2380953E0,-5E-1,-2.857143E-1,1.2E0,-1E0,-0E0],"categories":[],"categories_nodes":[],"categories_segments":[],"categories_sizes":[],"default_left":[true,true,true,false,true,true,true,true,false,true,true,false,true,true,true,true,true,true,true,true,true,false,true,true,true,false,false,true,false,true,true,false,false,true,true,true,true,false,false,false,false,false,false,false,false,false,false,false,false,false,false,false,false,false,false,false,false],"id":0,"left_children":[1,3,5,-1,7,9,11,13,-1,15,17,-1,19,21,23,25,27,29,31,33,35,-1,37,39,41,-1,-1,43,-1,45,47,-1,-1,49,51,53,55,-1,-1,-1,-1,-1,-1,-1,-1,-1,-1,-1,-1,-1,-1,-1,-1,-1,-1,-1,-1],"loss_changes":[2.4139828E2,6.0127525E1,2.8882538E1,0E0,1.7870434E1,5.099167E0,8.35852E0,4.7151246E0,0E0,6.4476647E0,1.7737885E0,0E0,1.579876E0,1.2748175E0,2.3801966E0,6.666666E-1,2.362876E0,7.59964E-1,5.578182E0,2.5385737E0,1.6380953E0,0E0,6.858519E0,2.8286874E0,4.942857E0,0E0,0E0,4.0723977E0,0E0,1.3102565E0,3.580017E-1,0E0,0E0,3.1737013E0,7.4274063E-1,3.6952379E0,6.666666E-1,0E0,0E0,0E0,0E0,0E0,0E0,0E0,0E0,0E0,0E0,0E0,0E0,0E0,0E0,0E0,0E0,0E0,0E0,0E0,0E0],"parents":[2147483647,0,0,1,1,2,2,4,4,5,5,6,6,7,7,9,9,10,10,12,12,13,13,14,14,15,15,16,16,17,17,18,18,19,19,20,20,22,22,23,23,24,24,27,27,29,29,30,30,33,33,34,34,35,35,36,36],"right_children":[2,4,6,-1,8,10,12,14,-1,16,18,-1,20,22,24,26,28,30,32,34,36,-1,38,40,42,-1,-1,44,-1,46,48,-1,-1,50,52,54,56,-1,-1,-1,-1,-1,-1,-1,-1,-1,-1,-1,-1,-1,-1,-1,-1,-1,-1,-1,-1],"split_conditions":[5E-1,2.5E0,5E-1,1.7471265E-2,-1.8835098E-1,5E-1,5E-1,5E-1,-1.3548387E-2,2.5E0,4.303888E-1,1.3333334E-2,5E-1,-4.9407023E-1,-4.3916786E-1,5E-1,1.5E0,1.5E0,5.2429944E-1,-2.6939034E-2,1.3215988E0,1.030303E-2,-3.4809482E-1,-4.9598968E-1,-3.0349648E-1,-0E0,1E-2,-4.4934773E-1,-1.5E-2,-1.12547204E-1,5E-1,5.4545454E-3,-1.3333334E-2,-1.324053E-1,5E-1,5E-1,2.595917E0,-5.882353E-3,1.2499999E-2,1.6666667E-3,-8.571428E-3,1E-2,-5.7142857E-3,-1.0588235E-2,4.6153846E-3,-1.5384615E-3,-1.2E-2,-1.6307693E-2,-1.12E-2,-8.571428E-3,3.6363637E-3,-1.2380953E-2,-5E-3,-2.8571428E-3,1.2E-2,-1E-2,-0E0],"split_indices":[1,0,6,0,4,5,5,9,0,0,4,0,7,4,4,2,2,0,4,4,4,0,4,4,4,0,0,4,0,4,7,0,0,4,2,2,4,0,0,0,0,0,0,0,0,0,0,0,0,0,0,0,0,0,0,0,0],"split_type":[0,0,0,0,0,0,0,0,0,0,0,0,0,0,0,0,0,0,0,0,0,0,0,0,0,0,0,0,0,0,0,0,0,0,0,0,0,0,0,0,0,0,0,0,0,0,0,0,0,0,0,0,0,0,0,0,0],"sum_hessian":[2.19E2,7.85E1,1.405E2,4.25E1,3.6E1,1.145E2,2.6E1,2.925E1,6.75E0,1.25E1,1.02E2,2E0,2.4E1,1.35E1,1.575E1,2E0,1.05E1,9.675E1,5.25E0,1.625E1,7.75E0,7.25E0,6.25E0,9.25E0,6.5E0,1E0,1E0,5.5E0,5E0,5E0,9.175E1,1.75E0,3.5E0,7E0,9.25E0,5.75E0,2E0,3.25E0,3E0,5E0,4.25E0,4E0,2.5E0,3.25E0,2.25E0,2.25E0,2.75E0,8.025E1,1.15E1,2.5E0,4.5E0,4.25E0,5E0,4.25E0,1.5E0,1E0,1E0],"tree_param":{"num_deleted":"0","num_feature":"10","num_nodes":"57","size_leaf_vector":"0"}},{"base_weights":[-4.3675587E-1,9.466933E-1,-1.21094E0,1.7301862E0,2.0344982E-5,-1.4234545E0,-2.570352E-1,3.4411535E-1,-1.3430926E0,-7.341685E-1,-1.4999796E0,1.3244839E0,-4.365329E-1,7.522191E-1,-2.9708957E-2,6.6333884E-1,-1.034902E0,-1.5348846E0,-7.140801E-1,-6.0391134E-1,-5.66699E-2,9.9221265E-1,3.0419207E-1,-3.3872512E-1,3.965778E-1,-4.570958E-1,-1.488384E0,-8.2727027E-1,-1.5641125E0,5.4198605E-1,-1.3230091E0,-1.2436779E-1,-9.1927415E-1,2.2135663E-1,-6.6333884E-1,-8.529465E-1,1.2406615E0,1.6527778E-1,-8.5021657E-1,9.9201983E-1,-5.673502E-1,-1.0522773E0,4.6185574E-1,-1.5278108E-1,-1.1912316E0,-1.6147686E0,-1.1097281E0,-8.510315E-1,3.6066213E-1,-1.2281109E0,-4.9583587E-1,-2.834018E-1,1.1928259E0],"categories":[],"categories_nodes":[],"categories_segments":[],"categories_sizes":[],"default_left":[true,true,true,false,true,true,true,true,false,true,true,false,true,true,true,false,true,true,true,true,true,false,true,true,true,true,false,true,true,false,false,true,true,true,false,false,false,false,false,false,false,false,false,false,false,false,false,false,false,false,false,false,false],"id":1,"left_children":[1,3,5,-1,7,9,11,13,-1,15,17,-1,19,21,23,-1,25,27,29,31,33,-1,35,37,39,41,-1,43,45,-1,-1,47,49,51,-1,-1,-1,-1,-1,-1,-1,-1,-1,-1,-1,-1,-1,-1,-1,-1,-1,-1,-1],"loss_changes":[2.367645E2,5.8962997E1,2.8317429E1,0E0,1.756165E1,4.9907837E0,8.242793E0,4.637178E0,0E0,6.360061E0,1.7292786E0,0E0,1.5552759E0,1.2572327E0,2.3407733E0,0E0,2.3328495E0,7.2761536E-1,5.4972672E0,2.4943557E0,1.6226827E0,0E0,8.101629E0,2.7828813E0,4.8674774E0,4.0410666E0,0E0,1.290905E0,3.4277344E-1,0E0,0E0,3.1265426E0,7.314596E-1,3.64793E0,0E0,0E0,0E0,0E0,0E0,0E0,0E0,0E0,0E0,0E0,0E0,0E0,0E0,0E0,0E0,0E0,0E0,0E0,0E0],"parents":[2147483647,0,0,1,1,2,2,4,4,5,5,6,6,7,7,9,9,10,10,12,12,13,13,14,14,16,16,17,17,18,18,19,19,20,20,22,22,23,23,24,24,25,25,27,27,28,28,31,31,32,32,33,33],"right_children":[2,4,6,-1,8,10,12,14,-1,16,18,-1,20,22,24,-1,26,28,30,32,34,-1,36,38,40,42,-1,44,46,-1,-1,48,50,52,-1,-1,-1,-1,-1,-1,-1,-1,-1,-1,-1,-1,-1,-1,-1,-1,-1,-1,-1],"split_conditions":[5E-1,2.5E0,5E-1,1.7301861E-2,-1.8835098E-1,5E-1,5E-1,5E-1,-1.3430925E-2,2.5E0,4.303888E-1,1.3244838E-2,5E-1,-3.7688017E-1,-4.3916786E-1,6.6333883E-3,-2.3891486E-1,1.5E0,5.2429944E-1,-2.6939034E-2,1.3215988E0,9.922126E-3,-3.4809482E-1,-4.9598968E-1,-3.0349648E-1,5E-1,-1.48838395E-2,-1.12547204E-1,5E-1,5.41986E-3,-1.3230091E-2,-1.324053E-1,5E-1,5E-1,-6.6333883E-3,-8.529465E-3,1.2406615E-2,1.6527778E-3,-8.502166E-3,9.9201985E-3,-5.673502E-3,-1.05227735E-2,4.618557E-3,-1.5278108E-3,-1.1912316E-2,-1.6147686E-2,-1.109728E-2,-8.510315E-3,3.6066212E-3,-1.2281109E-2,-4.9583586E-3,-2.8340179E-3,1.1928258E-2],"split_indices":[1,0,6,0,4,5,5,9,0,0,4,0,7,4,4,0,4,0,4,4,4,0,4,4,4,3,0,4,7,0,0,4,2,2,0,0,0,0,0,0,0,0,0,0,0,0,0,0,0,0,0,0,0],"split_type":[0,0,0,0,0,0,0,0,0,0,0,0,0,0,0,0,0,0,0,0,0,0,0,0,0,0,0,0,0,0,0,0,0,0,0,0,0,0,0,0,0,0,0,0,0,0,0,0,0,0,0,0,0],"sum_hessian":[2.189891E2,7.849591E1,1.4049321E2,4.2496758E1,3.599915E1,1.1449364E2,2.5999569E1,2.924946E1,6.7496896E0,1.2499591E1,1.0199404E2,1.9999111E0,2.3999659E1,1.3499662E1,1.5749799E1,1.999975E0,1.0499617E1,9.674421E1,5.249831E0,1.6249744E1,7.7499123E0,7.999801E0,5.4998612E0,9.249919E0,6.49988E0,5.4998846E0,4.9997315E0,4.9999E0,9.174431E1,1.749987E0,3.499844E0,6.9999394E0,9.249805E0,5.7499375E0,1.999975E0,2.4999783E0,2.999883E0,4.999996E0,4.2499223E0,3.9999E0,2.4999797E0,3.2499135E0,2.2499712E0,2.2499986E0,2.749901E0,8.0244675E1,1.149964E1,2.4999542E0,4.499985E0,4.249837E0,4.999969E0,4.2499914E0,1.499946E0],"tree_param":{"num_deleted":"0","num_feature":"10","num_nodes":"53","size_leaf_vector":"0"}},{"base_weights":[-4.326973E-1,9.3755984E-1,-1.1994895E0,1.7136623E0,-4.0270632E-5,-1.4099926E0,-2.5471526E-1,3.410625E-1,-1.331553E0,-7.2793514E-1,-1.4857066E0,1.3157705E0,-4.329723E-1,7.4570036E-1,-2.956835E-2,6.589288E-1,-1.0264544E0,-1.52022E0,-7.08246E-1,-5.991824E-1,-5.5823486E-2,9.834529E-1,3.0176803E-1,-3.360142E-1,3.9319715E-1,-4.5345056E-1,-1.4761783E0,-8.212788E-1,-1.5490481E0,5.385447E-1,-1.3128543E0,-1.23739906E-1,-9.118149E-1,2.204965E-1,-6.589288E-1,-8.468803E-1,1.2314641E0,1.639008E-1,-8.433715E-1,9.8414236E-1,-5.6330746E-1,-1.0454224E0,4.6015954E-1,-1.517237E-1,-1.1825892E0,-1.599132E0,-1.0996131E0,-8.4498584E-1,3.5771418E-1,-1.2182819E0,-4.9171162E-1,-2.811091E-1,1.1857456E0],"categories":[],"categories_nodes":[],"categories_segments":[],"categories_sizes":[],"default_left":[true,true,true,false,true,true,true,true,false,true,true,false,true,true,true,false,true,true,true,true,true,false,true,true,true,true,false,true,true,false,false,true,true,true,false,false,false,false,false,false,false,false,false,false,false,false,false,false,false,false,false,false,false],"id":2,"left_children":[1,3,5,-1,7,9,11,13,-1,15,17,-1,19,21,23,-1,25,27,29,31,33,-1,35,37,39,41,-1,43,45,-1,-1,47,49,51,-1,-1,-1,-1,-1,-1,-1,-1,-1,-1,-1,-1,-1,-1,-1,-1,-1,-1,-1],"loss_changes":[2.3223393E2,5.7838333E1,2.7776733E1,0E0,1.725737E1,4.881775E0,8.127872E0,4.558359E0,0E0,6.2648125E0,1.6864624E0,0E0,1.5336156E0,1.2335024E0,2.3020577E0,0E0,2.2937326E0,6.969147E-1,5.417901E0,2.4510417E0,1.6034248E0,0E0,7.983578E0,2.7379115E0,4.793419E0,3.9962702E0,0E0,1.2719803E0,3.287964E-1,0E0,0E0,3.0801542E0,7.205219E-1,3.6013803E0,0E0,0E0,0E0,0E0,0E0,0E0,0E0,0E0,0E0,0E0,0E0,0E0,0E0,0E0,0E0,0E0,0E0,0E0,0E0],"parents":[2147483647,0,0,1,1,2,2,4,4,5,5,6,6,7,7,9,9,10,10,12,12,13,13,14,14,16,16,17,17,18,18,19,19,20,20,22,22,23,23,24,24,25,25,27,27,28,28,31,31,32,32,33,33],"right_children":[2,4,6,-1,8,10,12,14,-1,16,18,-1,20,22,24,-1,26,28,30,32,34,-1,36,38,40,42,-1,44,46,-1,-1,48,50,52,-1,-1,-1,-1,-1,-1,-1,-1,-1,-1,-1,-1,-1,-1,-1,-1,-1,-1,-1],"split_conditions":[5E-1,2.5E0,5E-1,1.7136622E-2,-1.8835098E-1,5E-1,5E-1,5E-1,-1.331553E-2,2.5E0,4.303888E-1,1.3157705E-2,5E-1,-3.7688017E-1,-4.3916786E-1,6.589288E-3,-2.3891486E-1,1.5E0,5.2429944E-1,-2.6939034E-2,1.3215988E0,9.834529E-3,-3.4809482E-1,-4.9598968E-1,-3.0349648E-1,-4.4934773E-1,-1.4761782E-2,-1.12547204E-1,5E-1,5.385447E-3,-1.3128542E-2,-1.324053E-1,5E-1,5E-1,-6.589288E-3,-8.468803E-3,1.2314641E-2,1.6390079E-3,-8.4337145E-3,9.8414235E-3,-5.6330743E-3,-1.0454224E-2,4.6015955E-3,-1.5172369E-3,-1.1825891E-2,-1.5991319E-2,-1.099613E-2,-8.449858E-3,3.5771418E-3,-1.2182819E-2,-4.917116E-3,-2.8110908E-3,1.1857456E-2],"split_indices":[1,0,6,0,4,5,5,9,0,0,4,0,7,4,4,0,4,0,4,4,4,0,4,4,4,4,0,4,7,0,0,4,2,2,0,0,0,0,0,0,0,0,0,0,0,0,0,0,0,0,0,0,0],"split_type":[0,0,0,0,0,0,0,0,0,0,0,0,0,0,0,0,0,0,0,0,0,0,0,0,0,0,0,0,0,0,0,0,0,0,0,0,0,0,0,0,0,0,0,0,0,0,0,0,0,0,0,0,0],"sum_hessian":[2.1895695E2,7.848379E1,1.4047318E2,4.2487156E1,3.599663E1,1.1447487E2,2.5998306E1,2.924786E1,6.7487717E0,1.249849E1,1.0197638E2,1.9996469E0,2.399866E1,1.349866E1,1.5749199E1,1.9999199E0,1.049857E1,9.672704E1,5.2493305E0,1.624899E1,7.7496705E0,7.999255E0,5.499405E0,9.249677E0,6.499522E0,5.4996376E0,4.9989333E0,4.9996014E0,9.172745E1,1.7499483E0,3.4993825E0,6.9997587E0,9.249229E0,5.749751E0,1.9999198E0,2.49987E0,2.9995346E0,4.999986E0,4.2496905E0,3.9996033E0,2.4999192E0,3.2497146E0,2.249923E0,2.2499948E0,2.7496068E0,8.0228874E1,1.1498571E1,2.4998176E0,4.499941E0,4.2493534E0,4.999876E0,4.2499657E0,1.4997853E0],"tree_param":{"num_deleted":"0","num_feature":"10","num_nodes":"53","size_leaf_vector":"0"}},{"base_weights":[-4.287174E-1,9.286066E-1,-1.1882569E0,1.697538E0,-9.99726E-5,-1.3968058E0,-2.524232E-1,3.3804893E-1,-1.3202145E0,-7.2179437E-1,-1.4717332E0,1.3071902E0,-4.2945182E-1,7.39274E-1,-2.9428685E-2,6.545575E-1,-1.0181385E0,-1.5058672E0,-7.02496E-1,-5.9450775E-1,-5.4986827E-2,1.0040882E0,3.359467E-1,-3.3332995E-1,3.8985726E-1,-4.4968787E-1,-1.464374E0,-8.15357E-1,-1.5343094E0,5.3513014E-1,-1.3028649E0,-1.2311629E-1,-9.0444946E-1,2.1964209E-1,-6.5455765E-1,3.820173E-1,1.0857155E0,-5.7727444E-1,1.2224048E0,1.625355E-1,-8.366053E-1,9.7636545E-1,-5.593E-1,-1.0375233E0,4.572947E-1,-1.5067343E-1,-1.1740695E0,-1.5838459E0,-1.0896505E0,-8.390046E-1,3.547922E-1,-1.2086039E0,-4.8762667E-1,-2.788356E-1,1.1787573E0],"categories":[],"categories_nodes":[],"categories_segments":[],"categories_sizes":[],"default_left":[true,true,true,false,true,true,true,true,false,true,true,false,true,true,true,false,true,true,true,true,true,true,true,true,true,true,false,true,true,false,false,true,true,true,false,false,false,false,false,false,false,false,false,false,false,false,false,false,false,false,false,false,false,false,false],"id":3,"left_children":[1,3,5,-1,7,9,11,13,-1,15,17,-1,19,21,23,-1,25,27,29,31,33,35,37,39,41,43,-1,45,47,-1,-1,49,51,53,-1,-1,-1,-1,-1,-1,-1,-1,-1,-1,-1,-1,-1,-1,-1,-1,-1,-1,-1,-1,-1],"loss_changes":[2.2781155E2,5.67462E1,2.7251862E1,0E0,1.6959545E1,4.7765045E0,8.014929E0,4.481142E0,0E0,6.171358E0,1.6452484E0,0E0,1.5123167E0,1.2110538E0,2.264034E0,0E0,2.2578049E0,6.677551E-1,5.340044E0,2.4086099E0,1.5844177E0,4.0721893E-3,6.573637E0,2.6937556E0,4.720651E0,3.9395523E0,0E0,1.2534685E0,3.160553E-1,0E0,0E0,3.0345209E0,7.0991325E-1,3.5555716E0,0E0,0E0,0E0,0E0,0E0,0E0,0E0,0E0,0E0,0E0,0E0,0E0,0E0,0E0,0E0,0E0,0E0,0E0,0E0,0E0,0E0],"parents":[2147483647,0,0,1,1,2,2,4,4,5,5,6,6,7,7,9,9,10,10,12,12,13,13,14,14,16,16,17,17,18,18,19,19,20,20,21,21,22,22,23,23,24,24,25,25,27,27,28,28,31,31,32,32,33,33],"right_children":[2,4,6,-1,8,10,12,14,-1,16,18,-1,20,22,24,-1,26,28,30,32,34,36,38,40,42,44,-1,46,48,-1,-1,50,52,54,-1,-1,-1,-1,-1,-1,-1,-1,-1,-1,-1,-1,-1,-1,-1,-1,-1,-1,-1,-1,-1],"split_conditions":[5E-1,2.5E0,5E-1,1.697538E-2,-1.8835098E-1,5E-1,5E-1,5E-1,-1.3202145E-2,2.5E0,4.303888E-1,1.3071901E-2,5E-1,-4.9407023E-1,-4.3916786E-1,6.5455753E-3,1.5E0,1.5E0,5.2429944E-1,-2.6939034E-2,1.3215988E0,-5.021224E-1,-3.4809482E-1,-4.9598968E-1,-3.0349648E-1,-4.4934773E-1,-1.4643739E-2,-1.12547204E-1,5E-1,5.3513013E-3,-1.3028649E-2,-1.324053E-1,5E-1,5E-1,-6.5455763E-3,3.820173E-3,1.0857155E-2,-5.7727443E-3,1.2224048E-2,1.625355E-3,-8.366053E-3,9.763654E-3,-5.593E-3,-1.0375232E-2,4.572947E-3,-1.5067343E-3,-1.1740695E-2,-1.5838457E-2,-1.0896505E-2,-8.390046E-3,3.547922E-3,-1.20860385E-2,-4.8762667E-3,-2.7883558E-3,1.1787573E-2],"split_indices":[1,0,6,0,4,5,5,9,0,0,4,0,7,4,4,0,2,0,4,4,4,4,4,4,4,4,0,4,7,0,0,4,2,2,0,0,0,0,0,0,0,0,0,0,0,0,0,0,0,0,0,0,0,0,0],"split_type":[0,0,0,0,0,0,0,0,0,0,0,0,0,0,0,0,0,0,0,0,0,0,0,0,0,0,0,0,0,0,0,0,0,0,0,0,0,0,0,0,0,0,0,0,0,0,0,0,0,0,0,0,0,0,0],"sum_hessian":[2.1890402E2,7.846381E1,1.4044022E2,4.2471382E1,3.599243E1,1.14444E2,2.5996218E1,2.9245173E1,6.747261E0,1.2496644E1,1.0194735E2,1.9992107E0,2.3997007E1,1.3496961E1,1.5748211E1,1.9998214E0,1.0496822E1,9.6698845E1,5.248506E0,1.6247742E1,7.7492647E0,7.2483625E0,6.248598E0,9.249278E0,6.4989333E0,5.499216E0,4.9976068E0,4.99911E0,9.169974E1,1.7498844E0,3.498622E0,6.999461E0,9.248281E0,5.749443E0,1.9998214E0,1.4996612E0,5.7487016E0,3.249637E0,2.998961E0,4.9999695E0,4.2493086E0,3.9991143E0,2.499819E0,3.2493272E0,2.249889E0,2.249988E0,2.7491221E0,8.020293E1,1.1496814E1,2.4995928E0,4.4998684E0,4.248558E0,4.999723E0,4.249923E0,1.4995198E0],"tree_param":{"num_deleted":"0","num_feature":"10","num_nodes":"55","size_leaf_vector":"0"}},{"base_weights":[-4.2477855E-1,9.199207E-1,-1.177235E0,1.6817992E0,4.5752386E-5,-1.3838845E0,-2.5015852E-1,3.3532143E-1,-1.3090711E0,-7.157454E-1,-1.4580485E0,1.2987398E0,-4.259708E-1,7.334485E-1,-2.929025E-2,6.502246E-1,-1.009953E0,-1.4918144E0,-6.96828E-1,-5.8988625E-1,-5.4159928E-2,9.678474E-1,2.9600278E-1,-3.3067244E-1,3.8655728E-1,-4.4554824E-1,-1.4532405E0,-8.095043E-1,-1.519884E0,5.317421E-1,-1.2930365E0,-1.22497E-1,-8.971755E-1,2.1879299E-1,-6.5022457E-1,-8.3680004E-1,1.2134796E0,1.6118151E-1,-8.2991683E-1,9.686866E-1,-5.553271E-1,-1.0327355E0,4.592635E-1,-1.4963084E-1,-1.1656702E0,-1.5688969E0,-1.0798367E0,-8.330866E-1,3.5189575E-1,-1.1990732E0,-4.835801E-1,-2.7658165E-1,1.1718591E0],"categories":[],"categories_nodes":[],"categories_segments":[],"categories_sizes":[],"default_left":[true,true,true,false,true,true,true,true,false,true,true,false,true,true,true,false,true,true,true,true,true,false,true,true,true,true,false,true,true,false,false,true,true,true,false,false,false,false,false,false,false,false,false,false,false,false,false,false,false,false,false,false,false],"id":4,"left_children":[1,3,5,-1,7,9,11,13,-1,15,17,-1,19,21,23,-1,25,27,29,31,33,-1,35,37,39,41,-1,43,45,-1,-1,47,49,51,-1,-1,-1,-1,-1,-1,-1,-1,-1,-1,-1,-1,-1,-1,-1,-1,-1,-1,-1],"loss_changes":[2.2351418E2,5.56716E1,2.6742188E1,0E0,1.6673033E1,4.674759E0,7.9039207E0,4.4114146E0,0E0,6.079665E0,1.6055145E0,0E0,1.4913688E0,1.1997657E0,2.22669E0,0E0,2.2283268E0,6.400604E-1,5.2636557E0,2.367035E0,1.5656564E0,0E0,7.7685843E0,2.6503968E0,4.649145E0,3.9269423E0,0E0,1.235357E0,3.0436707E-1,0E0,0E0,2.9896274E0,6.99625E-1,3.5104926E0,0E0,0E0,0E0,0E0,0E0,0E0,0E0,0E0,0E0,0E0,0E0,0E0,0E0,0E0,0E0,0E0,0E0,0E0,0E0],"parents":[2147483647,0,0,1,1,2,2,4,4,5,5,6,6,7,7,9,9,10,10,12,12,13,13,14,14,16,16,17,17,18,18,19,19,20,20,22,22,23,23,24,24,25,25,27,27,28,28,31,31,32,32,33,33],"right_children":[2,4,6,-1,8,10,12,14,-1,16,18,-1,20,22,24,-1,26,28,30,32,34,-1,36,38,40,42,-1,44,46,-1,-1,48,50,52,-1,-1,-1,-1,-1,-1,-1,-1,-1,-1,-1,-1,-1,-1,-1,-1,-1,-1,-1],"split_conditions":[5E-1,2.5E0,5E-1,1.681799E-2,-1.8835098E-1,5E-1,5E-1,5E-1,-1.309071E-2,2.5E0,4.303888E-1,1.2987398E-2,5E-1,-3.7688017E-1,-4.3916786E-1,6.502246E-3,-2.3891486E-1,1.5E0,5.2429944E-1,-2.6939034E-2,1.3215988E0,9.678474E-3,-3.4809482E-1,-4.9598968E-1,-3.0349648E-1,5E-1,-1.4532405E-2,-1.12547204E-1,5E-1,5.3174207E-3,-1.2930364E-2,-1.324053E-1,5E-1,5E-1,-6.5022456E-3,-8.368E-3,1.2134796E-2,1.6118151E-3,-8.299168E-3,9.686866E-3,-5.553271E-3,-1.0327354E-2,4.5926347E-3,-1.4963084E-3,-1.1656702E-2,-1.5688969E-2,-1.0798367E-2,-8.330866E-3,3.5189574E-3,-1.1990732E-2,-4.835801E-3,-2.7658164E-3,1.1718591E-2],"split_indices":[1,0,6,0,4,5,5,9,0,0,4,0,7,4,4,0,4,0,4,4,4,0,4,4,4,3,0,4,7,0,0,4,2,2,0,0,0,0,0,0,0,0,0,0,0,0,0,0,0,0,0,0,0],"split_type":[0,0,0,0,0,0,0,0,0,0,0,0,0,0,0,0,0,0,0,0,0,0,0,0,0,0,0,0,0,0,0,0,0,0,0,0,0,0,0,0,0,0,0,0,0,0,0,0,0,0,0,0,0],"sum_hessian":[2.1883115E2,7.843645E1,1.403947E2,4.2449623E1,3.5986824E1,1.14401375E2,2.5993322E1,2.9241652E1,6.745173E0,1.2494042E1,1.0190733E2,1.9986063E0,2.3994717E1,1.3494805E1,1.5746845E1,1.9996808E0,1.0494361E1,9.6659966E1,5.2473645E0,1.624602E1,7.748697E0,7.9971514E0,5.4976544E0,9.248727E0,6.4981184E0,5.498559E0,4.9958024E0,4.9984303E0,9.166154E1,1.7497957E0,3.497569E0,6.9990487E0,9.24697E0,5.7490163E0,1.9996809E0,2.4994872E0,2.998167E0,4.9999456E0,4.248781E0,3.9984381E0,2.4996805E0,3.2488205E0,2.2497385E0,2.249979E0,2.748451E0,8.016715E1,1.1494389E1,2.4992812E0,4.499768E0,4.247457E0,4.9995127E0,4.2498646E0,1.4991516E0],"tree_param":{"num_deleted":"0","num_feature":"10","num_nodes":"53","size_leaf_vector":"0"}},{"base_weights":[-4.20948E-1,9.1130877E-1,-1.1664162E0,1.6664307E0,-1.4270337E-5,-1.3712188E0,-2.4792053E-1,3.323803E-1,-1.2981167E0,-7.097789E-1,-1.4446428E0,1.2904161E0,-4.225283E-1,7.271905E-1,-2.9152831E-2,6.4592946E-1,-1.0018834E0,-1.4780514E0,-6.9124013E-1,-5.8531696E-1,-5.334238E-2,9.594161E-1,2.9368415E-1,-3.2804087E-1,3.8329628E-1,-4.420229E-1,-1.4416986E0,-8.037186E-1,-1.5057614E0,5.2838016E-1,-1.2833647E0,-1.2188163E-1,-8.8999134E-1,2.179496E-1,-6.4592946E-1,-8.309054E-1,1.2046856E0,1.5983921E-1,-8.2330453E-1,9.6110356E-1,-5.513886E-1,-1.0249999E0,4.5608813E-1,-1.4859529E-1,-1.1573882E0,-1.5542734E0,-1.0701675E0,-8.272306E-1,3.490249E-1,-1.189686E0,-4.7957185E-1,-2.7434647E-1,1.1650493E0],"categories":[],"categories_nodes":[],"categories_segments":[],"categories_sizes":[],"default_left":[true,true,true,false,true,true,true,true,false,true,true,false,true,true,true,false,true,true,true,true,true,false,true,true,true,true,false,true,true,false,false,true,true,true,false,false,false,false,false,false,false,false,false,false,false,false,false,false,false,false,false,false,false],"id":5,"left_children":[1,3,5,-1,7,9,11,13,-1,15,17,-1,19,21,23,-1,25,27,29,31,33,-1,35,37,39,41,-1,43,45,-1,-1,47,49,51,-1,-1,-1,-1,-1,-1,-1,-1,-1,-1,-1,-1,-1,-1,-1,-1,-1,-1,-1],"loss_changes":[2.1929749E2,5.464099E1,2.6246994E1,0E0,1.6387457E1,4.5765533E0,7.7948027E0,4.3371325E0,0E0,5.989626E0,1.5672302E0,0E0,1.4707665E0,1.1771483E0,2.1900089E0,0E0,2.1923037E0,6.137085E-1,5.188698E0,2.3263016E0,1.54714E0,0E0,7.656457E0,2.6078196E0,4.578875E0,3.8696294E0,0E0,1.2176366E0,2.937317E-1,0E0,0E0,2.9454613E0,6.896372E-1,3.466126E0,0E0,0E0,0E0,0E0,0E0,0E0,0E0,0E0,0E0,0E0,0E0,0E0,0E0,0E0,0E0,0E0,0E0,0E0,0E0],"parents":[2147483647,0,0,1,1,2,2,4,4,5,5,6,6,7,7,9,9,10,10,12,12,13,13,14,14,16,16,17,17,18,18,19,19,20,20,22,22,23,23,24,24,25,25,27,27,28,28,31,31,32,32,33,33],"right_children":[2,4,6,-1,8,10,12,14,-1,16,18,-1,20,22,24,-1,26,28,30,32,34,-1,36,38,40,42,-1,44,46,-1,-1,48,50,52,-1,-1,-1,-1,-1,-1,-1,-1,-1,-1,-1,-1,-1,-1,-1,-1,-1,-1,-1],"split_conditions":[5E-1,2.5E0,5E-1,1.6664308E-2,-1.8835098E-1,5E-1,5E-1,5E-1,-1.2981166E-2,2.5E0,4.303888E-1,1.2904161E-2,5E-1,-3.7688017E-1,-4.3916786E-1,6.4592944E-3,-2.3891486E-1,1.5E0,5.2429944E-1,-2.6939034E-2,1.3215988E0,9.594161E-3,-3.4809482E-1,-4.9598968E-1,-3.0349648E-1,5E-1,-1.4416985E-2,-1.12547204E-1,5E-1,5.2838014E-3,-1.28336465E-2,-1.324053E-1,5E-1,5E-1,-6.4592944E-3,-8.309053E-3,1.2046856E-2,1.5983921E-3,-8.233045E-3,9.611036E-3,-5.513886E-3,-1.0249998E-2,4.5608813E-3,-1.4859529E-3,-1.1573882E-2,-1.55427335E-2,-1.0701675E-2,-8.272305E-3,3.490249E-3,-1.1896859E-2,-4.7957185E-3,-2.7434647E-3,1.1650492E-2],"split_indices":[1,0,6,0,4,5,5,9,0,0,4,0,7,4,4,0,4,0,4,4,4,0,4,4,4,3,0,4,7,0,0,4,2,2,0,0,0,0,0,0,0,0,0,0,0,0,0,0,0,0,0,0,0],"split_type":[0,0,0,0,0,0,0,0,0,0,0,0,0,0,0,0,0,0,0,0,0,0,0,0,0,0,0,0,0,0,0,0,0,0,0,0,0,0,0,0,0,0,0,0,0,0,0,0,0,0,0,0,0],"sum_hessian":[2.1873862E2,7.840154E1,1.4033707E2,4.2422054E1,3.5979485E1,1.14347435E2,2.5989637E1,2.9236963E1,6.7425227E0,1.2490821E1,1.0185661E2,1.9978371E0,2.39918E1,1.3491853E1,1.57451105E1,1.9994986E0,1.04913225E1,9.66107E1,5.245914E0,1.6243828E1,7.7479715E0,7.995551E0,5.496301E0,9.248027E0,6.4970837E0,5.4978647E0,4.993458E0,4.997565E0,9.161314E1,1.7496828E0,3.4962313E0,6.9985247E0,9.245303E0,5.7484727E0,1.9994987E0,2.4991436E0,2.9971578E0,4.999916E0,4.248111E0,3.997579E0,2.4995043E0,3.2481556E0,2.2497091E0,2.2499676E0,2.7475972E0,8.0121826E1,1.1491311E1,2.4988847E0,4.49964E0,4.246059E0,4.999244E0,4.24979E0,1.4986824E0],"tree_param":{"num_deleted":"0","num_feature":"10","num_nodes":"53","size_leaf_vector":"0"}},{"base_weights":[-4.1718873E-1,9.0285987E-1,-1.1557952E0,1.6514189E0,-7.343168E-5,-1.3588014E0,-2.4570888E-1,3.294761E-1,-1.2873461E0,-7.0390046E-1,-1.4315065E0,1.2822165E0,-4.1912386E-1,7.210188E-1,-2.9016407E-2,6.416715E-1,-9.939386E-1,-1.4645685E0,-6.857304E-1,-5.807989E-1,-5.253417E-2,9.5109624E-1,2.9139742E-1,-3.2543498E-1,3.800738E-1,-4.3853843E-1,-1.4303691E0,-7.979991E-1,-1.491931E0,5.2504414E-1,-1.2738452E0,-1.21270485E-1,-8.8289505E-1,2.171116E-1,-6.4167154E-1,-8.2507235E-1,1.1960193E0,1.5850817E-1,-8.1676674E-1,9.5361465E-1,-5.47484E-1,-1.019546E0,4.5587173E-1,-1.4756739E-1,-1.1492205E0,-1.5399636E0,-1.060639E0,-8.214356E-1,3.4617898E-1,-1.1804386E0,-4.756012E-1,-2.7213028E-1,1.1583261E0],"categories":[],"categories_nodes":[],"categories_segments":[],"categories_sizes":[],"default_left":[true,true,true,false,true,true,true,true,false,true,true,false,true,true,true,false,true,true,true,true,true,false,true,true,true,true,false,true,true,false,false,true,true,true,false,false,false,false,false,false,false,false,false,false,false,false,false,false,false,false,false,false,false],"id":6,"left_children":[1,3,5,-1,7,9,11,13,-1,15,17,-1,19,21,23,-1,25,27,29,31,33,-1,35,37,39,41,-1,43,45,-1,-1,47,49,51,-1,-1,-1,-1,-1,-1,-1,-1,-1,-1,-1,-1,-1,-1,-1,-1,-1,-1,-1],"loss_changes":[2.151791E2,5.3639084E1,2.5765747E1,0E0,1.6107819E1,4.4815063E0,7.687539E0,4.2643366E0,0E0,5.901266E0,1.5303192E0,0E0,1.4505029E0,1.1549616E0,2.1539798E0,0E0,2.1572475E0,5.886688E-1,5.115133E0,2.2863827E0,1.528863E0,0E0,7.546293E0,2.5660048E0,4.509814E0,3.8409977E0,0E0,1.20029E0,2.840271E-1,0E0,0E0,2.9020078E0,6.799431E-1,3.4224598E0,0E0,0E0,0E0,0E0,0E0,0E0,0E0,0E0,0E0,0E0,0E0,0E0,0E0,0E0,0E0,0E0,0E0,0E0,0E0],"parents":[2147483647,0,0,1,1,2,2,4,4,5,5,6,6,7,7,9,9,10,10,12,12,13,13,14,14,16,16,17,17,18,18,19,19,20,20,22,22,23,23,24,24,25,25,27,27,28,28,31,31,32,32,33,33],"right_children":[2,4,6,-1,8,10,12,14,-1,16,18,-1,20,22,24,-1,26,28,30,32,34,-1,36,38,40,42,-1,44,46,-1,-1,48,50,52,-1,-1,-1,-1,-1,-1,-1,-1,-1,-1,-1,-1,-1,-1,-1,-1,-1,-1,-1],"split_conditions":[5E-1,2.5E0,5E-1,1.651419E-2,-1.8835098E-1,5E-1,5E-1,5E-1,-1.2873461E-2,2.5E0,4.303888E-1,1.2822165E-2,5E-1,-3.7688017E-1,-4.3916786E-1,6.4167148E-3,-2.3891486E-1,1.5E0,5.2429944E-1,-2.6939034E-2,1.3215988E0,9.510962E-3,-3.4809482E-1,-4.9598968E-1,-3.0349648E-1,-4.4934773E-1,-1.4303691E-2,-1.12547204E-1,5E-1,5.2504414E-3,-1.2738451E-2,-1.324053E-1,5E-1,5E-1,-6.416715E-3,-8.250724E-3,1.1960193E-2,1.5850817E-3,-8.167667E-3,9.536146E-3,-5.47484E-3,-1.019546E-2,4.5587174E-3,-1.4756739E-3,-1.1492205E-2,-1.5399636E-2,-1.060639E-2,-8.214355E-3,3.4617898E-3,-1.1804386E-2,-4.756012E-3,-2.7213027E-3,1.1583261E-2],"split_indices":[1,0,6,0,4,5,5,9,0,0,4,0,7,4,4,0,4,0,4,4,4,0,4,4,4,4,0,4,7,0,0,4,2,2,0,0,0,0,0,0,0,0,0,0,0,0,0,0,0,0,0,0,0],"split_type":[0,0,0,0,0,0,0,0,0,0,0,0,0,0,0,0,0,0,0,0,0,0,0,0,0,0,0,0,0,0,0,0,0,0,0,0,0,0,0,0,0,0,0,0,0,0,0,0,0,0,0,0,0],"sum_hessian":[2.1862701E2,7.835944E1,1.4026756E2,4.2388855E1,3.5970592E1,1.1428239E2,2.598518E1,2.9231264E1,6.7393274E0,1.2486871E1,1.0179552E2,1.9969064E0,2.3988274E1,1.348825E1,1.5743015E1,1.9992759E0,1.0487595E1,9.655136E1,5.244162E0,1.6241182E1,7.7470903E0,7.993596E0,5.494654E0,9.247182E0,6.495833E0,5.496981E0,4.990613E0,4.996519E0,9.155484E1,1.7495462E0,3.4946158E0,6.997891E0,9.243292E0,5.747814E0,1.9992758E0,2.4987159E0,2.995938E0,4.9998803E0,4.247302E0,3.9965417E0,2.499291E0,3.2475004E0,2.2494807E0,2.2499535E0,2.7465658E0,8.006724E1,1.1487603E1,2.4984052E0,4.499486E0,4.244371E0,4.9989214E0,4.2497E0,1.4981143E0],"tree_param":{"num_deleted":"0","num_feature":"10","num_nodes":"53","size_leaf_vector":"0"}},{"base_weights":[-4.134981E-1,8.945691E-1,-1.1453649E0,1.6367512E0,-1.3159322E-4,-1.3466233E0,-2.435231E-1,3.2660812E-1,-1.2767539E0,-6.981041E-1,-1.4186305E0,1.2741377E0,-4.1575676E-1,7.1493137E-1,-2.8880894E-2,6.374503E-1,-9.8610944E-1,-1.4513557E0,-6.8029714E-1,-5.7633126E-1,-5.1735066E-2,9.713489E-1,3.244277E-1,-3.2285446E-1,3.7688905E-1,-4.346279E-1,-1.4197315E0,-7.923443E-1,-1.4783823E0,5.217338E-1,-1.2644744E0,-1.2066345E-1,-8.7588495E-1,2.1627901E-1,-6.374503E-1,3.6262763E-1,1.0528492E0,-5.6350446E-1,1.1874778E0,1.571884E-1,-8.1030226E-1,9.4621754E-1,-5.4361224E-1,-1.0119777E0,4.5366794E-1,-1.4654648E-1,-1.1411648E0,-1.5259563E0,-1.0512477E0,-8.1570053E-1,3.4335792E-1,-1.1713275E0,-4.7166798E-1,-2.6993278E-1,1.151688E0],"categories":[],"categories_nodes":[],"categories_segments":[],"categories_sizes":[],"default_left":[true,true,true,false,true,true,true,true,false,true,true,false,true,true,true,false,true,true,true,true,true,true,true,true,true,true,false,true,true,false,false,true,true,true,false,false,false,false,false,false,false,false,false,false,false,false,false,false,false,false,false,false,false,false,false],"id":7,"left_children":[1,3,5,-1,7,9,11,13,-1,15,17,-1,19,21,23,-1,25,27,29,31,33,35,37,39,41,43,-1,45,47,-1,-1,49,51,53,-1,-1,-1,-1,-1,-1,-1,-1,-1,-1,-1,-1,-1,-1,-1,-1,-1,-1,-1,-1,-1],"loss_changes":[2.1115588E2,5.266474E1,2.5297897E1,0E0,1.5833948E1,4.389572E0,7.582087E0,4.1929903E0,0E0,5.814511E0,1.4946747E0,0E0,1.430572E0,1.1351805E0,2.1185896E0,0E0,2.1289902E0,5.6484985E-1,5.0429273E0,2.2472606E0,1.5108225E0,2.7079582E-2,6.2192664E0,2.5249367E0,4.4419336E0,3.7905684E0,0E0,1.1833119E0,2.7522278E-1,0E0,0E0,2.8592548E0,6.7052555E-1,3.3794801E0,0E0,0E0,0E0,0E0,0E0,0E0,0E0,0E0,0E0,0E0,0E0,0E0,0E0,0E0,0E0,0E0,0E0,0E0,0E0,0E0,0E0],"parents":[2147483647,0,0,1,1,2,2,4,4,5,5,6,6,7,7,9,9,10,10,12,12,13,13,14,14,16,16,17,17,18,18,19,19,20,20,21,21,22,22,23,23,24,24,25,25,27,27,28,28,31,31,32,32,33,33],"right_children":[2,4,6,-1,8,10,12,14,-1,16,18,-1,20,22,24,-1,26,28,30,32,34,36,38,40,42,44,-1,46,48,-1,-1,50,52,54,-1,-1,-1,-1,-1,-1,-1,-1,-1,-1,-1,-1,-1,-1,-1,-1,-1,-1,-1,-1,-1],"split_conditions":[5E-1,2.5E0,5E-1,1.6367512E-2,-1.8835098E-1,5E-1,5E-1,5E-1,-1.2767538E-2,2.5E0,4.303888E-1,1.2741377E-2,5E-1,-4.9407023E-1,-4.3916786E-1,6.3745026E-3,1.5E0,1.5E0,5.2429944E-1,-2.6939034E-2,1.3215988E0,-5.021224E-1,-3.4809482E-1,-4.9598968E-1,-3.0349648E-1,-4.4934773E-1,-1.4197315E-2,-1.12547204E-1,5E-1,5.217338E-3,-1.2644744E-2,-1.324053E-1,5E-1,5E-1,-6.3745026E-3,3.6262763E-3,1.0528492E-2,-5.6350445E-3,1.1874778E-2,1.5718839E-3,-8.103022E-3,9.462175E-3,-5.4361224E-3,-1.0119776E-2,4.5366795E-3,-1.4654648E-3,-1.1411647E-2,-1.5259562E-2,-1.0512477E-2,-8.1570055E-3,3.433579E-3,-1.1713275E-2,-4.7166795E-3,-2.6993277E-3,1.1516879E-2],"split_indices":[1,0,6,0,4,5,5,9,0,0,4,0,7,4,4,0,2,0,4,4,4,4,4,4,4,4,0,4,7,0,0,4,2,2,0,0,0,0,0,0,0,0,0,0,0,0,0,0,0,0,0,0,0,0,0],"split_type":[0,0,0,0,0,0,0,0,0,0,0,0,0,0,0,0,0,0,0,0,0,0,0,0,0,0,0,0,0,0,0,0,0,0,0,0,0,0,0,0,0,0,0,0,0,0,0,0,0,0,0,0,0,0,0],"sum_hessian":[2.18497E2,7.831037E1,1.4018661E2,4.2350193E1,3.5960182E1,1.1420665E2,2.597997E1,2.9224583E1,6.7356E0,1.2482275E1,1.0172438E2,1.9958178E0,2.3984152E1,1.34840145E1,1.5740567E1,1.9990134E0,1.0483262E1,9.648226E1,5.242115E0,1.6238094E1,7.7460575E0,7.2415504E0,6.242464E0,9.246195E0,6.494373E0,5.4958925E0,4.9873695E0,4.995297E0,9.148696E1,1.7493862E0,3.4927287E0,6.997151E0,9.240944E0,5.747044E0,1.9990134E0,1.4985285E0,5.743022E0,3.2479513E0,2.994513E0,4.9998384E0,4.246357E0,3.9953306E0,2.499042E0,3.246553E0,2.2493393E0,2.2499375E0,2.7453597E0,8.0003685E1,1.148328E1,2.497845E0,4.4993057E0,4.2424E0,4.9985437E0,4.249595E0,1.4974489E0],"tree_param":{"num_deleted":"0","num_feature":"10","num_nodes":"55","size_leaf_vector":"0"}},{"base_weights":[-4.0983996E-1,8.8651776E-1,-1.1351196E0,1.6224144E0,8.164256E-6,-1.3346766E0,-2.4136245E-1,3.240116E-1,-1.2663351E0,-6.9239E-1,-1.4060054E0,1.2661775E0,-4.124262E-1,7.0940655E-1,-2.8746447E-2,6.3326526E-1,-9.7839653E-1,-1.4384034E0,-6.749385E-1,-5.7191277E-1,-5.094488E-2,9.3627375E-1,2.859236E-1,-3.202989E-1,3.7374112E-1,-4.3096945E-1,-1.4090643E0,-7.86753E-1,-1.4651054E0,5.184488E-1,-1.2552483E0,-1.200605E-1,-8.689587E-1,2.1545185E-1,-6.3326526E-1,-8.153682E-1,1.1790581E0,1.558799E-1,-8.039097E-1,9.3891037E-1,-5.3977394E-1,-1.0063719E0,4.5348868E-1,-1.4553276E-1,-1.1332184E0,-1.5122402E0,-1.0419898E0,-8.100246E-1,3.4056145E-1,-1.162349E0,-4.6777105E-1,-2.677537E-1,1.1451329E0],"categories":[],"categories_nodes":[],"categories_segments":[],"categories_sizes":[],"default_left":[true,true,true,false,true,true,true,true,false,true,true,false,true,true,true,false,true,true,true,true,true,false,true,true,true,true,false,true,true,false,false,true,true,true,false,false,false,false,false,false,false,false,false,false,false,false,false,false,false,false,false,false,false],"id":8,"left_children":[1,3,5,-1,7,9,11,13,-1,15,17,-1,19,21,23,-1,25,27,29,31,33,-1,35,37,39,41,-1,43,45,-1,-1,47,49,51,-1,-1,-1,-1,-1,-1,-1,-1,-1,-1,-1,-1,-1,-1,-1,-1,-1,-1,-1],"loss_changes":[2.072435E2,5.1704304E1,2.484285E1,0E0,1.5570367E1,4.300583E0,7.4784126E0,4.128484E0,0E0,5.7293406E0,1.4602814E0,0E0,1.4109645E0,1.1234188E0,2.0838242E0,0E0,2.0988503E0,5.4219055E-1,4.9720445E0,2.2089124E0,1.4930154E0,0E0,7.345627E0,2.4846015E0,4.3752146E0,3.761638E0,0E0,1.1666884E0,2.6724243E-1,0E0,0E0,2.8171902E0,6.6137743E-1,3.3371727E0,0E0,0E0,0E0,0E0,0E0,0E0,0E0,0E0,0E0,0E0,0E0,0E0,0E0,0E0,0E0,0E0,0E0,0E0,0E0],"parents":[2147483647,0,0,1,1,2,2,4,4,5,5,6,6,7,7,9,9,10,10,12,12,13,13,14,14,16,16,17,17,18,18,19,19,20,20,22,22,23,23,24,24,25,25,27,27,28,28,31,31,32,32,33,33],"right_children":[2,4,6,-1,8,10,12,14,-1,16,18,-1,20,22,24,-1,26,28,30,32,34,-1,36,38,40,42,-1,44,46,-1,-1,48,50,52,-1,-1,-1,-1,-1,-1,-1,-1,-1,-1,-1,-1,-1,-1,-1,-1,-1,-1,-1],"split_conditions":[5E-1,2.5E0,5E-1,1.6224144E-2,-1.8835098E-1,5E-1,5E-1,5E-1,-1.2663351E-2,2.5E0,4.303888E-1,1.2661775E-2,5E-1,-3.7688017E-1,-4.3916786E-1,6.3326526E-3,-2.3891486E-1,1.5E0,5.2429944E-1,-2.6939034E-2,1.3215988E0,9.362738E-3,-3.4809482E-1,-4.9598968E-1,-3.0349648E-1,5E-1,-1.4090642E-2,-1.12547204E-1,5E-1,5.1844884E-3,-1.2552483E-2,-1.324053E-1,5E-1,5E-1,-6.3326526E-3,-8.153682E-3,1.179058E-2,1.558799E-3,-8.039097E-3,9.389103E-3,-5.3977394E-3,-1.0063718E-2,4.5348867E-3,-1.4553275E-3,-1.1332184E-2,-1.51224015E-2,-1.0419898E-2,-8.100246E-3,3.4056145E-3,-1.162349E-2,-4.6777106E-3,-2.6775368E-3,1.1451329E-2],"split_indices":[1,0,6,0,4,5,5,9,0,0,4,0,7,4,4,0,4,0,4,4,4,0,4,4,4,3,0,4,7,0,0,4,2,2,0,0,0,0,0,0,0,0,0,0,0,0,0,0,0,0,0,0,0],"split_type":[0,0,0,0,0,0,0,0,0,0,0,0,0,0,0,0,0,0,0,0,0,0,0,0,0,0,0,0,0,0,0,0,0,0,0,0,0,0,0,0,0,0,0,0,0,0,0,0,0,0,0,0,0],"sum_hessian":[2.1834952E2,7.825499E1,1.4009453E2,4.2306236E1,3.5948757E1,1.141205E2,2.5974024E1,2.9217402E1,6.731355E0,1.247701E1,1.01643486E2,1.9945744E0,2.3979448E1,1.3479624E1,1.5737778E1,1.9987118E0,1.0478298E1,9.640371E1,5.2397804E0,1.6234573E1,7.7448754E0,7.9889274E0,5.490697E0,9.24507E0,6.4927077E0,5.4946637E0,4.9836345E0,4.9939027E0,9.1409805E1,1.7492033E0,3.4905772E0,6.9963064E0,9.238268E0,5.746164E0,1.9987118E0,2.4978094E0,2.992887E0,4.9997907E0,4.24528E0,3.99395E0,2.4987578E0,3.2454376E0,2.249226E0,2.2499187E0,2.743984E0,7.993144E1,1.1478361E1,2.4972053E0,4.4991007E0,4.2401543E0,4.998113E0,4.2494755E0,1.4966884E0],"tree_param":{"num_deleted":"0","num_feature":"10","num_nodes":"53","size_leaf_vector":"0"}},{"base_weights":[-4.0628067E-1,8.785259E-1,-1.1250535E0,1.608397E0,-5.0371553E-5,-1.322954E0,-2.3922661E-1,3.2121035E-1,-1.2560848E0,-6.867539E-1,-1.3936236E0,1.258333E0,-4.0913165E-1,7.034726E-1,-2.861297E-2,6.2911606E-1,-9.7079307E-1,-1.4257036E0,-6.6965294E-1,-5.6754273E-1,-5.0163515E-2,9.2825407E-1,2.8373364E-1,-3.1776795E-1,3.706294E-1,-4.2759728E-1,-1.398324E0,-7.81224E-1,-1.4520916E0,5.151887E-1,-1.2461631E0,-1.19461365E-1,-8.621152E-1,2.1462998E-1,-6.29116E-1,-8.096953E-1,1.1707569E0,1.5458225E-1,-7.975874E-1,9.3169117E-1,-5.359682E-1,-9.9963546E-1,4.5131668E-1,-1.4452618E-1,-1.1253787E0,-1.4988061E0,-1.0328622E0,-8.0440617E-1,3.377893E-1,-1.1534997E0,-4.6391085E-1,-2.6559314E-1,1.1386597E0],"categories":[],"categories_nodes":[],"categories_segments":[],"categories_sizes":[],"default_left":[true,true,true,false,true,true,true,true,false,true,true,false,true,true,true,false,true,true,true,true,true,false,true,true,true,true,false,true,true,false,false,true,true,true,false,false,false,false,false,false,false,false,false,false,false,false,false,false,false,false,false,false,false],"id":9,"left_children":[1,3,5,-1,7,9,11,13,-1,15,17,-1,19,21,23,-1,25,27,29,31,33,-1,35,37,39,41,-1,43,45,-1,-1,47,49,51,-1,-1,-1,-1,-1,-1,-1,-1,-1,-1,-1,-1,-1,-1,-1,-1,-1,-1,-1],"loss_changes":[2.0340161E2,5.0782177E1,2.4400131E1,0E0,1.5307487E1,4.2144165E0,7.376477E0,4.0597925E0,0E0,5.6456943E0,1.4270782E0,0E0,1.391675E0,1.102262E0,2.0496714E0,0E0,2.0664349E0,5.2059937E-1,4.90245E0,2.1713233E0,1.475438E0,0E0,7.240873E0,2.4449792E0,4.309628E0,3.715838E0,0E0,1.1504102E0,2.6002502E-1,0E0,0E0,2.7757983E0,6.5248346E-1,3.2955272E0,0E0,0E0,0E0,0E0,0E0,0E0,0E0,0E0,0E0,0E0,0E0,0E0,0E0,0E0,0E0,0E0,0E0,0E0,0E0],"parents":[2147483647,0,0,1,1,2,2,4,4,5,5,6,6,7,7,9,9,10,10,12,12,13,13,14,14,16,16,17,17,18,18,19,19,20,20,22,22,23,23,24,24,25,25,27,27,28,28,31,31,32,32,33,33],"right_children":[2,4,6,-1,8,10,12,14,-1,16,18,-1,20,22,24,-1,26,28,30,32,34,-1,36,38,40,42,-1,44,46,-1,-1,48,50,52,-1,-1,-1,-1,-1,-1,-1,-1,-1,-1,-1,-1,-1,-1,-1,-1,-1,-1,-1],"split_conditions":[5E-1,2.5E0,5E-1,1.6083969E-2,-1.8835098E-1,5E-1,5E-1,5E-1,-1.2560848E-2,2.5E0,4.303888E-1,1.2583329E-2,5E-1,-3.7688017E-1,-4.3916786E-1,6.2911604E-3,-2.3891486E-1,1.5E0,5.2429944E-1,-2.6939034E-2,1.3215988E0,9.2825405E-3,-3.4809482E-1,-4.9598968E-1,-3.0349648E-1,-4.4934773E-1,-1.3983239E-2,-1.12547204E-1,5E-1,5.151887E-3,-1.2461631E-2,-1.324053E-1,5E-1,5E-1,-6.29116E-3,-8.096953E-3,1.17075695E-2,1.5458225E-3,-7.975874E-3,9.316912E-3,-5.359682E-3,-9.996355E-3,4.513167E-3,-1.4452618E-3,-1.1253787E-2,-1.4988061E-2,-1.0328622E-2,-8.044061E-3,3.377893E-3,-1.1534997E-2,-4.639108E-3,-2.6559313E-3,1.1386597E-2],"split_indices":[1,0,6,0,4,5,5,9,0,0,4,0,7,4,4,0,4,0,4,4,4,0,4,4,4,4,0,4,7,0,0,4,2,2,0,0,0,0,0,0,0,0,0,0,0,0,0,0,0,0,0,0,0],"split_type":[0,0,0,0,0,0,0,0,0,0,0,0,0,0,0,0,0,0,0,0,0,0,0,0,0,0,0,0,0,0,0,0,0,0,0,0,0,0,0,0,0,0,0,0,0,0,0,0,0,0,0,0,0],"sum_hessian":[2.1818431E2,7.8192665E1,1.3999164E2,4.225715E1,3.5935516E1,1.14024284E2,2.596736E1,2.920891E1,6.726608E0,1.2471136E1,1.0155315E2,1.9931799E0,2.3974178E1,1.3474256E1,1.5734654E1,1.9983722E0,1.0472764E1,9.631599E1,5.2371655E0,1.623063E1,7.743548E0,7.986024E0,5.488231E0,9.243812E0,6.490843E0,5.4933677E0,4.9793963E0,4.99234E0,9.132365E1,1.748998E0,3.4881673E0,6.9953594E0,9.235271E0,5.7451754E0,1.9983723E0,2.4971657E0,2.9910657E0,4.999737E0,4.2440743E0,3.992404E0,2.4984388E0,3.2444048E0,2.2489629E0,2.249898E0,2.7424421E0,7.985078E1,1.1472865E1,2.4964879E0,4.4988713E0,4.2376404E0,4.9976315E0,4.249341E0,1.4958344E0],"tree_param":{"num_deleted":"0","num_feature":"10","num_nodes":"53","size_leaf_vector":"0"}},{"base_weights":[-4.0278378E-1,8.7067723E-1,-1.1151613E0,1.5946875E0,-1.0808172E-4,-1.3114482E0,-2.3711507E-1,3.184432E-1,-1.2459983E0,-6.8119663E-1,-1.3814765E0,1.2506013E0,-4.0587237E-1,6.976173E-1,-2.8480275E-2,6.25002E-1,-9.633006E-1,-1.4132473E0,-6.644386E-1,-5.632202E-1,-4.939077E-2,9.203361E-1,2.8157273E-1,-3.1526116E-1,3.6755347E-1,-4.2365986E-1,-1.3884008E0,-7.7575606E-1,-1.4393315E0,5.119534E-1,-1.2372153E0,-1.188663E-1,-8.5535216E-1,2.138134E-1,-6.25002E-1,3.494473E-1,9.878457E-1,-8.040805E-1,1.1625719E0,6.577707E-1,-5.2365506E-1,9.245583E-1,-5.321944E-1,-9.9231476E-1,4.4944945E-1,-1.4352658E-1,-1.1176434E0,-1.4856436E0,-1.0238615E0,-1.0660238E0,2.1433513E-1,-1.1447766E0,-4.6008617E-1,-2.6345065E-1,1.1322663E0],"categories":[],"categories_nodes":[],"categories_segments":[],"categories_sizes":[],"default_left":[true,true,true,false,true,true,true,true,false,true,true,false,true,true,true,false,true,true,true,true,true,true,true,true,true,true,false,true,true,false,false,true,true,true,false,false,false,false,false,false,false,false,false,false,false,false,false,false,false,false,false,false,false,false,false],"id":10,"left_children":[1,3,5,-1,7,9,11,13,-1,15,17,-1,19,21,23,-1,25,27,29,31,33,35,37,39,41,43,-1,45,47,-1,-1,49,51,53,-1,-1,-1,-1,-1,-1,-1,-1,-1,-1,-1,-1,-1,-1,-1,-1,-1,-1,-1,-1,-1],"loss_changes":[1.9964648E2,4.9884464E1,2.3969269E1,0E0,1.5049934E1,4.130905E0,7.276242E0,3.9924438E0,0E0,5.56356E0,1.3949738E0,0E0,1.3726978E0,1.0815048E0,2.0161204E0,0E0,2.0422497E0,5.000305E-1,4.834114E0,2.13447E0,1.4580872E0,1.001358E-3,7.137917E0,2.4213405E0,4.2451525E0,3.6691403E0,0E0,1.1344666E0,2.5352478E-1,0E0,0E0,2.7514455E0,6.4383745E-1,3.2545283E0,0E0,0E0,0E0,0E0,0E0,0E0,0E0,0E0,0E0,0E0,0E0,0E0,0E0,0E0,0E0,0E0,0E0,0E0,0E0,0E0,0E0],"parents":[2147483647,0,0,1,1,2,2,4,4,5,5,6,6,7,7,9,9,10,10,12,12,13,13,14,14,16,16,17,17,18,18,19,19,20,20,21,21,22,22,23,23,24,24,25,25,27,27,28,28,31,31,32,32,33,33],"right_children":[2,4,6,-1,8,10,12,14,-1,16,18,-1,20,22,24,-1,26,28,30,32,34,36,38,40,42,44,-1,46,48,-1,-1,50,52,54,-1,-1,-1,-1,-1,-1,-1,-1,-1,-1,-1,-1,-1,-1,-1,-1,-1,-1,-1,-1,-1],"split_conditions":[5E-1,2.5E0,5E-1,1.5946874E-2,-1.8835098E-1,5E-1,5E-1,5E-1,-1.2459982E-2,2.5E0,4.303888E-1,1.2506013E-2,5E-1,-3.7688017E-1,-4.3916786E-1,6.25002E-3,1.5E0,1.5E0,5.2429944E-1,-2.6939034E-2,1.3215988E0,-5.021224E-1,-3.4809482E-1,-5.017469E-1,-3.0349648E-1,-4.4934773E-1,-1.3884008E-2,-1.12547204E-1,5E-1,5.119534E-3,-1.2372153E-2,-4.9774188E-1,5E-1,5E-1,-6.25002E-3,3.494473E-3,9.878457E-3,-8.040804E-3,1.1625719E-2,6.577707E-3,-5.2365502E-3,9.245583E-3,-5.3219437E-3,-9.923147E-3,4.4944943E-3,-1.4352658E-3,-1.1176433E-2,-1.4856436E-2,-1.0238615E-2,-1.0660238E-2,2.1433511E-3,-1.1447766E-2,-4.6008616E-3,-2.6345064E-3,1.1322662E-2],"split_indices":[1,0,6,0,4,5,5,9,0,0,4,0,7,4,4,0,2,0,4,4,4,4,4,4,4,4,0,4,7,0,0,4,2,2,0,0,0,0,0,0,0,0,0,0,0,0,0,0,0,0,0,0,0,0,0],"split_type":[0,0,0,0,0,0,0,0,0,0,0,0,0,0,0,0,0,0,0,0,0,0,0,0,0,0,0,0,0,0,0,0,0,0,0,0,0,0,0,0,0,0,0,0,0,0,0,0,0,0,0,0,0,0,0],"sum_hessian":[2.1800223E2,7.812396E1,1.3987827E2,4.220309E1,3.5920876E1,1.1391827E2,2.5959993E1,2.9199503E1,6.721372E0,1.2464621E1,1.0145364E2,1.9916372E0,2.3968355E1,1.3468298E1,1.5731204E1,1.9979953E0,1.0466625E1,9.621937E1,5.234277E0,1.6226278E1,7.7420774E0,7.9828014E0,5.485497E0,9.242421E0,6.4887834E0,5.4917593E0,4.9748664E0,4.990613E0,9.122876E1,1.7487708E0,3.485506E0,6.994313E0,9.231965E0,5.7440825E0,1.9979953E0,1.497298E0,6.485503E0,2.4964437E0,2.9890532E0,1.2499194E0,7.9925017E0,3.990697E0,2.4980862E0,3.2430413E0,2.248718E0,2.2498748E0,2.7407382E0,7.9761955E1,1.14668045E1,1.2478476E0,5.746465E0,4.2348647E0,4.9971004E0,4.249193E0,1.4948888E0],"tree_param":{"num_deleted":"0","num_feature":"10","num_nodes":"55","size_leaf_vector":"0"}},{"base_weights":[-3.9930853E-1,8.631094E-1,-1.1054612E0,1.5812753E0,1.5733861E-4,-1.3001524E0,-2.3516697E-1,3.160951E-1,-1.2360708E0,-6.7571545E-1,-1.3695568E0,1.2429801E0,-4.0279528E-1,6.921193E-1,-2.788576E-2,6.2092286E-1,-9.559152E-1,-1.4010267E0,-6.59294E-1,-5.591536E-1,-4.8626427E-2,9.4078153E-1,3.1342748E-1,-3.120051E-1,3.6451232E-1,-4.2027205E-1,-1.3781198E0,-7.703482E-1,-1.4268169E0,5.0874263E-1,-1.2284014E0,-1.1875305E-1,-8.4866834E-1,2.130022E-1,-6.2092286E-1,3.4738374E-1,1.0211279E0,-5.503374E-1,1.1545002E0,1.5519673E-1,-7.8723913E-1,9.1750956E-1,-5.2845234E-1,-9.8838496E-1,4.5088676E-1,-1.4253415E-1,-1.1100099E0,-1.4727437E0,-1.0149846E0,-1.0603844E0,2.1251155E-1,-1.1361767E0,-4.5629668E-1,-2.6132604E-1,1.1259515E0],"categories":[],"categories_nodes":[],"categories_segments":[],"categories_sizes":[],"default_left":[true,true,true,false,true,true,true,true,false,true,true,false,true,true,true,false,true,true,true,true,true,true,true,true,true,true,false,true,true,false,false,true,true,true,false,false,false,false,false,false,false,false,false,false,false,false,false,false,false,false,false,false,false,false,false],"id":11,"left_children":[1,3,5,-1,7,9,11,13,-1,15,17,-1,19,21,23,-1,25,27,29,31,33,35,37,39,41,43,-1,45,47,-1,-1,49,51,53,-1,-1,-1,-1,-1,-1,-1,-1,-1,-1,-1,-1,-1,-1,-1,-1,-1,-1,-1,-1,-1],"loss_changes":[1.9601007E2,4.8990334E1,2.3543625E1,0E0,1.4805E1,4.0499725E0,7.178921E0,3.924229E0,0E0,5.482896E0,1.3639069E0,0E0,1.355164E0,1.0669613E0,1.9787058E0,0E0,2.0124846E0,4.804535E-1,4.7670054E0,2.095067E0,1.4409605E0,3.7666798E-2,5.8892107E0,2.396105E0,4.181763E0,3.6577177E0,0E0,1.1188476E0,2.476654E-1,0E0,0E0,2.7187998E0,6.354284E-1,3.214164E0,0E0,0E0,0E0,0E0,0E0,0E0,0E0,0E0,0E0,0E0,0E0,0E0,0E0,0E0,0E0,0E0,0E0,0E0,0E0,0E0,0E0],"parents":[2147483647,0,0,1,1,2,2,4,4,5,5,6,6,7,7,9,9,10,10,12,12,13,13,14,14,16,16,17,17,18,18,19,19,20,20,21,21,22,22,23,23,24,24,25,25,27,27,28,28,31,31,32,32,33,33],"right_children":[2,4,6,-1,8,10,12,14,-1,16,18,-1,20,22,24,-1,26,28,30,32,34,36,38,40,42,44,-1,46,48,-1,-1,50,52,54,-1,-1,-1,-1,-1,-1,-1,-1,-1,-1,-1,-1,-1,-1,-1,-1,-1,-1,-1,-1,-1],"split_conditions":[5E-1,2.5E0,5E-1,1.5812753E-2,-1.8835098E-1,5E-1,5E-1,5E-1,-1.2360707E-2,2.5E0,4.303888E-1,1.2429801E-2,5E-1,-4.9407023E-1,-4.3916786E-1,6.2092287E-3,-2.3891486E-1,1.5E0,5.2429944E-1,-2.6939034E-2,1.3215988E0,-5.021224E-1,-3.4809482E-1,-4.9598968E-1,-3.0349648E-1,5E-1,-1.3781198E-2,-1.12547204E-1,5E-1,5.0874264E-3,-1.2284014E-2,-4.9774188E-1,5E-1,5E-1,-6.2092287E-3,3.4738374E-3,1.021128E-2,-5.5033737E-3,1.1545002E-2,1.5519672E-3,-7.8723915E-3,9.175096E-3,-5.284523E-3,-9.883849E-3,4.5088674E-3,-1.4253415E-3,-1.11000985E-2,-1.4727437E-2,-1.0149846E-2,-1.0603843E-2,2.1251156E-3,-1.1361767E-2,-4.5629665E-3,-2.6132604E-3,1.1259515E-2],"split_indices":[1,0,6,0,4,5,5,9,0,0,4,0,7,4,4,0,4,0,4,4,4,4,4,4,4,3,0,4,7,0,0,4,2,2,0,0,0,0,0,0,0,0,0,0,0,0,0,0,0,0,0,0,0,0,0],"split_type":[0,0,0,0,0,0,0,0,0,0,0,0,0,0,0,0,0,0,0,0,0,0,0,0,0,0,0,0,0,0,0,0,0,0,0,0,0,0,0,0,0,0,0,0,0,0,0,0,0,0,0,0,0,0,0],"sum_hessian":[2.1780507E2,7.804987E1,1.397552E2,4.2144215E1,3.5905655E1,1.13802765E2,2.5952433E1,2.9189995E1,6.7156606E0,1.2457493E1,1.01345276E2,1.9899498E0,2.3962482E1,1.3461935E1,1.572806E1,1.9975817E0,1.045991E1,9.611415E1,5.2311215E0,1.6222015E1,7.740467E0,7.2301035E0,6.231831E0,9.241527E0,6.4865336E0,5.49012E0,4.9697905E0,4.9887257E0,9.112543E1,1.7485222E0,3.4825993E0,6.993661E0,9.228354E0,5.742885E0,1.9975817E0,1.4970714E0,5.7330317E0,3.244977E0,2.9868543E0,4.99973E0,4.241796E0,3.988833E0,2.4977007E0,3.241598E0,2.248522E0,2.2498496E0,2.7388759E0,7.966522E1,1.1460199E1,1.2472603E0,5.746401E0,4.2318344E0,4.99652E0,4.249032E0,1.4938533E0],"tree_param":{"num_deleted":"0","num_feature":"10","num_nodes":"55","size_leaf_vector":"0"}},{"base_weights":[-3.9591435E-1,8.556146E-1,-1.0959238E0,1.56815E0,2.8947784E-4,-1.2890592E0,-2.3324049E-1,3.136166E-1,-1.2262983E0,-6.7030525E-1,-1.3578569E0,1.2354671E0,-3.997503E-1,6.868691E-1,-2.7758738E-2,6.168779E-1,-9.486285E-1,-1.389034E0,-6.542175E-1,-5.551299E-1,-4.7870297E-2,9.066758E-1,2.7636817E-1,-3.095508E-1,3.6150542E-1,-4.1695288E-1,-1.3679756E0,-7.6499915E-1,-1.4145396E0,5.05556E-1,-1.2197179E0,-1.1863745E-1,-8.420621E-1,2.1219629E-1,-6.168779E-1,-7.947284E-1,1.1465391E0,6.532842E-1,-5.1607215E-1,9.105434E-1,-5.247416E-1,-9.803891E-1,4.4690183E-1,-1.4154845E-1,-1.1024764E0,-1.4600974E0,-1.0062286E0,-7.930144E-1,3.3157068E-1,-1.1276968E0,-4.525424E-1,-2.592193E-1,1.119714E0],"categories":[],"categories_nodes":[],"categories_segments":[],"categories_sizes":[],"default_left":[true,true,true,false,true,true,true,true,false,true,true,false,true,true,true,false,true,true,true,true,true,false,true,true,true,true,false,true,true,false,false,true,true,true,false,false,false,false,false,false,false,false,false,false,false,false,false,false,false,false,false,false,false],"id":12,"left_children":[1,3,5,-1,7,9,11,13,-1,15,17,-1,19,21,23,-1,25,27,29,31,33,-1,35,37,39,41,-1,43,45,-1,-1,47,49,51,-1,-1,-1,-1,-1,-1,-1,-1,-1,-1,-1,-1,-1,-1,-1,-1,-1,-1,-1],"loss_changes":[1.9244229E2,4.812759E1,2.3129074E1,0E0,1.4561904E1,3.9715424E0,7.0832005E0,3.8645208E0,0E0,5.4036317E0,1.3339081E0,0E0,1.3378997E0,1.0537572E0,1.9463898E0,0E0,1.9830742E0,4.6177673E-1,4.701091E0,2.056469E0,1.4240537E0,0E0,6.9503474E0,2.3733122E0,4.119437E0,3.596226E0,0E0,1.1035466E0,2.4243164E-1,0E0,0E0,2.689674E0,6.2724495E-1,3.1744235E0,0E0,0E0,0E0,0E0,0E0,0E0,0E0,0E0,0E0,0E0,0E0,0E0,0E0,0E0,0E0,0E0,0E0,0E0,0E0],"parents":[2147483647,0,0,1,1,2,2,4,4,5,5,6,6,7,7,9,9,10,10,12,12,13,13,14,14,16,16,17,17,18,18,19,19,20,20,22,22,23,23,24,24,25,25,27,27,28,28,31,31,32,32,33,33],"right_children":[2,4,6,-1,8,10,12,14,-1,16,18,-1,20,22,24,-1,26,28,30,32,34,-1,36,38,40,42,-1,44,46,-1,-1,48,50,52,-1,-1,-1,-1,-1,-1,-1,-1,-1,-1,-1,-1,-1,-1,-1,-1,-1,-1,-1],"split_conditions":[5E-1,2.5E0,5E-1,1.56815E-2,-1.8835098E-1,5E-1,5E-1,5E-1,-1.2262983E-2,2.5E0,4.303888E-1,1.235467E-2,5E-1,-3.7688017E-1,-4.3916786E-1,6.168779E-3,1.5E0,1.5E0,5.2429944E-1,-2.6939034E-2,1.3215988E0,9.066758E-3,-3.4809482E-1,-5.017469E-1,-3.0349648E-1,-4.4934773E-1,-1.3679756E-2,-1.12547204E-1,5E-1,5.05556E-3,-1.2197179E-2,-1.324053E-1,5E-1,5E-1,-6.168779E-3,-7.947284E-3,1.146539E-2,6.532842E-3,-5.1607215E-3,9.105434E-3,-5.247416E-3,-9.803891E-3,4.469018E-3,-1.4154845E-3,-1.1024763E-2,-1.4600974E-2,-1.0062286E-2,-7.930144E-3,3.3157067E-3,-1.1276967E-2,-4.525424E-3,-2.5921927E-3,1.11971395E-2],"split_indices":[1,0,6,0,4,5,5,9,0,0,4,0,7,4,4,0,2,0,4,4,4,0,4,4,4,4,0,4,7,0,0,4,2,2,0,0,0,0,0,0,0,0,0,0,0,0,0,0,0,0,0,0,0],"split_type":[0,0,0,0,0,0,0,0,0,0,0,0,0,0,0,0,0,0,0,0,0,0,0,0,0,0,0,0,0,0,0,0,0,0,0,0,0,0,0,0,0,0,0,0,0,0,0,0,0,0,0,0,0],"sum_hessian":[2.1759207E2,7.796972E1,1.3962236E2,4.2080677E1,3.588904E1,1.1367814E2,2.594422E1,2.9179554E1,6.709487E0,1.2449833E1,1.0122831E2,1.9881208E0,2.3956099E1,1.3455517E1,1.5724036E1,1.9971323E0,1.0452701E1,9.60006E1,5.2277064E0,1.6217379E1,7.738719E0,7.975989E0,5.4795284E0,9.239937E0,6.484099E0,5.4884176E0,4.964283E0,4.9866815E0,9.1013916E1,1.7482524E0,3.4794538E0,6.9929304E0,9.224449E0,5.7415867E0,1.9971323E0,2.4950547E0,2.9844737E0,1.2498173E0,7.99012E0,3.986816E0,2.497283E0,3.2401671E0,2.2482507E0,2.2498224E0,2.7368588E0,7.956085E1,1.1453064E1,2.4946694E0,4.498261E0,4.228556E0,4.995893E0,4.2488565E0,1.4927299E0],"tree_param":{"num_deleted":"0","num_feature":"10","num_nodes":"53","size_leaf_vector":"0"}},{"base_weights":[-3.9255768E-1,8.482568E-1,-1.086521E0,1.5553015E0,4.3716922E-4,-1.2781632E0,-2.3119685E-1,3.1118783E-1,-1.216676E0,-6.649708E-1,-1.3463696E0,1.2280596E0,-3.965904E-1,6.81228E-1,-2.717403E-2,6.12867E-1,-9.414487E-1,-1.3772618E0,-6.4920765E-1,-5.5094E-1,-4.7122363E-2,8.9902735E-1,2.7429634E-1,-3.063542E-1,3.585324E-1,-4.13097E-1,-1.3585999E0,-7.59708E-1,-1.4024916E0,5.023934E-1,-1.2111616E0,-1.18047215E-1,-8.355318E-1,2.1139555E-1,-6.1286694E-1,3.3998838E-1,9.654336E-1,-7.892641E-1,1.138686E0,1.5577008E-1,-7.770822E-1,9.0365845E-1,-5.210619E-1,-9.755608E-1,4.480319E-1,-1.4056985E-1,-1.0950403E0,-1.4476962E0,-9.9758977E-1,-1.0506581E0,2.0998223E-1,-1.1193339E0,-4.488223E-1,-2.5713012E-1,1.1135519E0],"categories":[],"categories_nodes":[],"categories_segments":[],"categories_sizes":[],"default_left":[true,true,true,false,true,true,true,true,false,true,true,false,true,true,true,false,true,true,true,true,true,true,true,true,true,true,false,true,true,false,false,true,true,true,false,false,false,false,false,false,false,false,false,false,false,false,false,false,false,false,false,false,false,false,false],"id":13,"left_children":[1,3,5,-1,7,9,11,13,-1,15,17,-1,19,21,23,-1,25,27,29,31,33,35,37,39,41,43,-1,45,47,-1,-1,49,51,53,-1,-1,-1,-1,-1,-1,-1,-1,-1,-1,-1,-1,-1,-1,-1,-1,-1,-1,-1,-1,-1],"loss_changes":[1.8894986E2,4.728593E1,2.2731354E1,0E0,1.4323984E1,3.8953857E0,6.987825E0,3.7958095E0,0E0,5.325796E0,1.3048401E0,0E0,1.3197811E0,1.0339165E0,1.9103096E0,0E0,1.9612503E0,4.4395447E-1,4.6363454E0,2.0218391E0,1.4073645E0,4.835129E-3,6.852354E0,2.3483515E0,4.058157E0,3.5787647E0,0E0,1.0885513E0,2.3779297E-1,0E0,0E0,2.665465E0,6.192813E-1,3.1352937E0,0E0,0E0,0E0,0E0,0E0,0E0,0E0,0E0,0E0,0E0,0E0,0E0,0E0,0E0,0E0,0E0,0E0,0E0,0E0,0E0,0E0],"parents":[2147483647,0,0,1,1,2,2,4,4,5,5,6,6,7,7,9,9,10,10,12,12,13,13,14,14,16,16,17,17,18,18,19,19,20,20,21,21,22,22,23,23,24,24,25,25,27,27,28,28,31,31,32,32,33,33],"right_children":[2,4,6,-1,8,10,12,14,-1,16,18,-1,20,22,24,-1,26,28,30,32,34,36,38,40,42,44,-1,46,48,-1,-1,50,52,54,-1,-1,-1,-1,-1,-1,-1,-1,-1,-1,-1,-1,-1,-1,-1,-1,-1,-1,-1,-1,-1],"split_conditions":[5E-1,2.5E0,5E-1,1.5553015E-2,-1.8835098E-1,5E-1,5E-1,5E-1,-1.216676E-2,2.5E0,4.303888E-1,1.2280596E-2,5E-1,-3.7688017E-1,-4.3916786E-1,6.1286697E-3,-2.3891486E-1,1.5E0,5.2429944E-1,-2.6939034E-2,1.3215988E0,-5.021224E-1,-3.4809482E-1,-4.9598968E-1,-3.0349648E-1,5E-1,-1.3585999E-2,-1.12547204E-1,5E-1,5.023934E-3,-1.2111616E-2,-4.9774188E-1,5E-1,5E-1,-6.1286693E-3,3.3998836E-3,9.654336E-3,-7.89264E-3,1.1386859E-2,1.5577008E-3,-7.770822E-3,9.036585E-3,-5.210619E-3,-9.755608E-3,4.480319E-3,-1.4056985E-3,-1.0950403E-2,-1.4476961E-2,-9.975897E-3,-1.0506581E-2,2.0998223E-3,-1.1193339E-2,-4.4882228E-3,-2.571301E-3,1.1135519E-2],"split_indices":[1,0,6,0,4,5,5,9,0,0,4,0,7,4,4,0,4,0,4,4,4,4,4,4,4,3,0,4,7,0,0,4,2,2,0,0,0,0,0,0,0,0,0,0,0,0,0,0,0,0,0,0,0,0,0],"split_type":[0,0,0,0,0,0,0,0,0,0,0,0,0,0,0,0,0,0,0,0,0,0,0,0,0,0,0,0,0,0,0,0,0,0,0,0,0,0,0,0,0,0,0,0,0,0,0,0,0,0,0,0,0,0,0],"sum_hessian":[2.173633E2,7.7883804E1,1.3947949E2,4.2012627E1,3.5871178E1,1.1354456E2,2.5934927E1,2.916831E1,6.7028656E0,1.2441539E1,1.0110302E2,1.9861534E0,2.3948774E1,1.3447982E1,1.5720328E1,1.996648E0,1.0444891E1,9.587898E1,5.224037E0,1.6211937E1,7.7368374E0,7.9719324E0,5.4760494E0,9.238845E0,6.481484E0,5.4863367E0,4.9585543E0,4.984484E0,9.08945E1,1.7479619E0,3.4760752E0,6.9916806E0,9.220256E0,5.7401896E0,1.9966478E0,1.4961834E0,6.475749E0,2.494134E0,2.9819155E0,4.9996567E0,4.239188E0,3.9846501E0,2.4968338E0,3.2382934E0,2.248043E0,2.2497928E0,2.7346914E0,7.944908E1,1.14454155E1,1.2460718E0,5.745609E0,4.2250366E0,4.9952197E0,4.248669E0,1.4915202E0],"tree_param":{"num_deleted":"0","num_feature":"10","num_nodes":"55","size_leaf_vector":"0"}},{"base_weights":[-3.8929015E-1,8.4098387E-1,-1.0772951E0,1.5427207E0,4.869101E-4,-1.2674572E0,-2.2931366E-1,3.08674E-1,-1.2072003E0,-6.597038E-1,-1.3350885E0,1.2207555E0,-3.9360923E-1,6.7593277E-1,-2.7052384E-2,6.088894E-1,-9.343625E-1,-1.3657029E0,-6.442631E-1,-5.4700124E-1,-4.638253E-2,9.190132E-1,3.0567506E-1,-3.0395103E-1,3.5559228E-1,-4.0990463E-1,-1.3487308E0,-7.544735E-1,-1.3906655E0,4.9925438E-1,-1.2027296E0,-1.1793204E-1,-8.290758E-1,2.105998E-1,-6.088893E-1,3.379861E-1,9.9802536E-1,-5.40489E-1,1.1309382E0,6.4883107E-1,-5.086265E-1,8.968526E-1,-5.174128E-1,-9.6872556E-1,4.4537348E-1,-1.395981E-1,-1.0876995E0,-1.435532E0,-9.890662E-1,-1.0451884E0,2.0819645E-1,-1.1110849E0,-4.4513637E-1,-2.5505868E-1,1.1074638E0],"categories":[],"categories_nodes":[],"categories_segments":[],"categories_sizes":[],"default_left":[true,true,true,false,true,true,true,true,false,true,true,false,true,true,true,false,true,true,true,true,true,true,true,true,true,true,false,true,true,false,false,true,true,true,false,false,false,false,false,false,false,false,false,false,false,false,false,false,false,false,false,false,false,false,false],"id":14,"left_children":[1,3,5,-1,7,9,11,13,-1,15,17,-1,19,21,23,-1,25,27,29,31,33,35,37,39,41,43,-1,45,47,-1,-1,49,51,53,-1,-1,-1,-1,-1,-1,-1,-1,-1,-1,-1,-1,-1,-1,-1,-1,-1,-1,-1,-1,-1],"loss_changes":[1.8553009E2,4.647128E1,2.2337784E1,0E0,1.4088582E1,3.8215332E0,6.8952246E0,3.736455E0,0E0,5.2492957E0,1.2767029E0,0E0,1.3030539E0,1.018723E0,1.8791806E0,0E0,1.932539E0,4.2697144E-1,4.572737E0,1.9847322E0,1.3908882E0,3.998947E-2,5.6539707E0,2.3263543E0,3.9978974E0,3.5306342E0,0E0,1.0738544E0,2.3365784E-1,0E0,0E0,2.6340659E0,6.115241E-1,3.0967648E0,0E0,0E0,0E0,0E0,0E0,0E0,0E0,0E0,0E0,0E0,0E0,0E0,0E0,0E0,0E0,0E0,0E0,0E0,0E0,0E0,0E0],"parents":[2147483647,0,0,1,1,2,2,4,4,5,5,6,6,7,7,9,9,10,10,12,12,13,13,14,14,16,16,17,17,18,18,19,19,20,20,21,21,22,22,23,23,24,24,25,25,27,27,28,28,31,31,32,32,33,33],"right_children":[2,4,6,-1,8,10,12,14,-1,16,18,-1,20,22,24,-1,26,28,30,32,34,36,38,40,42,44,-1,46,48,-1,-1,50,52,54,-1,-1,-1,-1,-1,-1,-1,-1,-1,-1,-1,-1,-1,-1,-1,-1,-1,-1,-1,-1,-1],"split_conditions":[5E-1,2.5E0,5E-1,1.5427207E-2,-1.8835098E-1,5E-1,5E-1,5E-1,-1.20720025E-2,2.5E0,4.303888E-1,1.2207555E-2,5E-1,-4.9407023E-1,-4.3916786E-1,6.088894E-3,-2.3891486E-1,1.5E0,5.2429944E-1,-2.6939034E-2,1.3215988E0,-5.021224E-1,-3.4809482E-1,-5.017469E-1,-3.0349648E-1,-4.4934773E-1,-1.3487307E-2,-1.12547204E-1,5E-1,4.9925437E-3,-1.2027295E-2,-4.9774188E-1,5E-1,5E-1,-6.0888925E-3,3.3798611E-3,9.980253E-3,-5.40489E-3,1.1309382E-2,6.4883106E-3,-5.086265E-3,8.968526E-3,-5.174128E-3,-9.687255E-3,4.4537345E-3,-1.395981E-3,-1.08769955E-2,-1.435532E-2,-9.890662E-3,-1.0451884E-2,2.0819644E-3,-1.1110849E-2,-4.451364E-3,-2.5505866E-3,1.1074638E-2],"split_indices":[1,0,6,0,4,5,5,9,0,0,4,0,7,4,4,0,4,0,4,4,4,4,4,4,4,4,0,4,7,0,0,4,2,2,0,0,0,0,0,0,0,0,0,0,0,0,0,0,0,0,0,0,0,0,0],"split_type":[0,0,0,0,0,0,0,0,0,0,0,0,0,0,0,0,0,0,0,0,0,0,0,0,0,0,0,0,0,0,0,0,0,0,0,0,0,0,0,0,0,0,0,0,0,0,0,0,0,0,0,0,0,0,0],"sum_hessian":[2.1711975E2,7.7791855E1,1.393279E2,4.1940205E1,3.585165E1,1.1340242E2,2.5925476E1,2.9155844E1,6.695808E0,1.2432742E1,1.0096968E2,1.9840506E0,2.3941425E1,1.3440085E1,1.5715759E1,1.9961293E0,1.0436613E1,9.574956E1,5.2201204E0,1.6206602E1,7.734824E0,7.2187576E0,6.2213273E0,9.237065E0,6.4786935E0,5.484375E0,4.952238E0,4.9821377E0,9.076742E1,1.7476513E0,3.472469E0,6.9908185E0,9.215783E0,5.7386947E0,1.9961293E0,1.4959226E0,5.722835E0,3.2421432E0,2.9791842E0,1.2496744E0,7.9873915E0,3.9823391E0,2.496354E0,3.236844E0,2.2475307E0,2.2497613E0,2.732376E0,7.9330154E1,1.1437268E1,1.2453039E0,5.745515E0,4.2212825E0,4.994501E0,4.248469E0,1.490226E0],"tree_param":{"num_deleted":"0","num_feature":"10","num_nodes":"55","size_leaf_vector":"0"}},{"base_weights":[-3.8602638E-1,8.339526E-1,-1.0682185E0,1.5303981E0,8.186033E-4,-1.2569366E0,-2.2745077E-1,3.0652243E-1,-1.197867E0,-6.545079E-1,-1.3240069E0,1.2135521E0,-3.906584E-1,6.7087305E-1,-2.647724E-2,6.0494477E-1,-9.27376E-1,-1.3543508E0,-6.3938236E-1,-5.43103E-1,-4.5650445E-2,8.858443E-1,2.692806E-1,-3.0081233E-1,3.526846E-1,-4.065569E-1,-1.3392218E0,-7.492946E-1,-1.3790544E0,4.9613887E-1,-1.1944185E0,-1.17814325E-1,-8.226928E-1,2.0980936E-1,-6.0494477E-1,3.3599657E-1,9.5097435E-1,-7.801584E-1,1.1232936E0,1.5630335E-1,-7.671106E-1,8.9012426E-1,-5.137938E-1,-9.6177703E-1,4.4270706E-1,-1.3863309E-1,-1.0804518E0,-1.4235971E0,-9.8065454E-1,-7.818988E-1,3.254803E-1,-1.1029477E0,-4.414839E-1,-2.530043E-1,1.1014485E0],"categories":[],"categories_nodes":[],"categories_segments":[],"categories_sizes":[],"default_left":[true,true,true,false,true,true,true,true,false,true,true,false,true,true,true,false,true,true,true,true,true,true,true,true,true,true,false,true,true,false,false,true,true,true,false,false,false,false,false,false,false,false,false,false,false,false,false,false,false,false,false,false,false,false,false],"id":15,"left_children":[1,3,5,-1,7,9,11,13,-1,15,17,-1,19,21,23,-1,25,27,29,31,33,35,37,39,41,43,-1,45,47,-1,-1,49,51,53,-1,-1,-1,-1,-1,-1,-1,-1,-1,-1,-1,-1,-1,-1,-1,-1,-1,-1,-1,-1,-1],"loss_changes":[1.8220949E2,4.5660526E1,2.1954193E1,0E0,1.3864036E1,3.7497864E0,6.8041244E0,3.675067E0,0E0,5.1741447E0,1.2494507E0,0E0,1.2865794E0,1.0074091E0,1.84438E0,0E0,1.9067583E0,4.107666E-1,4.510242E0,1.9483743E0,1.3746244E0,1.475811E-3,6.6738214E0,2.301682E0,3.938638E0,3.4823222E0,0E0,1.0594478E0,2.300415E-1,0E0,0E0,2.6065946E0,6.039696E-1,3.0588238E0,0E0,0E0,0E0,0E0,0E0,0E0,0E0,0E0,0E0,0E0,0E0,0E0,0E0,0E0,0E0,0E0,0E0,0E0,0E0,0E0,0E0],"parents":[2147483647,0,0,1,1,2,2,4,4,5,5,6,6,7,7,9,9,10,10,12,12,13,13,14,14,16,16,17,17,18,18,19,19,20,20,21,21,22,22,23,23,24,24,25,25,27,27,28,28,31,31,32,32,33,33],"right_children":[2,4,6,-1,8,10,12,14,-1,16,18,-1,20,22,24,-1,26,28,30,32,34,36,38,40,42,44,-1,46,48,-1,-1,50,52,54,-1,-1,-1,-1,-1,-1,-1,-1,-1,-1,-1,-1,-1,-1,-1,-1,-1,-1,-1,-1,-1],"split_conditions":[5E-1,2.5E0,5E-1,1.5303981E-2,-1.8835098E-1,5E-1,5E-1,5E-1,-1.197867E-2,2.5E0,4.303888E-1,1.2135521E-2,5E-1,-3.7688017E-1,-4.3916786E-1,6.0494477E-3,1.5E0,1.5E0,5.2429944E-1,-2.6939034E-2,1.3215988E0,-5.021224E-1,-3.4809482E-1,-4.9598968E-1,-3.0349648E-1,-4.4934773E-1,-1.3392218E-2,-1.12547204E-1,5E-1,4.9613887E-3,-1.1944185E-2,-1.324053E-1,5E-1,5E-1,-6.0494477E-3,3.3599655E-3,9.509743E-3,-7.801584E-3,1.1232936E-2,1.5630334E-3,-7.6711057E-3,8.901242E-3,-5.137938E-3,-9.61777E-3,4.4270707E-3,-1.3863308E-3,-1.0804518E-2,-1.4235971E-2,-9.806545E-3,-7.818988E-3,3.2548031E-3,-1.1029477E-2,-4.414839E-3,-2.530043E-3,1.1014485E-2],"split_indices":[1,0,6,0,4,5,5,9,0,0,4,0,7,4,4,0,2,0,4,4,4,4,4,4,4,4,0,4,7,0,0,4,2,2,0,0,0,0,0,0,0,0,0,0,0,0,0,0,0,0,0,0,0,0,0],"split_type":[0,0,0,0,0,0,0,0,0,0,0,0,0,0,0,0,0,0,0,0,0,0,0,0,0,0,0,0,0,0,0,0,0,0,0,0,0,0,0,0,0,0,0,0,0,0,0,0,0,0,0,0,0,0,0],"sum_hessian":[2.1686299E2,7.769567E1,1.3916731E2,4.1863556E1,3.583211E1,1.132519E2,2.5915419E1,2.9143784E1,6.6883283E0,1.24233675E1,1.0082854E2,1.9818157E0,2.3933603E1,1.343227E1,1.5711514E1,1.9955771E0,1.0427791E1,9.561257E1,5.215964E0,1.620092E1,7.732682E0,7.9635673E0,5.4687023E0,9.235784E0,6.4757314E0,5.482188E0,4.945602E0,4.979646E0,9.063293E1,1.7473208E0,3.4686432E0,6.9898815E0,9.211039E0,5.7371054E0,1.995577E0,1.4956546E0,6.4679127E0,2.4924178E0,2.9762845E0,4.999518E0,4.2362657E0,3.979887E0,2.4958441E0,3.2348619E0,2.2473266E0,2.2497282E0,2.729918E0,7.9204285E1,1.1428638E1,2.492347E0,4.4975348E0,4.2172995E0,4.9937396E0,4.248256E0,1.488849E0],"tree_param":{"num_deleted":"0","num_feature":"10","num_nodes":"55","size_leaf_vector":"0"}},{"base_weights":[-3.828483E-1,8.2691795E-1,-1.059263E0,1.5183252E0,8.643382E-4,-1.2465951E0,-2.2547147E-1,3.0406192E-1,-1.1886725E0,-6.493812E-1,-1.3131186E0,1.2064478E0,-3.8759312E-1,6.657039E-1,-2.6360642E-2,6.0103273E-1,-9.2048645E-1,-1.3431987E0,-6.3456386E-1,-2.4387282E-1,-8.0156875E-1,8.788816E-1,2.6729262E-1,-2.9845887E-1,3.4980896E-1,-4.0295604E-1,-1.3301666E0,-7.441705E-1,-1.3676513E0,4.9304658E-1,-1.1862254E0,-8.554653E-1,-9.664879E-2,-2.0529331E-1,-9.9924594E-1,-7.74838E-1,1.1157497E0,6.4441127E-1,-5.013143E-1,8.834723E-1,-5.102048E-1,-9.585719E-1,4.4542825E-1,-1.3767485E-1,-1.0732955E0,-1.4118838E0,-9.723526E-1,5.301317E-1,-3.6034435E-1,-1.1886631E0,-3.9113563E-1],"categories":[],"categories_nodes":[],"categories_segments":[],"categories_sizes":[],"default_left":[true,true,true,false,true,true,true,true,false,true,true,false,true,true,true,false,true,true,true,true,true,false,true,true,true,true,false,true,true,false,false,false,true,false,true,false,false,false,false,false,false,false,false,false,false,false,false,false,false,false,false],"id":16,"left_children":[1,3,5,-1,7,9,11,13,-1,15,17,-1,19,21,23,-1,25,27,29,31,33,-1,35,37,39,41,-1,43,45,-1,-1,-1,47,-1,49,-1,-1,-1,-1,-1,-1,-1,-1,-1,-1,-1,-1,-1,-1,-1,-1],"loss_changes":[1.7893121E2,4.488632E1,2.1585999E1,0E0,1.3637603E1,3.680069E0,6.71332E0,3.6179054E0,0E0,5.100312E0,1.2230377E0,0E0,1.2874675E0,9.90098E-1,1.8143911E0,0E0,1.8849611E0,3.952942E-1,4.448831E0,1.7126441E0,5.0042534E-1,0E0,6.580482E0,2.2804382E0,3.8803613E0,3.4813628E0,0E0,1.0453227E0,2.2686768E-1,0E0,0E0,0E0,3.033468E0,0E0,2.3117542E-2,0E0,0E0,0E0,0E0,0E0,0E0,0E0,0E0,0E0,0E0,0E0,0E0,0E0,0E0,0E0,0E0],"parents":[2147483647,0,0,1,1,2,2,4,4,5,5,6,6,7,7,9,9,10,10,12,12,13,13,14,14,16,16,17,17,18,18,19,19,20,20,22,22,23,23,24,24,25,25,27,27,28,28,32,32,34,34],"right_children":[2,4,6,-1,8,10,12,14,-1,16,18,-1,20,22,24,-1,26,28,30,32,34,-1,36,38,40,42,-1,44,46,-1,-1,-1,48,-1,50,-1,-1,-1,-1,-1,-1,-1,-1,-1,-1,-1,-1,-1,-1,-1,-1],"split_conditions":[5E-1,2.5E0,5E-1,1.5183251E-2,-1.8835098E-1,5E-1,5E-1,5E-1,-1.1886725E-2,2.5E0,4.303888E-1,1.2064478E-2,3.5E0,-3.7688017E-1,-4.3916786E-1,6.010327E-3,-2.3891486E-1,1.5E0,5.2429944E-1,-1.324053E-1,-4.320959E-2,8.788816E-3,-3.4809482E-1,-5.017469E-1,-3.0349648E-1,5E-1,-1.3301666E-2,-1.12547204E-1,5E-1,4.9304655E-3,-1.1862254E-2,-8.554652E-3,-4.911204E-3,-2.052933E-3,5E-1,-7.7483794E-3,1.1157497E-2,6.4441124E-3,-5.0131427E-3,8.834723E-3,-5.1020477E-3,-9.585719E-3,4.4542826E-3,-1.3767486E-3,-1.0732954E-2,-1.4118838E-2,-9.723526E-3,5.3013167E-3,-3.6034435E-3,-1.1886631E-2,-3.9113564E-3],"split_indices":[1,0,6,0,4,5,5,9,0,0,4,0,5,4,4,0,4,0,4,4,4,0,4,4,4,3,0,4,7,0,0,0,4,0,7,0,0,0,0,0,0,0,0,0,0,0,0,0,0,0,0],"split_type":[0,0,0,0,0,0,0,0,0,0,0,0,0,0,0,0,0,0,0,0,0,0,0,0,0,0,0,0,0,0,0,0,0,0,0,0,0,0,0,0,0,0,0,0,0,0,0,0,0,0,0],"sum_hessian":[2.1659073E2,7.759312E1,1.3899762E2,4.178282E1,3.581029E1,1.13093285E2,2.5904335E1,2.9129854E1,6.680437E0,1.2413431E1,1.0067985E2,1.9794515E0,2.3924885E1,1.342343E1,1.5706425E1,1.994992E0,1.041844E1,9.546828E1,5.211572E0,1.8938936E1,4.985948E0,7.9589005E0,5.4645295E0,9.233823E0,6.4726024E0,5.47973E0,4.9387093E0,4.977012E0,9.0491264E1,1.7469709E0,3.464601E0,2.741144E0,1.6197792E1,1.7489442E0,3.2370036E0,2.4913092E0,2.9732206E0,1.2494919E0,7.9843307E0,3.9772973E0,2.495305E0,3.232713E0,2.2470174E0,2.2496927E0,2.7273195E0,7.9071724E1,1.141954E1,4.4974256E0,1.1700367E1,1.7402565E0,1.4967471E0],"tree_param":{"num_deleted":"0","num_feature":"10","num_nodes":"51","size_leaf_vector":"0"}},{"base_weights":[-3.7972948E-1,8.200382E-1,-1.0504663E0,1.5064939E0,1.0048689E-3,-1.2364265E0,-2.2374704E-1,3.0174142E-1,-1.1796131E0,-6.443157E-1,-1.3024175E0,1.1994401E0,-3.847826E-1,6.603287E-1,-2.579489E-2,5.971529E-1,-9.1368115E-1,-1.3322403E0,-6.2980646E-1,-2.4181814E-1,-7.9673374E-1,8.9799786E-1,2.9820567E-1,-2.9537708E-1,3.4696457E-1,-3.9986247E-1,-1.3207672E0,-7.3910016E-1,-1.3564495E0,4.8997712E-1,-1.1781476E0,-8.4949994E-1,-9.559457E-2,-2.0398235E-1,-9.933464E-1,3.2885426E-1,9.7575563E-1,-5.308812E-1,1.1083043E0,1.5679745E-1,-7.5731885E-1,8.768948E-1,-5.066451E-1,-9.517436E-1,4.423637E-1,-1.367234E-1,-1.0662284E0,-1.4003851E0,-9.6415716E-1,5.2581954E-1,-3.570725E-1,-1.1817613E0,-3.8879907E-1],"categories":[],"categories_nodes":[],"categories_segments":[],"categories_sizes":[],"default_left":[true,true,true,false,true,true,true,true,false,true,true,false,true,true,true,false,true,true,true,true,true,true,true,true,true,true,false,true,true,false,false,false,true,false,true,false,false,false,false,false,false,false,false,false,false,false,false,false,false,false,false,false,false],"id":17,"left_children":[1,3,5,-1,7,9,11,13,-1,15,17,-1,19,21,23,-1,25,27,29,31,33,35,37,39,41,43,-1,45,47,-1,-1,-1,49,-1,51,-1,-1,-1,-1,-1,-1,-1,-1,-1,-1,-1,-1,-1,-1,-1,-1,-1,-1],"loss_changes":[1.7573688E2,4.4125626E1,2.1219452E1,0E0,1.3417621E1,3.6124115E0,6.6258984E0,3.554124E0,0E0,5.027709E0,1.1974335E0,0E0,1.2749901E0,9.727559E-1,1.7808245E0,0E0,1.8582125E0,3.8050842E-1,4.3884788E0,1.6902233E0,4.9481916E-1,4.2243004E-2,5.4300776E0,2.2560635E0,3.8230438E0,3.4317775E0,0E0,1.031472E0,2.2415161E-1,0E0,0E0,0E0,2.9818401E0,0E0,2.2974968E-2,0E0,0E0,0E0,0E0,0E0,0E0,0E0,0E0,0E0,0E0,0E0,0E0,0E0,0E0,0E0,0E0,0E0,0E0],"parents":[2147483647,0,0,1,1,2,2,4,4,5,5,6,6,7,7,9,9,10,10,12,12,13,13,14,14,16,16,17,17,18,18,19,19,20,20,21,21,22,22,23,23,24,24,25,25,27,27,28,28,32,32,34,34],"right_children":[2,4,6,-1,8,10,12,14,-1,16,18,-1,20,22,24,-1,26,28,30,32,34,36,38,40,42,44,-1,46,48,-1,-1,-1,50,-1,52,-1,-1,-1,-1,-1,-1,-1,-1,-1,-1,-1,-1,-1,-1,-1,-1,-1,-1],"split_conditions":[5E-1,2.5E0,5E-1,1.5064939E-2,-1.8835098E-1,5E-1,5E-1,5E-1,-1.1796131E-2,2.5E0,4.303888E-1,1.1994401E-2,3.5E0,-4.9407023E-1,-4.3916786E-1,5.9715286E-3,-2.3891486E-1,1.5E0,5.2429944E-1,-1.324053E-1,-4.320959E-2,-5.021224E-1,-3.4809482E-1,-4.9598968E-1,-3.0349648E-1,5E-1,-1.3207671E-2,-1.12547204E-1,5E-1,4.899771E-3,-1.17814755E-2,-8.494999E-3,-4.911204E-3,-2.0398234E-3,5E-1,3.2885426E-3,9.757556E-3,-5.308812E-3,1.1083042E-2,1.5679745E-3,-7.5731883E-3,8.768948E-3,-5.0664507E-3,-9.517436E-3,4.423637E-3,-1.3672339E-3,-1.0662284E-2,-1.4003851E-2,-9.641571E-3,5.258195E-3,-3.570725E-3,-1.1817613E-2,-3.8879907E-3],"split_indices":[1,0,6,0,4,5,5,9,0,0,4,0,5,4,4,0,4,0,4,4,4,4,4,4,4,3,0,4,7,0,0,0,4,0,7,0,0,0,0,0,0,0,0,0,0,0,0,0,0,0,0,0,0],"split_type":[0,0,0,0,0,0,0,0,0,0,0,0,0,0,0,0,0,0,0,0,0,0,0,0,0,0,0,0,0,0,0,0,0,0,0,0,0,0,0,0,0,0,0,0,0,0,0,0,0,0,0,0,0],"sum_hessian":[2.1630994E2,7.74859E1,1.3882404E2,4.1698128E1,3.5787777E1,1.1292694E2,2.5897085E1,2.9115627E1,6.6721473E0,1.2403065E1,1.0052388E2,1.9769613E0,2.3920124E1,1.3413958E1,1.570167E1,1.9943748E0,1.040869E1,9.5316925E1,5.206952E0,1.8935658E1,4.984467E0,7.205209E0,6.208749E0,9.232359E0,6.469311E0,5.477419E0,4.9312716E0,4.97424E0,9.034269E1,1.7466019E0,3.46035E0,2.7398176E0,1.619584E1,1.7490084E0,3.2354584E0,1.494622E0,5.7105865E0,3.2387526E0,2.9699965E0,4.9993167E0,4.2330422E0,3.9745739E0,2.4947374E0,3.2305317E0,2.246887E0,2.2496552E0,2.7245846E0,7.893269E1,1.1409989E1,4.497167E0,1.1698673E1,1.7387635E0,1.4966949E0],"tree_param":{"num_deleted":"0","num_feature":"10","num_nodes":"53","size_leaf_vector":"0"}},{"base_weights":[-3.7666255E-1,8.132575E-1,-1.0418056E0,1.494896E0,1.123708E-3,-1.2264265E0,-2.2204019E-1,2.9942003E-1,-1.170685E0,-6.393174E-1,-1.2918979E0,1.1925269E0,-3.819988E-1,6.554481E-1,-2.5683125E-2,5.933047E-1,-9.0696967E-1,-1.3214698E0,-6.2510884E-1,-2.3978378E-1,-7.919459E-1,8.65716E-1,2.62455E-1,-2.93072E-1,3.4415108E-1,-3.9680278E-1,-1.3115194E0,-7.340825E-1,-1.3454425E0,4.869303E-1,-1.170182E0,-8.4359735E-1,-9.455199E-2,-2.0268007E-1,-9.87512E-1,3.269233E-1,9.2986506E-1,-7.6596814E-1,1.100955E0,6.400244E-1,-4.9413234E-1,8.7039036E-1,-5.031144E-1,-9.461337E-1,4.411084E-1,-1.3577865E-1,-1.0592484E0,-1.3890939E0,-9.56066E-1,5.2154833E-1,-3.5383204E-1,-1.1749501E0,-3.8647813E-1],"categories":[],"categories_nodes":[],"categories_segments":[],"categories_sizes":[],"default_left":[true,true,true,false,true,true,true,true,false,true,true,false,true,true,true,false,true,true,true,true,true,true,true,true,true,true,false,true,true,false,false,false,true,false,true,false,false,false,false,false,false,false,false,false,false,false,false,false,false,false,false,false,false],"id":18,"left_children":[1,3,5,-1,7,9,11,13,-1,15,17,-1,19,21,23,-1,25,27,29,31,33,35,37,39,41,43,-1,45,47,-1,-1,-1,49,-1,51,-1,-1,-1,-1,-1,-1,-1,-1,-1,-1,-1,-1,-1,-1,-1,-1,-1,-1],"loss_changes":[1.7260858E2,4.338475E1,2.0861984E1,0E0,1.3201387E1,3.5466003E0,6.5398636E0,3.5008917E0,0E0,4.9563713E0,1.1725922E0,0E0,1.2626665E0,9.6311665E-1,1.7519294E0,0E0,1.8320827E0,3.6637878E-1,4.3291607E0,1.6681466E0,4.8931813E-1,5.308628E-3,6.410433E0,2.2355356E0,3.7666678E0,3.397709E0,0E0,1.0178878E0,2.2183228E-1,0E0,0E0,0E0,2.9311166E0,0E0,2.2872448E-2,0E0,0E0,0E0,0E0,0E0,0E0,0E0,0E0,0E0,0E0,0E0,0E0,0E0,0E0,0E0,0E0,0E0,0E0],"parents":[2147483647,0,0,1,1,2,2,4,4,5,5,6,6,7,7,9,9,10,10,12,12,13,13,14,14,16,16,17,17,18,18,19,19,20,20,21,21,22,22,23,23,24,24,25,25,27,27,28,28,32,32,34,34],"right_children":[2,4,6,-1,8,10,12,14,-1,16,18,-1,20,22,24,-1,26,28,30,32,34,36,38,40,42,44,-1,46,48,-1,-1,-1,50,-1,52,-1,-1,-1,-1,-1,-1,-1,-1,-1,-1,-1,-1,-1,-1,-1,-1,-1,-1],"split_conditions":[5E-1,2.5E0,5E-1,1.494896E-2,-1.8835098E-1,5E-1,5E-1,5E-1,-1.17068505E-2,2.5E0,4.303888E-1,1.1925269E-2,3.5E0,-3.7688017E-1,-4.3916786E-1,5.933047E-3,-2.3891486E-1,1.5E0,5.2429944E-1,-1.324053E-1,-4.320959E-2,-5.021224E-1,-3.4809482E-1,-5.017469E-1,-3.0349648E-1,-4.4934773E-1,-1.3115194E-2,-1.12547204E-1,5E-1,4.869303E-3,-1.17018195E-2,-8.435973E-3,-4.911204E-3,-2.0268005E-3,5E-1,3.269233E-3,9.298651E-3,-7.659681E-3,1.100955E-2,6.4002443E-3,-4.9413233E-3,8.703903E-3,-5.031144E-3,-9.461337E-3,4.411084E-3,-1.3577865E-3,-1.0592484E-2,-1.3890939E-2,-9.5606595E-3,5.2154833E-3,-3.5383203E-3,-1.1749501E-2,-3.8647812E-3],"split_indices":[1,0,6,0,4,5,5,9,0,0,4,0,5,4,4,0,4,0,4,4,4,4,4,4,4,4,0,4,7,0,0,0,4,0,7,0,0,0,0,0,0,0,0,0,0,0,0,0,0,0,0,0,0],"split_type":[0,0,0,0,0,0,0,0,0,0,0,0,0,0,0,0,0,0,0,0,0,0,0,0,0,0,0,0,0,0,0,0,0,0,0,0,0,0,0,0,0,0,0,0,0,0,0,0,0,0,0,0,0],"sum_hessian":[2.160164E2,7.737402E1,1.3864238E2,4.1609615E1,3.576441E1,1.12753E2,2.588938E1,2.9100937E1,6.663471E0,1.2392156E1,1.0036085E2,1.9743477E0,2.3915031E1,1.340485E1,1.5696086E1,1.9937263E0,1.039843E1,9.515874E1,5.20211E0,1.893217E1,4.98286E0,7.948948E0,5.4559026E0,9.230225E0,6.465862E0,5.474957E0,4.9234724E0,4.971333E0,9.01874E1,1.7462144E0,3.4558952E0,2.7384024E0,1.619377E1,1.7490685E0,3.2337914E0,1.4943237E0,6.454624E0,2.4892862E0,2.9666162E0,1.2492701E0,7.980954E0,3.9717202E0,2.4941416E0,3.2289283E0,2.246029E0,2.2496161E0,2.7217166E0,7.878741E1,1.1399998E1,4.4968486E0,1.169692E1,1.7371596E0,1.4966319E0],"tree_param":{"num_deleted":"0","num_feature":"10","num_nodes":"53","size_leaf_vector":"0"}},{"base_weights":[-3.7362185E-1,8.066445E-1,-1.033277E0,1.4835243E0,1.3673258E-3,-1.2165902E0,-2.2035061E-1,2.9727903E-1,-1.161885E0,-6.343824E-1,-1.2815542E0,1.1857063E0,-3.7924138E-1,6.504612E-1,-2.5126291E-2,5.8948797E-1,-9.003464E-1,-1.3108814E0,-6.2046975E-1,-5.297999E-1,-3.953619E-2,8.589814E-1,2.6054585E-1,-2.9004532E-1,3.4136784E-1,-3.9331898E-1,-1.3028816E0,-7.291166E-1,-1.3346248E0,4.8390594E-1,-1.1623263E0,-1.14132814E-1,-8.032933E-1,2.1277098E-1,-5.940457E-1,3.250046E-1,9.224438E-1,-7.6078516E-1,1.0936997E0,1.5725389E-1,-7.477014E-1,8.6395764E-1,-4.9961266E-1,-9.394484E-1,4.3904072E-1,-1.3484035E-1,-1.052354E0,-1.3780038E0,-9.480767E-1,-1.022745E0,2.0487128E-1,-1.083002E0,-4.2607066E-1,-2.49218E-1,1.1013708E0],"categories":[],"categories_nodes":[],"categories_segments":[],"categories_sizes":[],"default_left":[true,true,true,false,true,true,true,true,false,true,true,false,true,true,true,false,true,true,true,true,true,true,true,true,true,true,false,true,true,false,false,true,true,true,false,false,false,false,false,false,false,false,false,false,false,false,false,false,false,false,false,false,false,false,false],"id":19,"left_children":[1,3,5,-1,7,9,11,13,-1,15,17,-1,19,21,23,-1,25,27,29,31,33,35,37,39,41,43,-1,45,47,-1,-1,49,51,53,-1,-1,-1,-1,-1,-1,-1,-1,-1,-1,-1,-1,-1,-1,-1,-1,-1,-1,-1,-1,-1],"loss_changes":[1.6955739E2,4.265416E1,2.0513214E1,0E0,1.2992021E1,3.4825897E0,6.455189E0,3.442115E0,0E0,4.8862514E0,1.1484833E0,0E0,1.2530689E0,9.4655704E-1,1.7195476E0,0E0,1.8117409E0,3.5287476E-1,4.270853E0,1.861299E0,1.3478248E0,3.276348E-3,6.3214664E0,2.211465E0,3.7112157E0,3.354545E0,0E0,1.0045633E0,2.1987915E-1,0E0,0E0,2.5234754E0,6.14378E-1,3.0399542E0,0E0,0E0,0E0,0E0,0E0,0E0,0E0,0E0,0E0,0E0,0E0,0E0,0E0,0E0,0E0,0E0,0E0,0E0,0E0,0E0,0E0],"parents":[2147483647,0,0,1,1,2,2,4,4,5,5,6,6,7,7,9,9,10,10,12,12,13,13,14,14,16,16,17,17,18,18,19,19,20,20,21,21,22,22,23,23,24,24,25,25,27,27,28,28,31,31,32,32,33,33],"right_children":[2,4,6,-1,8,10,12,14,-1,16,18,-1,20,22,24,-1,26,28,30,32,34,36,38,40,42,44,-1,46,48,-1,-1,50,52,54,-1,-1,-1,-1,-1,-1,-1,-1,-1,-1,-1,-1,-1,-1,-1,-1,-1,-1,-1,-1,-1],"split_conditions":[5E-1,2.5E0,5E-1,1.4835243E-2,-1.8835098E-1,5E-1,5E-1,5E-1,-1.161885E-2,2.5E0,4.303888E-1,1.1857063E-2,5E-1,-3.7688017E-1,-4.3916786E-1,5.8948793E-3,1.5E0,1.5E0,5.2429944E-1,-2.6939034E-2,1.3215988E0,-5.021224E-1,-3.4809482E-1,-4.9598968E-1,-3.0349648E-1,-4.4934773E-1,-1.3028815E-2,-1.12547204E-1,5E-1,4.8390594E-3,-1.1623263E-2,-4.9774188E-1,5E-1,5E-1,-5.940457E-3,3.250046E-3,9.224438E-3,-7.6078516E-3,1.0936997E-2,1.5725389E-3,-7.477014E-3,8.639576E-3,-4.9961265E-3,-9.394484E-3,4.390407E-3,-1.3484035E-3,-1.052354E-2,-1.3780038E-2,-9.480767E-3,-1.022745E-2,2.0487127E-3,-1.083002E-2,-4.2607067E-3,-2.4921799E-3,1.1013708E-2],"split_indices":[1,0,6,0,4,5,5,9,0,0,4,0,7,4,4,0,2,0,4,4,4,4,4,4,4,4,0,4,7,0,0,4,2,2,0,0,0,0,0,0,0,0,0,0,0,0,0,0,0,0,0,0,0,0,0],"split_type":[0,0,0,0,0,0,0,0,0,0,0,0,0,0,0,0,0,0,0,0,0,0,0,0,0,0,0,0,0,0,0,0,0,0,0,0,0,0,0,0,0,0,0,0,0,0,0,0,0,0,0,0,0,0,0],"sum_hessian":[2.1571031E2,7.725734E1,1.3845297E2,4.1517414E1,3.573993E1,1.1257175E2,2.5881227E1,2.9085508E1,6.65442E0,1.2380752E1,1.00190994E2,1.9716139E0,2.3909613E1,1.3394663E1,1.56908455E1,1.9930471E0,1.0387705E1,9.499395E1,5.1970506E0,1.6179302E1,7.7303104E0,7.943577E0,5.451086E0,9.228588E0,6.4622583E0,5.472159E0,4.915546E0,4.9682946E0,9.002565E1,1.7458087E0,3.4512417E0,6.9832196E0,9.196083E0,5.736457E0,1.9938533E0,1.4940193E0,6.449558E0,2.488002E0,2.963084E0,4.999055E0,4.2295327E0,3.96874E0,2.493518E0,3.226515E0,2.2456439E0,2.2495751E0,2.7187195E0,7.863607E1,1.1389582E1,1.241377E0,5.7418427E0,4.206211E0,4.9898725E0,4.2476263E0,1.4888306E0],"tree_param":{"num_deleted":"0","num_feature":"10","num_nodes":"55","size_leaf_vector":"0"}},{"base_weights":[-3.7065238E-1,8.00047E-1,-1.0248777E0,1.4723712E0,1.406708E-3,-1.2069124E0,-2.1857487E-1,2.9492134E-1,-1.1532094E0,-6.2951016E-1,-1.2713813E0,1.1789763E0,-3.764212E-1,6.4553404E-1,-2.5019383E-2,5.8570206E-1,-8.9381033E-1,-1.3004693E0,-6.158878E-1,-2.3479171E-1,-7.853331E-1,8.7820166E-1,2.909386E-1,-2.8778768E-1,3.3861426E-1,-3.901287E-1,-1.2941172E0,-7.2420144E-1,-1.32399E0,4.8090383E-1,-1.1545775E0,-8.350916E-1,-9.062769E-2,-2.0228343E-1,-9.785843E-1,3.2309812E-1,9.5377773E-1,-5.2161884E-1,1.0865365E0,6.356702E-1,-4.8707727E-1,8.5759515E-1,-4.961394E-1,-9.354803E-1,4.3976122E-1,-1.3390845E-1,-1.045543E0,-1.3671085E0,-9.401872E-1,5.169047E-1,-3.4663874E-1,-1.1637471E0,-3.8373828E-1],"categories":[],"categories_nodes":[],"categories_segments":[],"categories_sizes":[],"default_left":[true,true,true,false,true,true,true,true,false,true,true,false,true,true,true,false,true,true,true,true,true,true,true,true,true,true,false,true,true,false,false,false,true,false,true,false,false,false,false,false,false,false,false,false,false,false,false,false,false,false,false,false,false],"id":20,"left_children":[1,3,5,-1,7,9,11,13,-1,15,17,-1,19,21,23,-1,25,27,29,31,33,35,37,39,41,43,-1,45,47,-1,-1,-1,49,-1,51,-1,-1,-1,-1,-1,-1,-1,-1,-1,-1,-1,-1,-1,-1,-1,-1,-1,-1],"loss_changes":[1.6655171E2,4.1952396E1,2.0175018E1,0E0,1.2782303E1,3.420288E0,6.3710637E0,3.3891294E0,0E0,4.8173256E0,1.1250916E0,0E0,1.2576864E0,9.31221E-1,1.691704E0,0E0,1.7889442E0,3.3996582E-1,4.2135324E0,1.6483184E0,4.757614E-1,3.5419464E-2,5.217599E0,2.1916208E0,3.6566691E0,3.3392973E0,0E0,9.914923E-1,2.1827698E-1,0E0,0E0,0E0,2.8520663E0,0E0,1.9355297E-2,0E0,0E0,0E0,0E0,0E0,0E0,0E0,0E0,0E0,0E0,0E0,0E0,0E0,0E0,0E0,0E0,0E0,0E0],"parents":[2147483647,0,0,1,1,2,2,4,4,5,5,6,6,7,7,9,9,10,10,12,12,13,13,14,14,16,16,17,17,18,18,19,19,20,20,21,21,22,22,23,23,24,24,25,25,27,27,28,28,32,32,34,34],"right_children":[2,4,6,-1,8,10,12,14,-1,16,18,-1,20,22,24,-1,26,28,30,32,34,36,38,40,42,44,-1,46,48,-1,-1,-1,50,-1,52,-1,-1,-1,-1,-1,-1,-1,-1,-1,-1,-1,-1,-1,-1,-1,-1,-1,-1],"split_conditions":[5E-1,2.5E0,5E-1,1.4723712E-2,-1.8835098E-1,5E-1,5E-1,5E-1,-1.1532094E-2,2.5E0,4.303888E-1,1.1789762E-2,3.5E0,-4.9407023E-1,-4.3916786E-1,5.8570206E-3,-2.3891486E-1,1.5E0,5.2429944E-1,-1.324053E-1,-4.320959E-2,-5.021224E-1,-3.4809482E-1,-5.017469E-1,-3.0349648E-1,5E-1,-1.2941171E-2,-1.12547204E-1,5E-1,4.8090382E-3,-1.15457745E-2,-8.350915E-3,-4.911204E-3,-2.0228343E-3,5E-1,3.230981E-3,9.537777E-3,-5.2161883E-3,1.0865365E-2,6.3567017E-3,-4.8707724E-3,8.575952E-3,-4.961394E-3,-9.354803E-3,4.397612E-3,-1.3390845E-3,-1.045543E-2,-1.3671084E-2,-9.401872E-3,5.169047E-3,-3.4663873E-3,-1.1637471E-2,-3.8373827E-3],"split_indices":[1,0,6,0,4,5,5,9,0,0,4,0,5,4,4,0,4,0,4,4,4,4,4,4,4,3,0,4,7,0,0,0,4,0,7,0,0,0,0,0,0,0,0,0,0,0,0,0,0,0,0,0,0],"split_type":[0,0,0,0,0,0,0,0,0,0,0,0,0,0,0,0,0,0,0,0,0,0,0,0,0,0,0,0,0,0,0,0,0,0,0,0,0,0,0,0,0,0,0,0,0,0,0,0,0,0,0,0,0],"sum_hessian":[2.1538797E2,7.713547E1,1.3825249E2,4.1421642E1,3.571383E1,1.1238342E2,2.5869072E1,2.9068823E1,6.645005E0,1.2368857E1,1.00014565E2,1.9687625E0,2.3900309E1,1.3384031E1,1.5684792E1,1.992338E0,1.0376519E1,9.4822784E1,5.1917806E0,1.8921055E1,4.9792533E0,7.18981E0,6.194221E0,9.226287E0,6.458505E0,5.469348E0,4.9071712E0,4.965128E0,8.985766E1,1.745385E0,3.4463956E0,2.7359388E0,1.6185116E1,1.7490399E0,3.2302136E0,1.4937087E0,5.696101E0,3.234817E0,2.959404E0,1.2490096E0,7.9772773E0,3.9656367E0,2.4928684E0,3.2237003E0,2.245648E0,2.2495327E0,2.7155952E0,7.8478905E1,1.1378753E1,4.4962125E0,1.1688904E1,1.7340556E0,1.4961579E0],"tree_param":{"num_deleted":"0","num_feature":"10","num_nodes":"53","size_leaf_vector":"0"}},{"base_weights":[-3.6768892E-1,7.936672E-1,-1.0166012E0,1.4614297E0,1.720227E-3,-1.197388E0,-2.1692078E-1,2.9291195E-1,-1.1446556E0,-6.246963E-1,-1.2613738E0,1.1723348E0,-3.737163E-1,6.408212E-1,-2.4471425E-2,5.819467E-1,-8.873547E-1,-1.2902282E0,-6.1136204E-1,-2.3282467E-1,-7.806588E-1,8.4666693E-1,2.5587708E-1,-2.848151E-1,3.3588982E-1,-3.871619E-1,-1.2852907E0,-7.193366E-1,-1.3135327E0,4.7792363E-1,-1.1469333E0,-8.293385E-1,-8.963483E-2,-2.0099242E-1,-9.7291356E-1,1.1808885E0,6.017111E-1,-7.521403E-1,1.079463E0,1.5767305E-1,-7.382531E-1,8.513015E-1,-4.9269447E-1,-9.289176E-1,4.3674162E-1,-1.3298346E-1,-1.038814E0,-1.3564017E0,-9.323949E-1,-1.0133772E0,-3.3174807E-1,5.1271737E-1,-3.4349805E-1,-1.1571696E0,-3.814515E-1],"categories":[],"categories_nodes":[],"categories_segments":[],"categories_sizes":[],"default_left":[true,true,true,false,true,true,true,true,false,true,true,false,true,true,true,false,true,true,true,true,true,true,true,true,true,true,false,true,true,false,false,true,true,false,true,false,false,false,false,false,false,false,false,false,false,false,false,false,false,false,false,false,false,false,false],"id":21,"left_children":[1,3,5,-1,7,9,11,13,-1,15,17,-1,19,21,23,-1,25,27,29,31,33,35,37,39,41,43,-1,45,47,-1,-1,49,51,-1,53,-1,-1,-1,-1,-1,-1,-1,-1,-1,-1,-1,-1,-1,-1,-1,-1,-1,-1,-1,-1],"loss_changes":[1.6363281E2,4.1251957E1,1.9842758E1,0E0,1.2582312E1,3.3596954E0,6.28905E0,3.3341324E0,0E0,4.749545E0,1.1023712E0,0E0,1.2455578E0,9.2231894E-1,1.6604614E0,0E0,1.7645159E0,3.2763672E-1,4.157177E0,1.6268724E0,4.7058773E-1,2.0742416E-2,6.159379E0,2.1678526E0,3.603011E0,3.2920775E0,0E0,9.7866535E-1,2.1697998E-1,0E0,0E0,5.7873726E-3,2.8036177E0,0E0,1.939106E-2,0E0,0E0,0E0,0E0,0E0,0E0,0E0,0E0,0E0,0E0,0E0,0E0,0E0,0E0,0E0,0E0,0E0,0E0,0E0,0E0],"parents":[2147483647,0,0,1,1,2,2,4,4,5,5,6,6,7,7,9,9,10,10,12,12,13,13,14,14,16,16,17,17,18,18,19,19,20,20,21,21,22,22,23,23,24,24,25,25,27,27,28,28,31,31,32,32,34,34],"right_children":[2,4,6,-1,8,10,12,14,-1,16,18,-1,20,22,24,-1,26,28,30,32,34,36,38,40,42,44,-1,46,48,-1,-1,50,52,-1,54,-1,-1,-1,-1,-1,-1,-1,-1,-1,-1,-1,-1,-1,-1,-1,-1,-1,-1,-1,-1],"split_conditions":[5E-1,2.5E0,5E-1,1.4614297E-2,-1.8835098E-1,5E-1,5E-1,5E-1,-1.1446555E-2,2.5E0,4.303888E-1,1.1723348E-2,3.5E0,-3.7688017E-1,-4.3916786E-1,5.8194664E-3,-2.3891486E-1,1.5E0,5.2429944E-1,-1.324053E-1,-4.320959E-2,5E-1,-3.4809482E-1,-4.9598968E-1,-3.0349648E-1,5E-1,-1.2852907E-2,-1.12547204E-1,5E-1,4.7792364E-3,-1.14693325E-2,-4.9774188E-1,-4.911204E-3,-2.0099243E-3,5E-1,1.1808885E-2,6.017111E-3,-7.5214026E-3,1.079463E-2,1.5767304E-3,-7.382531E-3,8.513015E-3,-4.9269446E-3,-9.289175E-3,4.3674163E-3,-1.3298346E-3,-1.038814E-2,-1.3564017E-2,-9.323949E-3,-1.0133771E-2,-3.3174807E-3,5.1271734E-3,-3.4349805E-3,-1.1571695E-2,-3.8145147E-3],"split_indices":[1,0,6,0,4,5,5,9,0,0,4,0,5,4,4,0,4,0,4,4,4,5,4,4,4,3,0,4,7,0,0,4,4,0,7,0,0,0,0,0,0,0,0,0,0,0,0,0,0,0,0,0,0,0,0],"split_type":[0,0,0,0,0,0,0,0,0,0,0,0,0,0,0,0,0,0,0,0,0,0,0,0,0,0,0,0,0,0,0,0,0,0,0,0,0,0,0,0,0,0,0,0,0,0,0,0,0,0,0,0,0,0,0],"sum_hessian":[2.1505898E2,7.701048E1,1.380485E2,4.132243E1,3.5688057E1,1.121883E2,2.5860188E1,2.9052818E1,6.635237E0,1.2356538E1,9.9831764E1,1.9657967E0,2.3894392E1,1.3373728E1,1.56790905E1,1.9915993E0,1.0364938E1,9.464546E1,5.186306E0,1.8917059E1,4.9773326E0,7.9324574E0,5.441271E0,9.224484E0,6.454606E0,5.466566E0,4.8983717E0,4.961836E0,8.9683624E1,1.7449441E0,3.441362E0,2.734314E0,1.6182745E1,1.7490948E0,3.2282379E0,1.7389646E0,6.193493E0,2.4856908E0,2.9555798E0,4.9987345E0,4.2257495E0,3.9624135E0,2.4921925E0,3.2210886E0,2.2454777E0,2.2494879E0,2.712348E0,7.83161E1,1.1367524E1,1.2393568E0,1.4949572E0,4.4957724E0,1.1686973E1,1.7321665E0,1.4960712E0],"tree_param":{"num_deleted":"0","num_feature":"10","num_nodes":"55","size_leaf_vector":"0"}},{"base_weights":[-3.648148E-1,7.8733176E-1,-1.0084819E0,1.450693E0,1.9065994E-3,-1.1880137E0,-2.1547338E-1,2.907776E-1,-1.1362201E0,-6.19944E-1,-1.251527E0,1.1657801E0,-3.7124044E-1,6.363516E-1,-2.4369022E-2,5.7822156E-1,-8.809846E-1,-1.2801533E0,-6.0689116E-1,-2.3113309E-1,-7.7602905E-1,8.40684E-1,2.540425E-1,-2.8260353E-1,3.3319426E-1,-3.8415626E-1,-1.2766718E0,-7.1452075E-1,-1.3032476E0,4.7496516E-1,-1.1393913E0,-8.2497555E-1,-8.865282E-2,-1.9970994E-1,-9.673039E-1,1.1740873E0,5.9682614E-1,-7.4708873E-1,1.0724777E0,6.313487E-1,-4.8014605E-1,8.4507555E-1,-4.8927706E-1,-9.244712E-1,4.3700552E-1,-1.3206482E-1,-1.0321649E0,-1.3458778E0,-9.2469746E-1,-1.0083071E0,-3.2979864E-1,5.0856924E-1,-3.4038717E-1,-1.1506759E0,-3.7918013E-1],"categories":[],"categories_nodes":[],"categories_segments":[],"categories_sizes":[],"default_left":[true,true,true,false,true,true,true,true,false,true,true,false,true,true,true,false,true,true,true,true,true,true,true,true,true,true,false,true,true,false,false,true,true,false,true,false,false,false,false,false,false,false,false,false,false,false,false,false,false,false,false,false,false,false,false],"id":22,"left_children":[1,3,5,-1,7,9,11,13,-1,15,17,-1,19,21,23,-1,25,27,29,31,33,35,37,39,41,43,-1,45,47,-1,-1,49,51,-1,53,-1,-1,-1,-1,-1,-1,-1,-1,-1,-1,-1,-1,-1,-1,-1,-1,-1,-1,-1,-1],"loss_changes":[1.6077054E2,4.0574715E1,1.951036E1,0E0,1.2383448E1,3.3006744E0,6.2099047E0,3.2865944E0,0E0,4.682922E0,1.0802917E0,0E0,1.232151E0,9.08453E-1,1.6336284E0,0E0,1.7414093E0,3.1581116E-1,4.1017632E0,1.6117278E0,4.6550894E-1,2.5090218E-2,6.074527E0,2.1486692E0,3.550221E0,3.27181E0,0E0,9.660773E-1,2.1598816E-1,0E0,0E0,6.334305E-3,2.756014E0,0E0,1.9457579E-2,0E0,0E0,0E0,0E0,0E0,0E0,0E0,0E0,0E0,0E0,0E0,0E0,0E0,0E0,0E0,0E0,0E0,0E0,0E0,0E0],"parents":[2147483647,0,0,1,1,2,2,4,4,5,5,6,6,7,7,9,9,10,10,12,12,13,13,14,14,16,16,17,17,18,18,19,19,20,20,21,21,22,22,23,23,24,24,25,25,27,27,28,28,31,31,32,32,34,34],"right_children":[2,4,6,-1,8,10,12,14,-1,16,18,-1,20,22,24,-1,26,28,30,32,34,36,38,40,42,44,-1,46,48,-1,-1,50,52,-1,54,-1,-1,-1,-1,-1,-1,-1,-1,-1,-1,-1,-1,-1,-1,-1,-1,-1,-1,-1,-1],"split_conditions":[5E-1,2.5E0,5E-1,1.450693E-2,-1.8835098E-1,5E-1,5E-1,5E-1,-1.1362201E-2,2.5E0,4.303888E-1,1.16578005E-2,3.5E0,-3.7688017E-1,-4.3916786E-1,5.7822154E-3,1.5E0,1.5E0,5.2429944E-1,-1.324053E-1,-4.320959E-2,5E-1,-3.4809482E-1,-5.017469E-1,-3.0349648E-1,-4.4934773E-1,-1.2766717E-2,-1.12547204E-1,5E-1,4.7496515E-3,-1.1393913E-2,-4.9774188E-1,-4.911204E-3,-1.9970993E-3,5E-1,1.1740873E-2,5.968261E-3,-7.470887E-3,1.0724776E-2,6.313487E-3,-4.8014605E-3,8.450755E-3,-4.8927707E-3,-9.244712E-3,4.370055E-3,-1.3206481E-3,-1.0321649E-2,-1.3458777E-2,-9.246974E-3,-1.0083071E-2,-3.2979862E-3,5.0856923E-3,-3.4038716E-3,-1.1506759E-2,-3.7918012E-3],"split_indices":[1,0,6,0,4,5,5,9,0,0,4,0,5,4,4,0,2,0,4,4,4,5,4,4,4,4,0,4,7,0,0,4,4,0,7,0,0,0,0,0,0,0,0,0,0,0,0,0,0,0,0,0,0,0,0],"split_type":[0,0,0,0,0,0,0,0,0,0,0,0,0,0,0,0,0,0,0,0,0,0,0,0,0,0,0,0,0,0,0,0,0,0,0,0,0,0,0,0,0,0,0,0,0,0,0,0,0,0,0,0,0,0,0],"sum_hessian":[2.1471843E2,7.688076E1,1.3783766E2,4.121989E1,3.566087E1,1.1198655E2,2.5851116E1,2.9035744E1,6.625128E0,1.2343731E1,9.964282E1,1.962719E0,2.3888397E1,1.3363153E1,1.567259E1,1.9908321E0,1.0352899E1,9.446219E1,5.1806316E0,1.8913103E1,4.9752955E0,7.9272957E0,5.435858E0,9.222025E0,6.4505653E0,5.4636054E0,4.889293E0,4.958423E0,8.950377E1,1.744486E0,3.4361458E0,2.7328353E0,1.6180267E1,1.7491457E0,3.2261498E0,1.7373486E0,6.189947E0,2.4842424E0,2.9516153E0,1.2487111E0,7.973314E0,3.959074E0,2.4914913E0,3.2194414E0,2.244164E0,2.2494419E0,2.708981E0,7.814786E1,1.1355909E1,1.2381669E0,1.4946684E0,4.4952765E0,1.168499E1,1.7301756E0,1.4959742E0],"tree_param":{"num_deleted":"0","num_feature":"10","num_nodes":"55","size_leaf_vector":"0"}},{"base_weights":[-3.619481E-1,7.811795E-1,-1.0004798E0,1.4401547E0,2.289068E-3,-1.1787839E0,-2.1403988E-1,2.8890252E-1,-1.1279001E0,-6.152481E-1,-1.2418358E0,1.1593103E0,-3.687869E-1,6.3193226E-1,-2.3829466E-2,5.745262E-1,-8.746924E-1,-1.2702391E0,-6.0247403E-1,-5.1763976E-1,-3.3941153E-2,8.6034876E-1,2.8376397E-1,-2.796836E-1,3.3052698E-1,-3.8068256E-1,-1.2686831E0,-7.097531E-1,-1.2931292E0,4.720282E-1,-1.131949E0,-1.1199087E-1,-7.846458E-1,2.1522062E-1,-5.835154E-1,3.1193167E-1,9.360901E-1,-5.1286376E-1,1.0655781E0,1.5805657E-1,-7.289694E-1,8.3891594E-1,-4.8588705E-1,-9.180311E-1,4.3521816E-1,-1.3115254E-1,-1.0255941E0,-1.3355308E0,-9.17093E-1,-1.00329E0,2.0048055E-1,-1.0638907E0,-4.112258E-1,-2.4601097E-1,1.1010901E0],"categories":[],"categories_nodes":[],"categories_segments":[],"categories_sizes":[],"default_left":[true,true,true,false,true,true,true,true,false,true,true,false,true,true,true,false,true,true,true,true,true,true,true,true,true,true,false,true,true,false,false,true,true,true,false,false,false,false,false,false,false,false,false,false,false,false,false,false,false,false,false,false,false,false,false],"id":23,"left_children":[1,3,5,-1,7,9,11,13,-1,15,17,-1,19,21,23,-1,25,27,29,31,33,35,37,39,41,43,-1,45,47,-1,-1,49,51,53,-1,-1,-1,-1,-1,-1,-1,-1,-1,-1,-1,-1,-1,-1,-1,-1,-1,-1,-1,-1,-1],"loss_changes":[1.5798337E2,3.9902107E1,1.9185776E1,0E0,1.2192395E1,3.2432098E0,6.131977E0,3.2353497E0,0E0,4.6173973E0,1.0588531E0,0E0,1.2226243E0,8.9725685E-1,1.6034828E0,0E0,1.7242908E0,3.0451965E-1,4.047271E0,1.7701712E0,1.3206481E0,4.7549725E-2,5.0169554E0,2.1252031E0,3.498285E0,3.231876E0,0E0,9.5372224E-1,2.15271E-1,0E0,0E0,2.4224894E0,6.239009E-1,3.022927E0,0E0,0E0,0E0,0E0,0E0,0E0,0E0,0E0,0E0,0E0,0E0,0E0,0E0,0E0,0E0,0E0,0E0,0E0,0E0,0E0,0E0],"parents":[2147483647,0,0,1,1,2,2,4,4,5,5,6,6,7,7,9,9,10,10,12,12,13,13,14,14,16,16,17,17,18,18,19,19,20,20,21,21,22,22,23,23,24,24,25,25,27,27,28,28,31,31,32,32,33,33],"right_children":[2,4,6,-1,8,10,12,14,-1,16,18,-1,20,22,24,-1,26,28,30,32,34,36,38,40,42,44,-1,46,48,-1,-1,50,52,54,-1,-1,-1,-1,-1,-1,-1,-1,-1,-1,-1,-1,-1,-1,-1,-1,-1,-1,-1,-1,-1],"split_conditions":[5E-1,2.5E0,5E-1,1.4401547E-2,-1.8835098E-1,5E-1,5E-1,5E-1,-1.1279001E-2,2.5E0,4.303888E-1,1.1593103E-2,5E-1,-4.9407023E-1,-4.3916786E-1,5.745262E-3,-2.3891486E-1,1.5E0,5.2429944E-1,-2.6939034E-2,1.3215988E0,-5.021224E-1,-3.4809482E-1,-4.9598968E-1,-3.0349648E-1,-4.4934773E-1,-1.268683E-2,-1.12547204E-1,5E-1,4.720282E-3,-1.1319489E-2,-4.9774188E-1,5E-1,5E-1,-5.835154E-3,3.1193167E-3,9.360901E-3,-5.1286374E-3,1.0655781E-2,1.5805657E-3,-7.2896937E-3,8.389159E-3,-4.8588705E-3,-9.180311E-3,4.3521817E-3,-1.3115254E-3,-1.0255941E-2,-1.3355307E-2,-9.17093E-3,-1.0032901E-2,2.0048055E-3,-1.0638907E-2,-4.112258E-3,-2.4601098E-3,1.10109E-2],"split_indices":[1,0,6,0,4,5,5,9,0,0,4,0,7,4,4,0,4,0,4,4,4,4,4,4,4,4,0,4,7,0,0,4,2,2,0,0,0,0,0,0,0,0,0,0,0,0,0,0,0,0,0,0,0,0,0],"split_type":[0,0,0,0,0,0,0,0,0,0,0,0,0,0,0,0,0,0,0,0,0,0,0,0,0,0,0,0,0,0,0,0,0,0,0,0,0,0,0,0,0,0,0,0,0,0,0,0,0,0,0,0,0,0,0],"sum_hessian":[2.1436761E2,7.6747475E1,1.3762013E2,4.1114143E1,3.5633335E1,1.1177847E2,2.5841656E1,2.9018648E1,6.6146874E0,1.233051E1,9.944797E1,1.9595323E0,2.3882124E1,1.3352196E1,1.5666451E1,1.990037E0,1.0340473E1,9.42732E1,5.1747637E0,1.6154757E1,7.727367E0,7.174366E0,6.1778297E0,9.220064E0,6.446387E0,5.460271E0,4.8802023E0,4.9548917E0,8.9318306E1,1.7440112E0,3.4307525E0,6.975961E0,9.178796E0,5.7354565E0,1.9919106E0,1.4917191E0,5.682647E0,3.2303154E0,2.9475145E0,4.998358E0,4.2217064E0,3.9556212E0,2.4907658E0,3.2166348E0,2.2436364E0,2.2493942E0,2.7054973E0,7.797439E1,1.1343923E1,1.2369215E0,5.7390394E0,4.1936917E0,4.985104E0,4.2466927E0,1.4887637E0],"tree_param":{"num_deleted":"0","num_feature":"10","num_nodes":"55","size_leaf_vector":"0"}},{"base_weights":[-3.591361E-1,7.749955E-1,-9.925558E-1,1.4298089E0,2.3920706E-3,-1.1696955E0,-2.1232294E-1,2.8671682E-1,-1.1196924E0,-6.106094E-1,-1.2322963E0,1.1529237E0,-3.6605796E-1,6.273658E-1,-2.373146E-2,5.708602E-1,-8.6847925E-1,-1.2604816E0,-5.981096E-1,-2.2656769E-1,-7.6966226E-1,8.292714E-1,2.4953476E-1,-2.7751717E-1,3.278876E-1,-3.777408E-1,-1.2603132E0,-7.050329E-1,-1.2831731E0,4.6911252E-1,-1.1246039E0,-8.18087E-1,-8.487238E-2,-1.9931148E-1,-9.587481E-1,1.1655405E0,5.857265E-1,-7.386572E-1,1.0587628E0,6.2705934E-1,-4.733355E-1,8.328214E-1,-4.825242E-1,-9.1166216E-1,4.3237817E-1,-1.3024652E-1,-1.0191003E0,-1.3253558E0,-9.0957946E-1,-9.9832517E-1,-3.2859865E-1,5.040645E-1,-3.334477E-1,-1.1400021E0,-3.7651607E-1],"categories":[],"categories_nodes":[],"categories_segments":[],"categories_sizes":[],"default_left":[true,true,true,false,true,true,true,true,false,true,true,false,true,true,true,false,true,true,true,true,true,true,true,true,true,true,false,true,true,false,false,true,true,false,true,false,false,false,false,false,false,false,false,false,false,false,false,false,false,false,false,false,false,false,false],"id":24,"left_children":[1,3,5,-1,7,9,11,13,-1,15,17,-1,19,21,23,-1,25,27,29,31,33,35,37,39,41,43,-1,45,47,-1,-1,49,51,-1,53,-1,-1,-1,-1,-1,-1,-1,-1,-1,-1,-1,-1,-1,-1,-1,-1,-1,-1,-1,-1],"loss_changes":[1.5522261E2,3.926015E1,1.8878876E1,0E0,1.1999148E1,3.18721E0,6.0528803E0,3.187548E0,0E0,4.5529647E0,1.0379791E0,0E0,1.2258759E0,8.870783E-1,1.5776223E0,0E0,1.7020969E0,2.936859E-1,3.9936779E0,1.5985665E0,4.528532E-1,4.7496796E-2,5.9199133E0,2.1066542E0,3.4471855E0,3.1871397E0,0E0,9.4159436E-1,2.1482849E-1,0E0,0E0,1.0402203E-3,2.6817894E0,0E0,1.6313314E-2,0E0,0E0,0E0,0E0,0E0,0E0,0E0,0E0,0E0,0E0,0E0,0E0,0E0,0E0,0E0,0E0,0E0,0E0,0E0,0E0],"parents":[2147483647,0,0,1,1,2,2,4,4,5,5,6,6,7,7,9,9,10,10,12,12,13,13,14,14,16,16,17,17,18,18,19,19,20,20,21,21,22,22,23,23,24,24,25,25,27,27,28,28,31,31,32,32,34,34],"right_children":[2,4,6,-1,8,10,12,14,-1,16,18,-1,20,22,24,-1,26,28,30,32,34,36,38,40,42,44,-1,46,48,-1,-1,50,52,-1,54,-1,-1,-1,-1,-1,-1,-1,-1,-1,-1,-1,-1,-1,-1,-1,-1,-1,-1,-1,-1],"split_conditions":[5E-1,2.5E0,5E-1,1.4298088E-2,-1.8835098E-1,5E-1,5E-1,5E-1,-1.1196924E-2,2.5E0,4.303888E-1,1.1529237E-2,3.5E0,-3.7688017E-1,-4.3916786E-1,5.708602E-3,1.5E0,1.5E0,5.2429944E-1,-1.324053E-1,-4.320959E-2,5E-1,-3.4809482E-1,-5.017469E-1,-3.0349648E-1,-4.4934773E-1,-1.2603131E-2,-1.12547204E-1,5E-1,4.691125E-3,-1.1246039E-2,-4.9774188E-1,-4.911204E-3,-1.9931148E-3,5E-1,1.1655404E-2,5.857265E-3,-7.3865717E-3,1.0587628E-2,6.270593E-3,-4.733355E-3,8.328214E-3,-4.825242E-3,-9.116622E-3,4.3237815E-3,-1.3024652E-3,-1.0191003E-2,-1.32535575E-2,-9.0957945E-3,-9.983252E-3,-3.2859864E-3,5.0406447E-3,-3.3344768E-3,-1.1400021E-2,-3.7651607E-3],"split_indices":[1,0,6,0,4,5,5,9,0,0,4,0,5,4,4,0,2,0,4,4,4,5,4,4,4,4,0,4,7,0,0,4,4,0,7,0,0,0,0,0,0,0,0,0,0,0,0,0,0,0,0,0,0,0,0],"split_type":[0,0,0,0,0,0,0,0,0,0,0,0,0,0,0,0,0,0,0,0,0,0,0,0,0,0,0,0,0,0,0,0,0,0,0,0,0,0,0,0,0,0,0,0,0,0,0,0,0,0,0,0,0,0,0],"sum_hessian":[2.1400194E2,7.660964E1,1.373923E2,4.1005306E1,3.5604332E1,1.1156423E2,2.5828074E1,2.9000404E1,6.6039276E0,1.2316854E1,9.9247375E1,1.9562391E0,2.3871836E1,1.3340876E1,1.5659529E1,1.9892142E0,1.032764E1,9.407867E1,5.168707E0,1.8900846E1,4.9709883E0,7.9159346E0,5.4249415E0,9.217454E0,6.4420743E0,5.4571085E0,4.8705306E0,4.951245E0,8.9127426E1,1.7435199E0,3.425187E0,2.7301276E0,1.617072E1,1.7491133E0,3.2218752E0,1.7348489E0,6.1810856E0,2.4816604E0,2.9432812E0,1.248375E0,7.969079E0,3.9520588E0,2.4900155E0,3.213716E0,2.2433927E0,2.2493448E0,2.7018998E0,7.779585E1,1.13315735E1,1.235622E0,1.4945055E0,4.494445E0,1.1676274E1,1.7264347E0,1.4954405E0],"tree_param":{"num_deleted":"0","num_feature":"10","num_nodes":"55","size_leaf_vector":"0"}},{"base_weights":[-3.5635123E-1,7.690251E-1,-9.8477983E-1,1.419649E0,2.7676756E-3,-1.1607443E0,-2.1092018E-1,2.8488228E-1,-1.1115946E0,-6.0602826E-1,-1.2229036E0,1.1466186E0,-3.6365137E-1,6.230441E-1,-2.3200143E-2,5.672233E-1,-8.6234576E-1,-1.2508756E0,-5.937967E-1,-2.2493322E-1,-7.651395E-1,8.234677E-1,2.4777026E-1,-2.7464855E-1,3.2527527E-1,-3.743359E-1,-1.2525656E0,-7.003593E-1,-1.2733741E0,4.6621794E-1,-1.1173539E0,-8.138258E-1,-8.393783E-2,-1.9804004E-1,-9.532914E-1,1.1589389E0,5.8099353E-1,-7.337318E-1,1.0520298E0,1.5840513E-1,-7.198452E-1,8.267906E-1,-4.7918838E-1,-9.0839976E-1,4.3434426E-1,-1.2934686E-1,-1.0126816E0,-1.3153474E0,-9.0215486E-1,-9.934115E-1,-3.2666942E-1,4.9999672E-1,-3.3043218E-1,-1.1337249E0,-3.742777E-1],"categories":[],"categories_nodes":[],"categories_segments":[],"categories_sizes":[],"default_left":[true,true,true,false,true,true,true,true,false,true,true,false,true,true,true,false,true,true,true,true,true,true,true,true,true,true,false,true,true,false,false,true,true,false,true,false,false,false,false,false,false,false,false,false,false,false,false,false,false,false,false,false,false,false,false],"id":25,"left_children":[1,3,5,-1,7,9,11,13,-1,15,17,-1,19,21,23,-1,25,27,29,31,33,35,37,39,41,43,-1,45,47,-1,-1,49,51,-1,53,-1,-1,-1,-1,-1,-1,-1,-1,-1,-1,-1,-1,-1,-1,-1,-1,-1,-1,-1,-1],"loss_changes":[1.5254807E2,3.8617672E1,1.8568924E1,0E0,1.181507E1,3.1326141E0,5.9773636E0,3.1380548E0,0E0,4.4896116E0,1.0177002E0,0E0,1.2127247E0,8.737254E-1,1.5485297E0,0E0,1.6857309E0,2.833252E-1,3.940966E0,1.5837141E0,4.4807124E-1,5.145359E-2,5.8389354E0,2.0834842E0,3.396907E0,3.1817439E0,0E0,9.2968726E-1,2.1459961E-1,0E0,0E0,1.67346E-3,2.6363144E0,0E0,1.6498327E-2,0E0,0E0,0E0,0E0,0E0,0E0,0E0,0E0,0E0,0E0,0E0,0E0,0E0,0E0,0E0,0E0,0E0,0E0,0E0,0E0],"parents":[2147483647,0,0,1,1,2,2,4,4,5,5,6,6,7,7,9,9,10,10,12,12,13,13,14,14,16,16,17,17,18,18,19,19,20,20,21,21,22,22,23,23,24,24,25,25,27,27,28,28,31,31,32,32,34,34],"right_children":[2,4,6,-1,8,10,12,14,-1,16,18,-1,20,22,24,-1,26,28,30,32,34,36,38,40,42,44,-1,46,48,-1,-1,50,52,-1,54,-1,-1,-1,-1,-1,-1,-1,-1,-1,-1,-1,-1,-1,-1,-1,-1,-1,-1,-1,-1],"split_conditions":[5E-1,2.5E0,5E-1,1.419649E-2,-1.8835098E-1,5E-1,5E-1,5E-1,-1.1115945E-2,2.5E0,4.303888E-1,1.1466186E-2,3.5E0,-3.7688017E-1,-4.3916786E-1,5.672233E-3,-2.3891486E-1,1.5E0,5.2429944E-1,-1.324053E-1,-4.320959E-2,5E-1,-3.4809482E-1,-4.9598968E-1,-3.0349648E-1,5E-1,-1.2525656E-2,-1.12547204E-1,5E-1,4.6621794E-3,-1.1173539E-2,-4.9774188E-1,-4.911204E-3,-1.9804004E-3,5E-1,1.1589388E-2,5.8099353E-3,-7.337318E-3,1.0520298E-2,1.5840512E-3,-7.1984516E-3,8.267906E-3,-4.7918838E-3,-9.083997E-3,4.3434426E-3,-1.2934686E-3,-1.0126816E-2,-1.3153474E-2,-9.021549E-3,-9.934114E-3,-3.2666943E-3,4.9999673E-3,-3.3043218E-3,-1.1337249E-2,-3.742777E-3],"split_indices":[1,0,6,0,4,5,5,9,0,0,4,0,5,4,4,0,4,0,4,4,4,5,4,4,4,3,0,4,7,0,0,4,4,0,7,0,0,0,0,0,0,0,0,0,0,0,0,0,0,0,0,0,0,0,0],"split_type":[0,0,0,0,0,0,0,0,0,0,0,0,0,0,0,0,0,0,0,0,0,0,0,0,0,0,0,0,0,0,0,0,0,0,0,0,0,0,0,0,0,0,0,0,0,0,0,0,0,0,0,0,0,0,0],"sum_hessian":[2.1363055E2,7.6468575E1,1.3716199E2,4.0893486E1,3.5575085E1,1.1134403E2,2.5817953E1,2.8982227E1,6.5928564E0,1.2302752E1,9.904128E1,1.9528422E0,2.3865112E1,1.3329254E1,1.5652974E1,1.9883649E0,1.0314386E1,9.3878815E1,5.1624665E0,1.889645E1,4.968662E0,7.910278E0,5.4189763E0,9.2153425E0,6.4376316E0,5.4535093E0,4.8608775E0,4.947486E0,8.893133E1,1.7430127E0,3.4194539E0,2.728476E0,1.6167973E1,1.7491593E0,3.2195027E0,1.7329891E0,6.1772885E0,2.4800575E0,2.9389188E0,4.9979267E0,4.2174153E0,3.9483895E0,2.489242E0,3.2101614E0,2.2433476E0,2.249294E0,2.698192E0,7.761245E1,1.1318877E1,1.2342695E0,1.4942064E0,4.4938364E0,1.1674137E1,1.7241814E0,1.4953212E0],"tree_param":{"num_deleted":"0","num_feature":"10","num_nodes":"55","size_leaf_vector":"0"}},{"base_weights":[-3.5363978E-1,7.630546E-1,-9.7711164E-1,1.4096699E0,2.9422804E-3,-1.1519253E0,-2.0953062E-1,2.8283215E-1,-1.1036036E0,-6.014981E-1,-1.2136536E0,1.140393E0,-3.6126608E-1,6.1876994E-1,-2.3106499E-2,5.6361514E-1,-8.562819E-1,-1.2414168E0,-5.8953446E-1,-2.2331369E-1,-7.606589E-1,8.4303963E-1,2.7682304E-1,-2.7252614E-1,3.2269E-1,-3.7151894E-1,-1.2443683E0,-6.957316E-1,-1.2637274E0,4.633441E-1,-1.110197E0,-8.096014E-1,-8.301355E-2,-1.9677702E-1,-9.4789183E-1,3.0104816E-1,9.189608E-1,-5.0433576E-1,1.0453775E0,6.228021E-1,-4.6664265E-1,8.208226E-1,-4.7587907E-1,-9.021384E-1,4.3136784E-1,-1.2845358E-1,-1.0063365E0,-1.3055004E0,-8.948173E-1,-9.8854834E-1,-3.2475233E-1,4.9596676E-1,-3.2744527E-1,-1.1275257E0,-3.7205422E-1],"categories":[],"categories_nodes":[],"categories_segments":[],"categories_sizes":[],"default_left":[true,true,true,false,true,true,true,true,false,true,true,false,true,true,true,false,true,true,true,true,true,true,true,true,true,true,false,true,true,false,false,true,true,false,true,false,false,false,false,false,false,false,false,false,false,false,false,false,false,false,false,false,false,false,false],"id":26,"left_children":[1,3,5,-1,7,9,11,13,-1,15,17,-1,19,21,23,-1,25,27,29,31,33,35,37,39,41,43,-1,45,47,-1,-1,49,51,-1,53,-1,-1,-1,-1,-1,-1,-1,-1,-1,-1,-1,-1,-1,-1,-1,-1,-1,-1,-1,-1],"loss_changes":[1.4991154E2,3.800023E1,1.8265991E1,0E0,1.1630342E1,3.079422E0,5.902994E0,3.0937786E0,0E0,4.4272738E0,9.979553E-1,0E0,1.1997476E0,8.6459494E-1,1.523603E0,0E0,1.6637154E0,2.7339172E-1,3.8891144E0,1.5690252E0,4.4337487E-1,5.9019566E-2,4.8256726E0,2.065553E0,3.3474343E0,3.137121E0,0E0,9.17994E-1,2.1459961E-1,0E0,0E0,2.3093224E-3,2.5916312E0,0E0,1.6708374E-2,0E0,0E0,0E0,0E0,0E0,0E0,0E0,0E0,0E0,0E0,0E0,0E0,0E0,0E0,0E0,0E0,0E0,0E0,0E0,0E0],"parents":[2147483647,0,0,1,1,2,2,4,4,5,5,6,6,7,7,9,9,10,10,12,12,13,13,14,14,16,16,17,17,18,18,19,19,20,20,21,21,22,22,23,23,24,24,25,25,27,27,28,28,31,31,32,32,34,34],"right_children":[2,4,6,-1,8,10,12,14,-1,16,18,-1,20,22,24,-1,26,28,30,32,34,36,38,40,42,44,-1,46,48,-1,-1,50,52,-1,54,-1,-1,-1,-1,-1,-1,-1,-1,-1,-1,-1,-1,-1,-1,-1,-1,-1,-1,-1,-1],"split_conditions":[5E-1,2.5E0,5E-1,1.4096699E-2,-1.8835098E-1,5E-1,5E-1,5E-1,-1.1036036E-2,2.5E0,4.303888E-1,1.140393E-2,3.5E0,-4.9407023E-1,-4.3916786E-1,5.6361514E-3,-2.3891486E-1,1.5E0,5.2429944E-1,-1.324053E-1,-4.320959E-2,-5.021224E-1,-3.4809482E-1,-5.017469E-1,-3.0349648E-1,5E-1,-1.2443683E-2,-1.12547204E-1,5E-1,4.6334406E-3,-1.11019695E-2,-4.9774188E-1,-4.911204E-3,-1.96777E-3,5E-1,3.0104816E-3,9.189608E-3,-5.0433576E-3,1.0453775E-2,6.228021E-3,-4.666426E-3,8.2082255E-3,-4.7587906E-3,-9.021384E-3,4.3136785E-3,-1.2845357E-3,-1.0063364E-2,-1.3055003E-2,-8.948172E-3,-9.885483E-3,