{"learner":{"attributes":{"scikit_learn":"{\"use_label_encoder\": false, \"n_estimators\": 300, \"objective\": \"binary:logistic\", \"max_depth\": 3, \"learning_rate\": 0.01, \"verbosity\": 0, \"booster\": null, \"tree_method\": null, \"gamma\": null, \"min_child_weight\": null, \"max_delta_step\": null, \"subsample\": null, \"colsample_bytree\": null, \"colsample_bylevel\": null, \"colsample_bynode\": null, \"reg_alpha\": null, \"reg_lambda\": null, \"scale_pos_weight\": null, \"base_score\": null, \"missing\": NaN, \"num_parallel_tree\": null, \"kwargs\": {}, \"random_state\": null, \"n_jobs\": 4, \"monotone_constraints\": null, \"interaction_constraints\": null, \"importance_type\": \"gain\", \"gpu_id\": null, \"validate_parameters\": null, \"classes_\": [0, 1], \"n_classes_\": 2, \"_features_count\": 7, \"n_features_in_\": 7, \"type\": \"XGBClassifier\"}"},"gradient_booster":{"model":{"gbtree_model_param":{"num_trees":"300","size_leaf_vector":"0"},"tree_info":[0,0,0,0,0,0,0,0,0,0,0,0,0,0,0,0,0,0,0,0,0,0,0,0,0,0,0,0,0,0,0,0,0,0,0,0,0,0,0,0,0,0,0,0,0,0,0,0,0,0,0,0,0,0,0,0,0,0,0,0,0,0,0,0,0,0,0,0,0,0,0,0,0,0,0,0,0,0,0,0,0,0,0,0,0,0,0,0,0,0,0,0,0,0,0,0,0,0,0,0,0,0,0,0,0,0,0,0,0,0,0,0,0,0,0,0,0,0,0,0,0,0,0,0,0,0,0,0,0,0,0,0,0,0,0,0,0,0,0,0,0,0,0,0,0,0,0,0,0,0,0,0,0,0,0,0,0,0,0,0,0,0,0,0,0,0,0,0,0,0,0,0,0,0,0,0,0,0,0,0,0,0,0,0,0,0,0,0,0,0,0,0,0,0,0,0,0,0,0,0,0,0,0,0,0,0,0,0,0,0,0,0,0,0,0,0,0,0,0,0,0,0,0,0,0,0,0,0,0,0,0,0,0,0,0,0,0,0,0,0,0,0,0,0,0,0,0,0,0,0,0,0,0,0,0,0,0,0,0,0,0,0,0,0,0,0,0,0,0,0,0,0,0,0,0,0,0,0,0,0,0,0,0,0,0,0,0,0,0,0,0,0,0,0,0,0,0,0,0,0],"trees":[{"base_weights":[-4.6256983E-1,-1.2358004E0,9.559748E-1,2.4390244E-1,-1.3382353E0,1.7471265E0,-0E0,1.52E0,-1.4E0,-1.5742574E0,-6.388889E-1,3.4710744E-1,-1.3548387E0],"categories":[],"categories_nodes":[],"categories_segments":[],"categories_sizes":[],"default_left":[true,false,true,true,true,false,true,false,false,false,false,false,false],"id":0,"left_children":[1,3,5,7,9,-1,11,-1,-1,-1,-1,-1,-1],"loss_changes":[2.4660428E2,2.2342422E1,6.0127525E1,2.3630243E1,2.144255E1,0E0,1.7870434E1,0E0,0E0,0E0,0E0,0E0,0E0],"parents":[2147483647,0,0,1,1,2,2,3,3,4,4,6,6],"right_children":[2,4,6,8,10,-1,12,-1,-1,-1,-1,-1,-1],"split_conditions":[5E-1,1.3E1,2.5E0,2.5E0,2.626875E1,1.7471265E-2,2.335E1,1.5199999E-2,-1.39999995E-2,-1.5742574E-2,-6.3888887E-3,3.4710744E-3,-1.3548387E-2],"split_indices":[6,2,1,3,5,0,5,0,0,0,0,0,0],"split_type":[0,0,0,0,0,0,0,0,0,0,0,0,0],"sum_hessian":[2.2275E2,1.4425E2,7.85E1,9.25E0,1.35E2,4.25E1,3.6E1,5.25E0,4E0,1E2,3.5E1,2.925E1,6.75E0],"tree_param":{"num_deleted":"0","num_feature":"7","num_nodes":"13","size_leaf_vector":"0"}},{"base_weights":[-4.5802662E-1,-1.223646E0,9.465516E-1,2.4159232E-1,-1.3250798E0,1.7301862E0,-2.7248156E-4,1.5073054E0,-1.3888546E0,-1.5587666E0,-6.3268393E-1,3.4375206E-1,-1.3430926E0],"categories":[],"categories_nodes":[],"categories_segments":[],"categories_sizes":[],"default_left":[true,false,true,true,true,false,true,false,false,false,false,false,false],"id":1,"left_children":[1,3,5,7,9,-1,11,-1,-1,-1,-1,-1,-1],"loss_changes":[2.417613E2,2.19068E1,5.8983917E1,2.32451E1,2.1018051E1,0E0,1.755414E1,0E0,0E0,0E0,0E0,0E0,0E0],"parents":[2147483647,0,0,1,1,2,2,3,3,4,4,6,6],"right_children":[2,4,6,8,10,-1,12,-1,-1,-1,-1,-1,-1],"split_conditions":[5E-1,1.3E1,2.5E0,2.5E0,2.626875E1,1.7301861E-2,2.335E1,1.5073054E-2,-1.3888546E-2,-1.5587666E-2,-6.3268393E-3,3.4375205E-3,-1.3430925E-2],"split_indices":[6,2,1,3,5,0,5,0,0,0,0,0,0],"split_type":[0,0,0,0,0,0,0,0,0,0,0,0,0],"sum_hessian":[2.227393E2,1.4424295E2,7.849636E1,9.249501E0,1.3499345E2,4.2496758E1,3.59996E1,5.2496967E0,3.999804E0,9.9993805E1,3.499964E1,2.924991E1,6.7496896E0],"tree_param":{"num_deleted":"0","num_feature":"7","num_nodes":"13","size_leaf_vector":"0"}},{"base_weights":[-4.5357084E-1,-1.2117275E0,9.373061E-1,5.642802E-1,-1.2923032E0,1.7136623E0,-5.3997344E-4,1.5553306E0,-1.0577592E0,-5.34958E-1,-1.4954072E0,3.404311E-1,-1.331553E0],"categories":[],"categories_nodes":[],"categories_segments":[],"categories_sizes":[],"default_left":[true,false,true,true,true,false,true,false,false,false,false,false,false],"id":2,"left_children":[1,3,5,7,9,-1,11,-1,-1,-1,-1,-1,-1],"loss_changes":[2.3703607E2,2.151094E1,5.787458E1,1.28957405E1,2.0615341E1,0E0,1.7244553E1,0E0,0E0,0E0,0E0,0E0,0E0],"parents":[2147483647,0,0,1,1,2,2,3,3,4,4,6,6],"right_children":[2,4,6,8,10,-1,12,-1,-1,-1,-1,-1,-1],"split_conditions":[5E-1,6.5E0,2.5E0,2.5E0,1.5E0,1.7136622E-2,2.335E1,1.5553306E-2,-1.0577591E-2,-5.3495797E-3,-1.49540715E-2,3.404311E-3,-1.331553E-2],"split_indices":[6,2,1,3,1,0,5,0,0,0,0,0,0],"split_type":[0,0,0,0,0,0,0,0,0,0,0,0,0],"sum_hessian":[2.2270764E2,1.4422208E2,7.848558E1,5.9987035E0,1.3822337E2,4.2487156E1,3.5998425E1,3.749141E0,2.2495625E0,2.9998228E1,1.0822514E2,2.9249651E1,6.7487717E0],"tree_param":{"num_deleted":"0","num_feature":"7","num_nodes":"13","size_leaf_vector":"0"}},{"base_weights":[-4.4917256E-1,-1.1999859E0,9.2823213E-1,2.4050705E-1,-1.2997313E0,1.697538E0,-8.026657E-4,1.4889439E0,-1.368147E0,-1.5294803E0,-6.193222E-1,3.3714423E-1,-1.3202145E0],"categories":[],"categories_nodes":[],"categories_segments":[],"categories_sizes":[],"default_left":[true,false,true,true,true,false,true,false,false,false,false,false,false],"id":3,"left_children":[1,3,5,7,9,-1,11,-1,-1,-1,-1,-1,-1],"loss_changes":[2.324145E2,2.1173798E1,5.679799E1,2.2614742E1,2.0303864E1,0E0,1.6941507E1,0E0,0E0,0E0,0E0,0E0,0E0],"parents":[2147483647,0,0,1,1,2,2,3,3,4,4,6,6],"right_children":[2,4,6,8,10,-1,12,-1,-1,-1,-1,-1,-1],"split_conditions":[5E-1,1.3E1,2.5E0,2.5E0,2.626875E1,1.697538E-2,2.335E1,1.4889439E-2,-1.36814695E-2,-1.5294803E-2,-6.1932215E-3,3.3714422E-3,-1.3202145E-2],"split_indices":[6,2,1,3,5,0,5,0,0,0,0,0,0],"split_type":[0,0,0,0,0,0,0,0,0,0,0,0,0],"sum_hessian":[2.2265741E2,1.4418954E2,7.8467865E1,9.246285E0,1.3494327E2,4.2471382E1,3.5996483E1,5.24792E0,3.9983652E0,9.994697E1,3.4996296E1,2.9249222E1,6.747261E0],"tree_param":{"num_deleted":"0","num_feature":"7","num_nodes":"13","size_leaf_vector":"0"}},{"base_weights":[-4.4488147E-1,-1.1885092E0,9.193246E-1,2.3829108E-1,-1.2873067E0,1.6817992E0,-1.060897E-3,1.476855E0,-1.3575553E0,-1.5149556E0,-6.1334425E-1,3.3389065E-1,-1.3090711E0],"categories":[],"categories_nodes":[],"categories_segments":[],"categories_sizes":[],"default_left":[true,false,true,true,true,false,true,false,false,false,false,false,false],"id":4,"left_children":[1,3,5,7,9,-1,11,-1,-1,-1,-1,-1,-1],"loss_changes":[2.2791238E2,2.0766708E1,5.575284E1,2.2251259E1,1.9921478E1,0E0,1.6644814E1,0E0,0E0,0E0,0E0,0E0,0E0],"parents":[2147483647,0,0,1,1,2,2,3,3,4,4,6,6],"right_children":[2,4,6,8,10,-1,12,-1,-1,-1,-1,-1,-1],"split_conditions":[5E-1,1.3E1,2.5E0,2.5E0,2.626875E1,1.681799E-2,2.335E1,1.476855E-2,-1.3575552E-2,-1.5149556E-2,-6.1334423E-3,3.3389064E-3,-1.309071E-2],"split_indices":[6,2,1,3,5,0,5,0,0,0,0,0,0],"split_type":[0,0,0,0,0,0,0,0,0,0,0,0,0],"sum_hessian":[2.2258636E2,1.4414294E2,7.844343E1,9.243236E0,1.348997E2,4.2449623E1,3.5993805E1,5.246162E0,3.997074E0,9.990594E1,3.499377E1,2.924863E1,6.745173E0],"tree_param":{"num_deleted":"0","num_feature":"7","num_nodes":"13","size_leaf_vector":"0"}},{"base_weights":[-4.4066945E-1,-1.1772456E0,9.105779E-1,5.5274063E-1,-1.2557496E0,1.6664307E0,-1.3142994E-3,1.5210917E0,-1.0322099E0,-5.168573E-1,-1.4541261E0,3.3067048E-1,-1.2981167E0],"categories":[],"categories_nodes":[],"categories_segments":[],"categories_sizes":[],"default_left":[true,false,true,true,true,false,true,false,false,false,false,false,false],"id":5,"left_children":[1,3,5,7,9,-1,11,-1,-1,-1,-1,-1,-1],"loss_changes":[2.2351695E2,2.0398026E1,5.4737724E1,1.2301688E1,1.9636307E1,0E0,1.6354307E1,0E0,0E0,0E0,0E0,0E0,0E0],"parents":[2147483647,0,0,1,1,2,2,3,3,4,4,6,6],"right_children":[2,4,6,8,10,-1,12,-1,-1,-1,-1,-1,-1],"split_conditions":[5E-1,6.5E0,2.5E0,2.5E0,1.5E0,1.6664308E-2,2.335E1,1.5210916E-2,-1.0322099E-2,-5.168573E-3,-1.4541261E-2,3.3067046E-3,-1.2981166E-2],"split_indices":[6,2,1,3,1,0,5,0,0,0,0,0,0],"split_type":[0,0,0,0,0,0,0,0,0,0,0,0,0],"sum_hessian":[2.2249617E2,1.4408371E2,7.841246E1,5.992235E0,1.3809148E2,4.2422054E1,3.5990406E1,3.7446632E0,2.247572E0,2.999071E1,1.0810076E2,2.924788E1,6.7425227E0],"tree_param":{"num_deleted":"0","num_feature":"7","num_nodes":"13","size_leaf_vector":"0"}},{"base_weights":[-4.365055E-1,-1.16613E0,9.019869E-1,2.3729095E-1,-1.2633356E0,1.6514189E0,-1.5633786E-3,1.4594588E0,-1.3378967E0,-1.4874569E0,-6.0047626E-1,3.2748294E-1,-1.2873461E0],"categories":[],"categories_nodes":[],"categories_segments":[],"categories_sizes":[],"default_left":[true,false,true,true,true,false,true,false,false,false,false,false,false],"id":6,"left_children":[1,3,5,7,9,-1,11,-1,-1,-1,-1,-1,-1],"loss_changes":[2.1921399E2,2.008281E1,5.3751442E1,2.1657368E1,1.927835E1,0E0,1.6069828E1,0E0,0E0,0E0,0E0,0E0,0E0],"parents":[2147483647,0,0,1,1,2,2,3,3,4,4,6,6],"right_children":[2,4,6,8,10,-1,12,-1,-1,-1,-1,-1,-1],"split_conditions":[5E-1,1.3E1,2.5E0,2.5E0,2.626875E1,1.651419E-2,2.335E1,1.45945875E-2,-1.3378967E-2,-1.4874569E-2,-6.0047624E-3,3.2748294E-3,-1.2873461E-2],"split_indices":[6,2,1,3,5,0,5,0,0,0,0,0,0],"split_type":[0,0,0,0,0,0,0,0,0,0,0,0,0],"sum_hessian":[2.2239023E2,1.4401508E2,7.837516E1,9.2354765E0,1.3477959E2,4.2388855E1,3.5986305E1,5.241857E0,3.9936197E0,9.979397E1,3.4985626E1,2.9246979E1,6.7393274E0],"tree_param":{"num_deleted":"0","num_feature":"7","num_nodes":"13","size_leaf_vector":"0"}},{"base_weights":[-4.3244287E-1,-1.1552671E0,8.935469E-1,2.3516212E-1,-1.2515727E0,1.6367512E0,-1.8080786E-3,1.4479296E0,-1.3278139E0,-1.4738001E0,-5.9471285E-1,3.2432774E-1,-1.2767539E0],"categories":[],"categories_nodes":[],"categories_segments":[],"categories_sizes":[],"default_left":[true,false,true,true,true,false,true,false,false,false,false,false,false],"id":7,"left_children":[1,3,5,7,9,-1,11,-1,-1,-1,-1,-1,-1],"loss_changes":[2.1502138E2,1.970166E1,5.279279E1,2.1313908E1,1.8932266E1,0E0,1.5791207E1,0E0,0E0,0E0,0E0,0E0,0E0],"parents":[2147483647,0,0,1,1,2,2,3,3,4,4,6,6],"right_children":[2,4,6,8,10,-1,12,-1,-1,-1,-1,-1,-1],"split_conditions":[5E-1,1.3E1,2.5E0,2.5E0,2.626875E1,1.6367512E-2,2.335E1,1.4479296E-2,-1.3278138E-2,-1.4738E-2,-5.9471284E-3,3.2432773E-3,-1.2767538E-2],"split_indices":[6,2,1,3,5,0,5,0,0,0,0,0,0],"split_type":[0,0,0,0,0,0,0,0,0,0,0,0,0],"sum_hessian":[2.2226405E2,1.4393233E2,7.833172E1,9.230048E0,1.3470229E2,4.2350193E1,3.5981525E1,5.2387366E0,3.991311E0,9.9721146E1,3.4981136E1,2.9245926E1,6.7356E0],"tree_param":{"num_deleted":"0","num_feature":"7","num_nodes":"13","size_leaf_vector":"0"}},{"base_weights":[-4.2845207E-1,-1.1445978E0,8.85253E-1,5.4182255E-1,-1.2211348E0,1.6224144E0,-2.0484729E-3,1.4887105E0,-1.0077204E0,-4.994098E-1,-1.4152601E0,3.2120448E-1,-1.2663351E0],"categories":[],"categories_nodes":[],"categories_segments":[],"categories_sizes":[],"default_left":[true,false,true,true,true,false,true,false,false,false,false,false,false],"id":8,"left_children":[1,3,5,7,9,-1,11,-1,-1,-1,-1,-1,-1],"loss_changes":[2.1092584E2,1.9356415E1,5.1860638E1,1.1742535E1,1.8747818E1,0E0,1.5518301E1,0E0,0E0,0E0,0E0,0E0,0E0],"parents":[2147483647,0,0,1,1,2,2,3,3,4,4,6,6],"right_children":[2,4,6,8,10,-1,12,-1,-1,-1,-1,-1,-1],"split_conditions":[5E-1,6.5E0,2.5E0,2.5E0,1.5E0,1.6224144E-2,2.335E1,1.4887105E-2,-1.0077204E-2,-4.9940976E-3,-1.41526E-2,3.2120447E-3,-1.2663351E-2],"split_indices":[6,2,1,3,1,0,5,0,0,0,0,0,0],"split_type":[0,0,0,0,0,0,0,0,0,0,0,0,0],"sum_hessian":[2.2212036E2,1.4383804E2,7.828232E1,5.9806614E0,1.3785738E2,4.2306236E1,3.5976086E1,3.736584E0,2.2440772E0,2.9977762E1,1.07879616E2,2.924473E1,6.731355E0],"tree_param":{"num_deleted":"0","num_feature":"7","num_nodes":"13","size_leaf_vector":"0"}},{"base_weights":[-4.2450088E-1,-1.1340505E0,8.771008E-1,2.3424067E-1,-1.2288511E0,1.608397E0,-2.2847892E-3,1.4314259E0,-1.3091199E0,-1.4479104E0,-5.8230984E-1,3.1811264E-1,-1.2560848E0],"categories":[],"categories_nodes":[],"categories_segments":[],"categories_sizes":[],"default_left":[true,false,true,true,true,false,true,false,false,false,false,false,false],"id":9,"left_children":[1,3,5,7,9,-1,11,-1,-1,-1,-1,-1,-1],"loss_changes":[2.0691292E2,1.9062332E1,5.0953968E1,2.075371E1,1.8350449E1,0E0,1.5250957E1,0E0,0E0,0E0,0E0,0E0,0E0],"parents":[2147483647,0,0,1,1,2,2,3,3,4,4,6,6],"right_children":[2,4,6,8,10,-1,12,-1,-1,-1,-1,-1,-1],"split_conditions":[5E-1,1.3E1,2.5E0,2.5E0,2.626875E1,1.6083969E-2,2.335E1,1.4314259E-2,-1.3091199E-2,-1.44791035E-2,-5.823098E-3,3.1811264E-3,-1.2560848E-2],"split_indices":[6,2,1,3,5,0,5,0,0,0,0,0,0],"split_type":[0,0,0,0,0,0,0,0,0,0,0,0,0],"sum_hessian":[2.2196361E2,1.4373647E2,7.822715E1,9.218065E0,1.345184E2,4.225715E1,3.597E1,5.2320724E0,3.9859934E0,9.954976E1,3.496864E1,2.9243395E1,6.726608E0],"tree_param":{"num_deleted":"0","num_feature":"7","num_nodes":"13","size_leaf_vector":"0"}},{"base_weights":[-4.2064598E-1,-1.1237454E0,8.6908597E-1,2.3219262E-1,-1.2176892E0,1.5946875E0,-2.516906E-3,1.4204148E0,-1.2995062E0,-1.4350357E0,-5.767497E-1,3.1505218E-1,-1.2459983E0],"categories":[],"categories_nodes":[],"categories_segments":[],"categories_sizes":[],"default_left":[true,false,true,true,true,false,true,false,false,false,false,false,false],"id":10,"left_children":[1,3,5,7,9,-1,11,-1,-1,-1,-1,-1,-1],"loss_changes":[2.030022E2,1.8704803E1,5.0071712E1,2.0428785E1,1.8035797E1,0E0,1.4989036E1,0E0,0E0,0E0,0E0,0E0,0E0],"parents":[2147483647,0,0,1,1,2,2,3,3,4,4,6,6],"right_children":[2,4,6,8,10,-1,12,-1,-1,-1,-1,-1,-1],"split_conditions":[5E-1,1.3E1,2.5E0,2.5E0,2.626875E1,1.5946874E-2,2.335E1,1.4204147E-2,-1.2995061E-2,-1.43503565E-2,-5.767497E-3,3.1505218E-3,-1.2459982E-2],"split_indices":[6,2,1,3,5,0,5,0,0,0,0,0,0],"split_type":[0,0,0,0,0,0,0,0,0,0,0,0,0],"sum_hessian":[2.2178712E2,1.4362074E2,7.816638E1,9.210419E0,1.3441031E2,4.220309E1,3.596329E1,5.2276783E0,3.982741E0,9.944795E1,3.4962368E1,2.924192E1,6.721372E0],"tree_param":{"num_deleted":"0","num_feature":"7","num_nodes":"13","size_leaf_vector":"0"}},{"base_weights":[-4.1685623E-1,-1.1136163E0,8.6120445E-1,5.314787E-1,-1.1882815E0,1.5812753E0,-2.7449522E-3,1.4580387E0,-9.8421377E-1,-4.8257995E-1,-1.3785747E0,3.1202254E-1,-1.2360708E0],"categories":[],"categories_nodes":[],"categories_segments":[],"categories_sizes":[],"default_left":[true,false,true,true,true,false,true,false,false,false,false,false,false],"id":11,"left_children":[1,3,5,7,9,-1,11,-1,-1,-1,-1,-1,-1],"loss_changes":[1.9918E2,1.8380005E1,4.9212944E1,1.1215596E1,1.7937958E1,0E0,1.4732394E1,0E0,0E0,0E0,0E0,0E0,0E0],"parents":[2147483647,0,0,1,1,2,2,3,3,4,4,6,6],"right_children":[2,4,6,8,10,-1,12,-1,-1,-1,-1,-1,-1],"split_conditions":[5E-1,6.5E0,2.5E0,2.5E0,1.5E0,1.5812753E-2,2.335E1,1.4580387E-2,-9.842138E-3,-4.8257993E-3,-1.3785747E-2,3.1202254E-3,-1.2360707E-2],"split_indices":[6,2,1,3,1,0,5,0,0,0,0,0,0],"split_type":[0,0,0,0,0,0,0,0,0,0,0,0,0],"sum_hessian":[2.2159467E2,1.4349448E2,7.810019E1,5.9643364E0,1.3753014E2,4.2144215E1,3.595598E1,3.7251487E0,2.2391877E0,2.9959902E1,1.0757024E2,2.9240316E1,6.7156606E0],"tree_param":{"num_deleted":"0","num_feature":"7","num_nodes":"13","size_leaf_vector":"0"}},{"base_weights":[-4.1309878E-1,-1.1035867E0,8.5345215E-1,2.3134357E-1,-1.1961037E0,1.56815E0,-2.96925E-3,1.404737E0,-1.2817011E0,-1.410599E0,-5.647848E-1,3.090231E-1,-1.2262983E0],"categories":[],"categories_nodes":[],"categories_segments":[],"categories_sizes":[],"default_left":[true,false,true,true,true,false,true,false,false,false,false,false,false],"id":12,"left_children":[1,3,5,7,9,-1,11,-1,-1,-1,-1,-1,-1],"loss_changes":[1.9543182E2,1.810608E1,4.8376778E1,1.9899769E1,1.7507126E1,0E0,1.4480902E1,0E0,0E0,0E0,0E0,0E0,0E0],"parents":[2147483647,0,0,1,1,2,2,3,3,4,4,6,6],"right_children":[2,4,6,8,10,-1,12,-1,-1,-1,-1,-1,-1],"split_conditions":[5E-1,1.3E1,2.5E0,2.5E0,2.626875E1,1.56815E-2,2.335E1,1.4047369E-2,-1.281701E-2,-1.410599E-2,-5.647848E-3,3.090231E-3,-1.2262983E-2],"split_indices":[6,2,1,3,5,0,5,0,0,0,0,0,0],"split_type":[0,0,0,0,0,0,0,0,0,0,0,0,0],"sum_hessian":[2.2139166E2,1.4336292E2,7.8028755E1,9.19452E0,1.341684E2,4.2080677E1,3.5948074E1,5.2188163E0,3.9757035E0,9.9222466E1,3.4945927E1,2.9238588E1,6.709487E0],"tree_param":{"num_deleted":"0","num_feature":"7","num_nodes":"13","size_leaf_vector":"0"}},{"base_weights":[-4.0943295E-1,-1.0937898E0,8.4582525E-1,2.293705E-1,-1.1854889E0,1.5553015E0,-3.1895544E-3,1.3942063E0,-1.2725205E0,-4.9134684E-1,-1.3765248E0,3.0605394E-1,-1.216676E0],"categories":[],"categories_nodes":[],"categories_segments":[],"categories_sizes":[],"default_left":[true,false,true,true,true,false,true,false,false,false,false,false,false],"id":13,"left_children":[1,3,5,7,9,-1,11,-1,-1,-1,-1,-1,-1],"loss_changes":[1.9177853E2,1.7770157E1,4.7562294E1,1.9592041E1,1.7229736E1,0E0,1.4234426E1,0E0,0E0,0E0,0E0,0E0,0E0],"parents":[2147483647,0,0,1,1,2,2,3,3,4,4,6,6],"right_children":[2,4,6,8,10,-1,12,-1,-1,-1,-1,-1,-1],"split_conditions":[5E-1,1.3E1,2.5E0,2.5E0,1.5E0,1.5553015E-2,2.335E1,1.3942063E-2,-1.2725205E-2,-4.9134684E-3,-1.3765248E-2,3.0605393E-3,-1.216676E-2],"split_indices":[6,2,1,3,1,0,5,0,0,0,0,0,0],"split_type":[0,0,0,0,0,0,0,0,0,0,0,0,0],"sum_hessian":[2.2116937E2,1.4321715E2,7.7952225E1,9.184812E0,1.3403233E2,4.2012627E1,3.5939598E1,5.213234E0,3.9715774E0,2.9697262E1,1.0433507E2,2.9236732E1,6.7028656E0],"tree_param":{"num_deleted":"0","num_feature":"7","num_nodes":"13","size_leaf_vector":"0"}},{"base_weights":[-4.058209E-1,-1.0841402E0,8.3832014E-1,5.2166647E-1,-1.1570189E0,1.5427207E0,-3.4059633E-3,1.4289429E0,-9.616206E-1,-4.6762365E-1,-1.3434969E0,3.0311462E-1,-1.2072003E0],"categories":[],"categories_nodes":[],"categories_segments":[],"categories_sizes":[],"default_left":[true,false,true,true,true,false,true,false,false,false,false,false,false],"id":14,"left_children":[1,3,5,7,9,-1,11,-1,-1,-1,-1,-1,-1],"loss_changes":[1.8820407E2,1.7463104E1,4.67687E1,1.071846E1,1.712793E1,0E0,1.3992847E1,0E0,0E0,0E0,0E0,0E0,0E0],"parents":[2147483647,0,0,1,1,2,2,3,3,4,4,6,6],"right_children":[2,4,6,8,10,-1,12,-1,-1,-1,-1,-1,-1],"split_conditions":[5E-1,6.5E0,2.5E0,2.5E0,1.5E0,1.5427207E-2,2.335E1,1.42894285E-2,-9.616206E-3,-4.6762363E-3,-1.3434969E-2,3.0311462E-3,-1.20720025E-2],"split_indices":[6,2,1,3,1,0,5,0,0,0,0,0,0],"split_type":[0,0,0,0,0,0,0,0,0,0,0,0,0],"sum_hessian":[2.2093352E2,1.4306274E2,7.787077E1,5.9435997E0,1.3711914E2,4.1940205E1,3.593057E1,3.7105932E0,2.2330067E0,2.994018E1,1.0717896E2,2.9234758E1,6.695808E0],"tree_param":{"num_deleted":"0","num_feature":"7","num_nodes":"13","size_leaf_vector":"0"}},{"base_weights":[-4.022406E-1,-1.0745845E0,8.309332E-1,2.285878E-1,-1.1649264E0,1.5303981E0,-3.6186953E-3,1.3792939E0,-1.2555372E0,-1.3756917E0,-5.466722E-1,3.0020472E-1,-1.197867E0],"categories":[],"categories_nodes":[],"categories_segments":[],"categories_sizes":[],"default_left":[true,false,true,true,true,false,true,false,false,false,false,false,false],"id":15,"left_children":[1,3,5,7,9,-1,11,-1,-1,-1,-1,-1,-1],"loss_changes":[1.8469841E2,1.7208237E1,4.5995213E1,1.9091948E1,1.6805237E1,0E0,1.3756042E1,0E0,0E0,0E0,0E0,0E0,0E0],"parents":[2147483647,0,0,1,1,2,2,3,3,4,4,6,6],"right_children":[2,4,6,8,10,-1,12,-1,-1,-1,-1,-1,-1],"split_conditions":[5E-1,1.3E1,2.5E0,2.5E0,2.626875E1,1.5303981E-2,2.335E1,1.3792939E-2,-1.2555371E-2,-1.3756916E-2,-5.466722E-3,3.002047E-3,-1.197867E-2],"split_indices":[6,2,1,3,5,0,5,0,0,0,0,0,0],"split_type":[0,0,0,0,0,0,0,0,0,0,0,0,0],"sum_hessian":[2.2068831E2,1.4290375E2,7.778455E1,9.165286E0,1.3373846E2,4.1863556E1,3.5920998E1,5.20233E0,3.962956E0,9.8823906E1,3.4914562E1,2.9232668E1,6.6883283E0],"tree_param":{"num_deleted":"0","num_feature":"7","num_nodes":"13","size_leaf_vector":"0"}},{"base_weights":[-3.9874738E-1,-1.0652508E0,8.236609E-1,2.2668432E-1,-1.15481E0,1.5183252E0,-3.8279488E-3,1.3692088E0,-1.2467571E0,-1.3641578E0,-5.415006E-1,2.973236E-1,-1.1886725E0],"categories":[],"categories_nodes":[],"categories_segments":[],"categories_sizes":[],"default_left":[true,false,true,true,true,false,true,false,false,false,false,false,false],"id":16,"left_children":[1,3,5,7,9,-1,11,-1,-1,-1,-1,-1,-1],"loss_changes":[1.8128073E2,1.689212E1,4.524109E1,1.8800186E1,1.654036E1,0E0,1.3523889E1,0E0,0E0,0E0,0E0,0E0,0E0],"parents":[2147483647,0,0,1,1,2,2,3,3,4,4,6,6],"right_children":[2,4,6,8,10,-1,12,-1,-1,-1,-1,-1,-1],"split_conditions":[5E-1,1.3E1,2.5E0,2.5E0,2.626875E1,1.5183251E-2,2.335E1,1.36920875E-2,-1.24675715E-2,-1.3641577E-2,-5.415006E-3,2.9732361E-3,-1.1886725E-2],"split_indices":[6,2,1,3,5,0,5,0,0,0,0,0,0],"split_type":[0,0,0,0,0,0,0,0,0,0,0,0,0],"sum_hessian":[2.2042459E2,1.4273087E2,7.7693726E1,9.153664E0,1.3357721E2,4.178282E1,3.5910904E1,5.195641E0,3.9580228E0,9.867208E1,3.4905125E1,2.9230467E1,6.680437E0],"tree_param":{"num_deleted":"0","num_feature":"7","num_nodes":"13","size_leaf_vector":"0"}},{"base_weights":[-3.9530864E-1,-1.056064E0,8.165002E-1,5.1234686E-1,-1.1272359E0,1.5064939E0,-4.033573E-3,1.4013022E0,-9.398777E-1,-4.519359E-1,-1.3105811E0,2.9447132E-1,-1.1796131E0],"categories":[],"categories_nodes":[],"categories_segments":[],"categories_sizes":[],"default_left":[true,false,true,true,true,false,true,false,false,false,false,false,false],"id":17,"left_children":[1,3,5,7,9,-1,11,-1,-1,-1,-1,-1,-1],"loss_changes":[1.7793729E2,1.660147E1,4.4505615E1,1.0248939E1,1.644815E1,0E0,1.3296278E1,0E0,0E0,0E0,0E0,0E0,0E0],"parents":[2147483647,0,0,1,1,2,2,3,3,4,4,6,6],"right_children":[2,4,6,8,10,-1,12,-1,-1,-1,-1,-1,-1],"split_conditions":[5E-1,6.5E0,2.5E0,2.5E0,1.5E0,1.5064939E-2,2.335E1,1.4013022E-2,-9.398777E-3,-4.5193587E-3,-1.3105811E-2,2.9447132E-3,-1.1796131E-2],"split_indices":[6,2,1,3,1,0,5,0,0,0,0,0,0],"split_type":[0,0,0,0,0,0,0,0,0,0,0,0,0],"sum_hessian":[2.2014774E2,1.425493E2,7.7598434E1,5.918778E0,1.3663052E2,4.1698128E1,3.5900303E1,3.693145E0,2.225633E0,2.9914375E1,1.0671615E2,2.9228157E1,6.6721473E0],"tree_param":{"num_deleted":"0","num_feature":"7","num_nodes":"13","size_leaf_vector":"0"}},{"base_weights":[-3.9189032E-1,-1.0469408E0,8.0944765E-1,2.2596347E-1,-1.1352084E0,1.494896E0,-4.2358143E-3,1.3550068E0,-1.2305325E0,-1.3422253E0,-5.303537E-1,2.916473E-1,-1.170685E0],"categories":[],"categories_nodes":[],"categories_segments":[],"categories_sizes":[],"default_left":[true,false,true,true,true,false,true,false,false,false,false,false,false],"id":18,"left_children":[1,3,5,7,9,-1,11,-1,-1,-1,-1,-1,-1],"loss_changes":[1.7465387E2,1.6364532E1,4.378812E1,1.832693E1,1.6096375E1,0E0,1.3073097E1,0E0,0E0,0E0,0E0,0E0,0E0],"parents":[2147483647,0,0,1,1,2,2,3,3,4,4,6,6],"right_children":[2,4,6,8,10,-1,12,-1,-1,-1,-1,-1,-1],"split_conditions":[5E-1,1.3E1,2.5E0,2.5E0,2.626875E1,1.494896E-2,2.335E1,1.3550068E-2,-1.2305325E-2,-1.3422253E-2,-5.303537E-3,2.9164727E-3,-1.17068505E-2],"split_indices":[6,2,1,3,5,0,5,0,0,0,0,0,0],"split_type":[0,0,0,0,0,0,0,0,0,0,0,0,0],"sum_hessian":[2.1986447E2,1.4236563E2,7.7498825E1,9.130791E0,1.3323485E2,4.1609615E1,3.588921E1,5.1828446E0,3.9479456E0,9.8353424E1,3.4881424E1,2.922574E1,6.663471E0],"tree_param":{"num_deleted":"0","num_feature":"7","num_nodes":"13","size_leaf_vector":"0"}},{"base_weights":[-3.8855532E-1,-1.0380323E0,8.0250067E-1,2.2412464E-1,-1.1255493E0,1.4835243E0,-4.434481E-3,1.3453357E0,-1.2221235E0,-1.3312744E0,-5.253559E-1,2.8885144E-1,-1.161885E0],"categories":[],"categories_nodes":[],"categories_segments":[],"categories_sizes":[],"default_left":[true,false,true,true,true,false,true,false,false,false,false,false,false],"id":19,"left_children":[1,3,5,7,9,-1,11,-1,-1,-1,-1,-1,-1],"loss_changes":[1.7145258E2,1.606662E1,4.3087948E1,1.8050028E1,1.5852493E1,0E0,1.2854242E1,0E0,0E0,0E0,0E0,0E0,0E0],"parents":[2147483647,0,0,1,1,2,2,3,3,4,4,6,6],"right_children":[2,4,6,8,10,-1,12,-1,-1,-1,-1,-1,-1],"split_conditions":[5E-1,1.3E1,2.5E0,2.5E0,2.626875E1,1.4835243E-2,2.335E1,1.3453357E-2,-1.2221235E-2,-1.3312744E-2,-5.2535585E-3,2.8885144E-3,-1.161885E-2],"split_indices":[6,2,1,3,5,0,5,0,0,0,0,0,0],"split_type":[0,0,0,0,0,0,0,0,0,0,0,0,0],"sum_hessian":[2.195631E2,1.4216805E2,7.739506E1,9.117396E0,1.3305064E2,4.1517414E1,3.5877644E1,5.175128E0,3.9422684E0,9.8179955E1,3.4870693E1,2.9223225E1,6.65442E0],"tree_param":{"num_deleted":"0","num_feature":"7","num_nodes":"13","size_leaf_vector":"0"}},{"base_weights":[-3.8527024E-1,-1.0292584E0,7.956561E-1,5.034849E-1,-1.0987954E0,1.4723712E0,-4.6296106E-3,1.3750072E0,-9.189275E-1,-4.3677732E-1,-1.279298E0,2.8608355E-1,-1.1532094E0],"categories":[],"categories_nodes":[],"categories_segments":[],"categories_sizes":[],"default_left":[true,false,true,true,true,false,true,false,false,false,false,false,false],"id":20,"left_children":[1,3,5,7,9,-1,11,-1,-1,-1,-1,-1,-1],"loss_changes":[1.6831949E2,1.5790543E1,4.2404488E1,9.80504E0,1.5820831E1,0E0,1.263961E1,0E0,0E0,0E0,0E0,0E0,0E0],"parents":[2147483647,0,0,1,1,2,2,3,3,4,4,6,6],"right_children":[2,4,6,8,10,-1,12,-1,-1,-1,-1,-1,-1],"split_conditions":[5E-1,6.5E0,2.5E0,2.5E0,1.5E0,1.4723712E-2,2.335E1,1.3750072E-2,-9.189275E-3,-4.367773E-3,-1.2792979E-2,2.8608355E-3,-1.1532094E-2],"split_indices":[6,2,1,3,1,0,5,0,0,0,0,0,0],"split_type":[0,0,0,0,0,0,0,0,0,0,0,0,0],"sum_hessian":[2.1924985E2,1.4196259E2,7.7287254E1,5.89018E0,1.360724E2,4.1421642E1,3.5865616E1,3.673021E0,2.2171588E0,2.9884953E1,1.0618746E2,2.922061E1,6.645005E0],"tree_param":{"num_deleted":"0","num_feature":"7","num_nodes":"13","size_leaf_vector":"0"}},{"base_weights":[-3.8200054E-1,-1.0205325E0,7.889109E-1,2.2346112E-1,-1.1068164E0,1.4614297E0,-4.8216456E-3,1.331794E0,-1.2066022E0,-1.31043E0,-5.145816E-1,2.833428E-1,-1.1446556E0],"categories":[],"categories_nodes":[],"categories_segments":[],"categories_sizes":[],"default_left":[true,false,true,true,true,false,true,false,false,false,false,false,false],"id":21,"left_children":[1,3,5,7,9,-1,11,-1,-1,-1,-1,-1,-1],"loss_changes":[1.6524057E2,1.5570343E1,4.173716E1,1.7601736E1,1.5443985E1,0E0,1.2429098E1,0E0,0E0,0E0,0E0,0E0,0E0],"parents":[2147483647,0,0,1,1,2,2,3,3,4,4,6,6],"right_children":[2,4,6,8,10,-1,12,-1,-1,-1,-1,-1,-1],"split_conditions":[5E-1,1.3E1,2.5E0,2.5E0,2.626875E1,1.4614297E-2,2.335E1,1.331794E-2,-1.2066022E-2,-1.31043E-2,-5.145816E-3,2.833428E-3,-1.1446555E-2],"split_indices":[6,2,1,3,5,0,5,0,0,0,0,0,0],"split_type":[0,0,0,0,0,0,0,0,0,0,0,0,0],"sum_hessian":[2.1893217E2,1.417566E2,7.717557E1,9.091437E0,1.3266518E2,4.132243E1,3.5853138E1,5.1605816E0,3.9308558E0,9.782106E1,3.4844112E1,2.92179E1,6.635237E0],"tree_param":{"num_deleted":"0","num_feature":"7","num_nodes":"13","size_leaf_vector":"0"}},{"base_weights":[-3.7881073E-1,-1.0120142E0,7.8226274E-1,2.216828E-1,-1.0975767E0,1.450693E0,-5.010206E-3,1.3225085E0,-1.1985373E0,-4.4569552E-1,-1.2792066E0,2.8062946E-1,-1.1362201E0],"categories":[],"categories_nodes":[],"categories_segments":[],"categories_sizes":[],"default_left":[true,false,true,true,true,false,true,false,false,false,false,false,false],"id":22,"left_children":[1,3,5,7,9,-1,11,-1,-1,-1,-1,-1,-1],"loss_changes":[1.6223828E2,1.5289261E1,4.1085396E1,1.7338676E1,1.5231705E1,0E0,1.2222611E1,0E0,0E0,0E0,0E0,0E0,0E0],"parents":[2147483647,0,0,1,1,2,2,3,3,4,4,6,6],"right_children":[2,4,6,8,10,-1,12,-1,-1,-1,-1,-1,-1],"split_conditions":[5E-1,1.3E1,2.5E0,2.5E0,1.5E0,1.450693E-2,2.335E1,1.3225084E-2,-1.1985374E-2,-4.456955E-3,-1.2792066E-2,2.8062945E-3,-1.1362201E-2],"split_indices":[6,2,1,3,1,0,5,0,0,0,0,0,0],"split_type":[0,0,0,0,0,0,0,0,0,0,0,0,0],"sum_hessian":[2.1859682E2,1.415367E2,7.706011E1,9.076406E0,1.324603E2,4.121989E1,3.5840225E1,5.1519117E0,3.9244936E0,2.9616964E1,1.0284332E2,2.9215097E1,6.625128E0],"tree_param":{"num_deleted":"0","num_feature":"7","num_nodes":"13","size_leaf_vector":"0"}},{"base_weights":[-3.756615E-1,-1.0036068E0,7.757086E-1,4.9504882E-1,-1.0715742E0,1.4401547E0,-5.195762E-3,1.3499583E0,-8.987172E-1,-4.233175E-1,-1.2491691E0,2.779427E-1,-1.1279001E0],"categories":[],"categories_nodes":[],"categories_segments":[],"categories_sizes":[],"default_left":[true,false,true,true,true,false,true,false,false,false,false,false,false],"id":23,"left_children":[1,3,5,7,9,-1,11,-1,-1,-1,-1,-1,-1],"loss_changes":[1.5929694E2,1.5026215E1,4.0448658E1,9.38496E0,1.5180588E1,0E0,1.2020054E1,0E0,0E0,0E0,0E0,0E0,0E0],"parents":[2147483647,0,0,1,1,2,2,3,3,4,4,6,6],"right_children":[2,4,6,8,10,-1,12,-1,-1,-1,-1,-1,-1],"split_conditions":[5E-1,6.5E0,2.5E0,2.5E0,1.5E0,1.4401547E-2,2.335E1,1.3499583E-2,-8.9871725E-3,-4.233175E-3,-1.2491691E-2,2.7794268E-3,-1.1279001E-2],"split_indices":[6,2,1,3,1,0,5,0,0,0,0,0,0],"split_type":[0,0,0,0,0,0,0,0,0,0,0,0,0],"sum_hessian":[2.1825171E2,1.4131067E2,7.694104E1,5.8581014E0,1.3545258E2,4.1114143E1,3.5826897E1,3.650429E0,2.2076724E0,2.985597E1,1.055966E2,2.921221E1,6.6146874E0],"tree_param":{"num_deleted":"0","num_feature":"7","num_nodes":"13","size_leaf_vector":"0"}},{"base_weights":[-3.7252852E-1,-9.95247E-1,7.692464E-1,2.2107117E-1,-1.0796285E0,1.4298089E0,-5.378121E-3,1.3095801E0,-1.1836697E0,-1.2804977E0,-4.98231E-1,4.6742773E-1,1.4468004E0,2.7528253E-1,-1.1196924E0],"categories":[],"categories_nodes":[],"categories_segments":[],"categories_sizes":[],"default_left":[true,false,true,true,true,false,true,false,false,false,false,false,false,false,false],"id":24,"left_children":[1,3,5,7,9,11,13,-1,-1,-1,-1,-1,-1,-1,-1],"loss_changes":[1.5640656E2,1.4821487E1,3.982646E1,1.6913645E1,1.4898712E1,1.0604858E-2,1.1821334E1,0E0,0E0,0E0,0E0,0E0,0E0,0E0,0E0],"parents":[2147483647,0,0,1,1,2,2,3,3,4,4,5,5,6,6],"right_children":[2,4,6,8,10,12,14,-1,-1,-1,-1,-1,-1,-1,-1],"split_conditions":[5E-1,1.3E1,2.5E0,2.5E0,2.626875E1,4.5E0,2.335E1,1.3095801E-2,-1.1836696E-2,-1.2804977E-2,-4.98231E-3,4.6742773E-3,1.4468003E-2,2.7528252E-3,-1.1196924E-2],"split_indices":[6,2,1,3,5,2,5,0,0,0,0,0,0,0,0],"split_type":[0,0,0,0,0,0,0,0,0,0,0,0,0,0,0],"sum_hessian":[2.1790297E2,1.410845E2,7.681847E1,9.047613E0,1.320369E2,4.1005306E1,3.5813164E1,5.135752E0,3.9118612E0,9.723898E1,3.479791E1,1.2060385E0,3.9799267E1,2.9209234E1,6.6039276E0],"tree_param":{"num_deleted":"0","num_feature":"7","num_nodes":"15","size_leaf_vector":"0"}},{"base_weights":[-3.6944863E-1,-9.870869E-1,7.629265E-1,2.1934906E-1,-1.0707738E0,1.4197335E0,-5.557304E-3,1.3006535E0,-1.1759248E0,-1.2705572E0,-4.9356794E-1,4.6509752E-1,1.4365736E0,2.7264866E-1,-1.1115946E0],"categories":[],"categories_nodes":[],"categories_segments":[],"categories_sizes":[],"default_left":[true,false,true,true,true,false,true,false,false,false,false,false,false,false,false],"id":25,"left_children":[1,3,5,7,9,11,13,-1,-1,-1,-1,-1,-1,-1,-1],"loss_changes":[1.535982E2,1.4555923E1,3.9223305E1,1.6663506E1,1.4688446E1,5.3634644E-3,1.1626364E1,0E0,0E0,0E0,0E0,0E0,0E0,0E0,0E0],"parents":[2147483647,0,0,1,1,2,2,3,3,4,4,5,5,6,6],"right_children":[2,4,6,8,10,12,14,-1,-1,-1,-1,-1,-1,-1,-1],"split_conditions":[5E-1,1.3E1,2.5E0,2.5E0,2.626875E1,4.5E0,2.335E1,1.3006534E-2,-1.1759248E-2,-1.2705571E-2,-4.9356795E-3,4.650975E-3,1.4365735E-2,2.7264867E-3,-1.1115945E-2],"split_indices":[6,2,1,3,5,2,5,0,0,0,0,0,0,0,0],"split_type":[0,0,0,0,0,0,0,0,0,0,0,0,0,0,0],"sum_hessian":[2.1753806E2,1.4084462E2,7.6693436E1,9.031071E0,1.3181355E2,4.08944E1,3.5799034E1,5.1262007E0,3.90487E0,9.702863E1,3.4784916E1,1.2049754E0,3.9689426E1,2.9206179E1,6.5928564E0],"tree_param":{"num_deleted":"0","num_feature":"7","num_nodes":"15","size_leaf_vector":"0"}},{"base_weights":[-3.6641136E-1,-9.7904116E-1,7.566932E-1,4.870096E-1,-1.0455005E0,1.4098384E0,-5.733596E-3,1.3260654E0,-8.7919873E-1,-4.091454E-1,-1.2207406E0,4.6278137E-1,1.4265324E0,2.700406E-1,-1.1036036E0],"categories":[],"categories_nodes":[],"categories_segments":[],"categories_sizes":[],"default_left":[true,false,true,true,true,false,true,false,false,false,false,false,false,false,false],"id":26,"left_children":[1,3,5,7,9,11,13,-1,-1,-1,-1,-1,-1,-1,-1],"loss_changes":[1.5084764E2,1.4305511E1,3.8633633E1,8.98705E0,1.4641525E1,3.8146973E-4,1.1435058E1,0E0,0E0,0E0,0E0,0E0,0E0,0E0,0E0],"parents":[2147483647,0,0,1,1,2,2,3,3,4,4,5,5,6,6],"right_children":[2,4,6,8,10,12,14,-1,-1,-1,-1,-1,-1,-1,-1],"split_conditions":[5E-1,6.5E0,2.5E0,2.5E0,1.5E0,4.5E0,2.335E1,1.3260654E-2,-8.791987E-3,-4.091454E-3,-1.2207406E-2,4.6278136E-3,1.4265324E-2,2.700406E-3,-1.1036036E-2],"split_indices":[6,2,1,3,1,2,5,0,0,0,0,0,0,0,0],"split_type":[0,0,0,0,0,0,0,0,0,0,0,0,0,0,0],"sum_hessian":[2.1716351E2,1.4059836E2,7.6565155E1,5.8228245E0,1.3477553E2,4.0780624E1,3.5784527E1,3.6255674E0,2.1972568E0,2.9820835E1,1.049547E2,1.2039059E0,3.957672E1,2.9203043E1,6.581486E0],"tree_param":{"num_deleted":"0","num_feature":"7","num_nodes":"15","size_leaf_vector":"0"}},{"base_weights":[-3.6338124E-1,-9.710179E-1,7.505438E-1,2.1878634E-1,-1.0535738E0,1.4001175E0,-5.9069553E-3,1.2882967E0,-1.1616637E0,-1.2516093E0,-4.8349288E-1,2.674581E-1,-1.095717E0],"categories":[],"categories_nodes":[],"categories_segments":[],"categories_sizes":[],"default_left":[true,false,true,true,true,false,true,false,false,false,false,false,false],"id":27,"left_children":[1,3,5,7,9,-1,11,-1,-1,-1,-1,-1,-1],"loss_changes":[1.481411E2,1.4115067E1,3.8056923E1,1.6260153E1,1.4337173E1,0E0,1.1247327E1,0E0,0E0,0E0,0E0,0E0,0E0],"parents":[2147483647,0,0,1,1,2,2,3,3,4,4,6,6],"right_children":[2,4,6,8,10,-1,12,-1,-1,-1,-1,-1,-1],"split_conditions":[5E-1,1.3E1,2.5E0,2.5E0,2.626875E1,1.4001175E-2,2.335E1,1.2882967E-2,-1.1616636E-2,-1.25160925E-2,-4.8349285E-3,2.674581E-3,-1.0957169E-2],"split_indices":[6,2,1,3,5,0,5,0,0,0,0,0,0],"split_type":[0,0,0,0,0,0,0,0,0,0,0,0,0],"sum_hessian":[2.1678793E2,1.403542E2,7.643373E1,8.999681E0,1.3135452E2,4.0664078E1,3.5769653E1,5.1085577E0,3.8911238E0,9.660147E1,3.4753044E1,2.919983E1,6.5698247E0],"tree_param":{"num_deleted":"0","num_feature":"7","num_nodes":"13","size_leaf_vector":"0"}},{"base_weights":[-3.604488E-1,-9.6318907E-1,7.444227E-1,2.1711665E-1,-1.045075E0,1.390479E0,-6.077497E-3,1.2797048E0,-1.1542168E0,-1.2421131E0,-4.789805E-1,4.5352894E-1,1.4070945E0,2.6490086E-1,-1.0879323E0],"categories":[],"categories_nodes":[],"categories_segments":[],"categories_sizes":[],"default_left":[true,false,true,true,true,false,true,false,false,false,false,false,false,false,false],"id":28,"left_children":[1,3,5,7,9,11,13,-1,-1,-1,-1,-1,-1,-1,-1],"loss_changes":[1.4549115E2,1.3863937E1,3.7487793E1,1.602209E1,1.4141388E1,8.598328E-3,1.1063093E1,0E0,0E0,0E0,0E0,0E0,0E0,0E0,0E0],"parents":[2147483647,0,0,1,1,2,2,3,3,4,4,5,5,6,6],"right_children":[2,4,6,8,10,12,14,-1,-1,-1,-1,-1,-1,-1,-1],"split_conditions":[5E-1,1.3E1,2.5E0,2.5E0,2.626875E1,4.5E0,2.335E1,1.2797047E-2,-1.15421675E-2,-1.2421131E-2,-4.789805E-3,4.5352895E-3,1.4070945E-2,2.6490085E-3,-1.0879323E-2],"split_indices":[6,2,1,3,5,2,5,0,0,0,0,0,0,0,0],"split_type":[0,0,0,0,0,0,0,0,0,0,0,0,0,0,0],"sum_hessian":[2.1639473E2,1.4009627E2,7.6298454E1,8.9817505E0,1.3111452E2,4.054403E1,3.5754425E1,5.098193E0,3.883557E0,9.637538E1,3.4739143E1,1.1995068E0,3.934452E1,2.9196543E1,6.557883E0],"tree_param":{"num_deleted":"0","num_feature":"7","num_nodes":"15","size_leaf_vector":"0"}},{"base_weights":[-3.575324E-1,-9.554656E-1,7.384348E-1,4.7934067E-1,-1.0204732E0,1.38109E0,-6.244768E-3,1.303246E0,-8.603281E-1,-3.9543283E-1,-1.1935623E0,4.5128214E-1,1.3975729E0,2.623691E-1,-1.0802467E0],"categories":[],"categories_nodes":[],"categories_segments":[],"categories_sizes":[],"default_left":[true,false,true,true,true,false,true,false,false,false,false,false,false,false,false],"id":29,"left_children":[1,3,5,7,9,11,13,-1,-1,-1,-1,-1,-1,-1,-1],"loss_changes":[1.4290488E2,1.3625076E1,3.69358E1,8.609808E0,1.413855E1,4.135132E-3,1.0882281E1,0E0,0E0,0E0,0E0,0E0,0E0,0E0,0E0],"parents":[2147483647,0,0,1,1,2,2,3,3,4,4,5,5,6,6],"right_children":[2,4,6,8,10,12,14,-1,-1,-1,-1,-1,-1,-1,-1],"split_conditions":[5E-1,6.5E0,2.5E0,2.5E0,1.5E0,4.5E0,2.335E1,1.303246E-2,-8.60328E-3,-3.954328E-3,-1.1935622E-2,4.5128213E-3,1.3975728E-2,2.623691E-3,-1.0802466E-2],"split_indices":[6,2,1,3,1,2,5,0,0,0,0,0,0,0,0],"split_type":[0,0,0,0,0,0,0,0,0,0,0,0,0,0,0],"sum_hessian":[2.1599379E2,1.3983266E2,7.6161125E1,5.7846155E0,1.3404805E2,4.042227E1,3.5738853E1,3.598625E0,2.1859908E0,2.9783108E1,1.0426494E2,1.198408E0,3.922386E1,2.9193186E1,6.545669E0],"tree_param":{"num_deleted":"0","num_feature":"7","num_nodes":"15","size_leaf_vector":"0"}},{"base_weights":[-3.5461926E-1,-9.477533E-1,7.325247E-1,2.1659885E-1,-1.028553E0,1.3718604E0,-6.409365E-3,1.2678806E0,-1.1405203E0,-1.2239975E0,-4.6922672E-1,2.5986204E-1,-1.0726584E0],"categories":[],"categories_nodes":[],"categories_segments":[],"categories_sizes":[],"default_left":[true,false,true,true,true,false,true,false,false,false,false,false,false],"id":30,"left_children":[1,3,5,7,9,-1,11,-1,-1,-1,-1,-1,-1],"loss_changes":[1.4035847E2,1.3447731E1,3.6395588E1,1.5638984E1,1.3814484E1,0E0,1.0704817E1,0E0,0E0,0E0,0E0,0E0,0E0],"parents":[2147483647,0,0,1,1,2,2,3,3,4,4,6,6],"right_children":[2,4,6,8,10,-1,12,-1,-1,-1,-1,-1,-1],"split_conditions":[5E-1,1.3E1,2.5E0,2.5E0,2.626875E1,1.3718603E-2,2.335E1,1.2678806E-2,-1.14052035E-2,-1.2239975E-2,-4.692267E-3,2.5986203E-3,-1.0726584E-2],"split_indices":[6,2,1,3,5,0,5,0,0,0,0,0,0],"split_type":[0,0,0,0,0,0,0,0,0,0,0,0,0],"sum_hessian":[2.1559343E2,1.3957243E2,7.6021E1,8.947988E0,1.3062445E2,4.029805E1,3.5722954E1,5.07919E0,3.8687983E0,9.5919205E1,3.470524E1,2.9189758E1,6.5331936E0],"tree_param":{"num_deleted":"0","num_feature":"7","num_nodes":"13","size_leaf_vector":"0"}},{"base_weights":[-3.5180095E-1,-9.402304E-1,7.2663754E-1,2.1497837E-1,-1.0203828E0,1.362699E0,-6.5713516E-3,1.2596014E0,-1.133351E0,-4.0443492E-1,-1.194877E0,4.4227275E-1,1.3791238E0,2.5737926E-1,-1.0651644E0],"categories":[],"categories_nodes":[],"categories_segments":[],"categories_sizes":[],"default_left":[true,false,true,true,true,false,true,false,false,false,false,false,false,false,false],"id":31,"left_children":[1,3,5,7,9,11,13,-1,-1,-1,-1,-1,-1,-1,-1],"loss_changes":[1.3786511E2,1.3209969E1,3.5861954E1,1.5412219E1,1.3636261E1,1.2458801E-2,1.053061E1,0E0,0E0,0E0,0E0,0E0,0E0,0E0,0E0],"parents":[2147483647,0,0,1,1,2,2,3,3,4,4,5,5,6,6],"right_children":[2,4,6,8,10,12,14,-1,-1,-1,-1,-1,-1,-1,-1],"split_conditions":[5E-1,1.3E1,2.5E0,2.5E0,1.5E0,4.5E0,2.335E1,1.2596013E-2,-1.1333509E-2,-4.0443493E-3,-1.194877E-2,4.4227275E-3,1.3791238E-2,2.5737926E-3,-1.0651644E-2],"split_indices":[6,2,1,3,1,2,5,0,0,0,0,0,0,0,0],"split_type":[0,0,0,0,0,0,0,0,0,0,0,0,0,0,0],"sum_hessian":[2.151758E2,1.3929842E2,7.587738E1,8.928782E0,1.3036963E2,4.0170647E1,3.5706734E1,5.068077E0,3.8607051E0,2.9512188E1,1.00857445E2,1.1938823E0,3.897676E1,2.9186268E1,6.520465E0],"tree_param":{"num_deleted":"0","num_feature":"7","num_nodes":"15","size_leaf_vector":"0"}},{"base_weights":[-3.4899095E-1,-9.327925E-1,7.208768E-1,4.7201803E-1,-9.96399E-1,1.3537728E0,-6.7304573E-3,1.281425E0,-8.420649E-1,-3.8327688E-1,-1.1672192E0,4.4009253E-1,1.3700769E0,2.549209E-1,-1.057763E0],"categories":[],"categories_nodes":[],"categories_segments":[],"categories_sizes":[],"default_left":[true,false,true,true,true,false,true,false,false,false,false,false,false,false,false],"id":32,"left_children":[1,3,5,7,9,11,13,-1,-1,-1,-1,-1,-1,-1,-1],"loss_changes":[1.3542929E2,1.298185E1,3.534417E1,8.25186E0,1.3615906E1,8.43811E-3,1.0359603E1,0E0,0E0,0E0,0E0,0E0,0E0,0E0,0E0],"parents":[2147483647,0,0,1,1,2,2,3,3,4,4,5,5,6,6],"right_children":[2,4,6,8,10,12,14,-1,-1,-1,-1,-1,-1,-1,-1],"split_conditions":[5E-1,6.5E0,2.5E0,2.5E0,1.5E0,4.5E0,2.335E1,1.281425E-2,-8.420649E-3,-3.8327686E-3,-1.1672191E-2,4.4009252E-3,1.3700768E-2,2.549209E-3,-1.0577629E-2],"split_indices":[6,2,1,3,1,2,5,0,0,0,0,0,0,0,0],"split_type":[0,0,0,0,0,0,0,0,0,0,0,0,0,0,0],"sum_hessian":[2.1475235E2,1.3902034E2,7.5731995E1,5.7437277E0,1.3327661E2,4.0041794E1,3.5690205E1,3.5697806E0,2.1739473E0,2.9747639E1,1.0352898E2,1.1927586E0,3.8849033E1,2.9182714E1,6.5074916E0],"tree_param":{"num_deleted":"0","num_feature":"7","num_nodes":"15","size_leaf_vector":"0"}},{"base_weights":[-3.461865E-1,-9.2536896E-1,7.1518826E-1,2.1450137E-1,-1.0044746E0,1.344992E0,-6.886925E-3,1.2482737E0,-1.1201822E0,-1.1978662E0,-4.5438954E-1,4.3792504E-1,1.3611798E0,2.5248653E-1,-1.0504519E0],"categories":[],"categories_nodes":[],"categories_segments":[],"categories_sizes":[],"default_left":[true,false,true,true,true,false,true,false,false,false,false,false,false,false,false],"id":33,"left_children":[1,3,5,7,9,11,13,-1,-1,-1,-1,-1,-1,-1,-1],"loss_changes":[1.3303146E2,1.2816376E1,3.48371E1,1.5048058E1,1.3376068E1,4.6157837E-3,1.0191721E1,0E0,0E0,0E0,0E0,0E0,0E0,0E0,0E0],"parents":[2147483647,0,0,1,1,2,2,3,3,4,4,5,5,6,6],"right_children":[2,4,6,8,10,12,14,-1,-1,-1,-1,-1,-1,-1,-1],"split_conditions":[5E-1,1.3E1,2.5E0,2.5E0,2.626875E1,4.5E0,2.335E1,1.2482737E-2,-1.1201821E-2,-1.1978662E-2,-4.5438954E-3,4.37925E-3,1.3611798E-2,2.5248653E-3,-1.0504519E-2],"split_indices":[6,2,1,3,5,2,5,0,0,0,0,0,0,0,0],"split_type":[0,0,0,0,0,0,0,0,0,0,0,0,0,0,0],"sum_hessian":[2.1432986E2,1.3874573E2,7.558414E1,8.89286E0,1.2985287E2,3.9910755E1,3.567338E1,5.0478306E0,3.84503E0,9.520453E1,3.464834E1,1.1916302E0,3.8719124E1,2.9179098E1,6.4942822E0],"tree_param":{"num_deleted":"0","num_feature":"7","num_nodes":"15","size_leaf_vector":"0"}},{"base_weights":[-3.434515E-1,-9.1812885E-1,7.0956993E-1,2.1292683E-1,-9.96608E-1,1.3363526E0,-7.0407614E-3,1.2402868E0,-1.1132717E0,-1.1891476E0,-4.5016947E-1,4.357704E-1,1.3524278E0,2.5007588E-1,-1.0432287E0],"categories":[],"categories_nodes":[],"categories_segments":[],"categories_sizes":[],"default_left":[true,false,true,true,true,false,true,false,false,false,false,false,false,false,false],"id":34,"left_children":[1,3,5,7,9,11,13,-1,-1,-1,-1,-1,-1,-1,-1],"loss_changes":[1.3069247E2,1.2591057E1,3.434039E1,1.4831879E1,1.3203674E1,9.918213E-4,1.0026893E1,0E0,0E0,0E0,0E0,0E0,0E0,0E0,0E0],"parents":[2147483647,0,0,1,1,2,2,3,3,4,4,5,5,6,6],"right_children":[2,4,6,8,10,12,14,-1,-1,-1,-1,-1,-1,-1,-1],"split_conditions":[5E-1,1.3E1,2.5E0,2.5E0,2.626875E1,4.5E0,2.335E1,1.2402868E-2,-1.1132717E-2,-1.1891476E-2,-4.501695E-3,4.357704E-3,1.3524278E-2,2.5007587E-3,-1.0432287E-2],"split_indices":[6,2,1,3,5,2,5,0,0,0,0,0,0,0,0],"split_type":[0,0,0,0,0,0,0,0,0,0,0,0,0,0,0],"sum_hessian":[2.1389139E2,1.384575E2,7.543388E1,8.87249E0,1.2958502E2,3.977762E1,3.565627E1,5.0360317E0,3.8364582E0,9.4952126E1,3.463289E1,1.1904978E0,3.858712E1,2.9175425E1,6.480846E0],"tree_param":{"num_deleted":"0","num_feature":"7","num_nodes":"15","size_leaf_vector":"0"}},{"base_weights":[-3.407503E-1,-9.109791E-1,7.0402026E-1,4.6501952E-1,-9.7323364E-1,1.3278503E0,-7.191843E-3,1.2605337E0,-8.243725E-1,-3.7042752E-1,-1.1422465E0,2.4768887E-1,-1.0360918E0],"categories":[],"categories_nodes":[],"categories_segments":[],"categories_sizes":[],"default_left":[true,false,true,true,true,false,true,false,false,false,false,false,false],"id":35,"left_children":[1,3,5,7,9,-1,11,-1,-1,-1,-1,-1,-1],"loss_changes":[1.283994E2,1.2373726E1,3.3853718E1,7.91195E0,1.31744995E1,0E0,9.865057E0,0E0,0E0,0E0,0E0,0E0,0E0],"parents":[2147483647,0,0,1,1,2,2,3,3,4,4,6,6],"right_children":[2,4,6,8,10,-1,12,-1,-1,-1,-1,-1,-1],"split_conditions":[5E-1,6.5E0,2.5E0,2.5E0,1.5E0,1.3278503E-2,2.335E1,1.26053365E-2,-8.243725E-3,-3.704275E-3,-1.1422465E-2,2.4768887E-3,-1.0360918E-2],"split_indices":[6,2,1,3,1,0,5,0,0,0,0,0,0],"split_type":[0,0,0,0,0,0,0,0,0,0,0,0,0],"sum_hessian":[2.1344614E2,1.3816478E2,7.528136E1,5.7004023E0,1.3246439E2,3.964247E1,3.5638885E1,3.5392053E0,2.1611967E0,2.9705963E1,1.0275842E2,2.9171696E1,6.46719E0],"tree_param":{"num_deleted":"0","num_feature":"7","num_nodes":"13","size_leaf_vector":"0"}},{"base_weights":[-3.380686E-1,-9.038226E-1,6.984856E-1,2.1248783E-1,-9.8129433E-1,1.3193954E0,-7.3404056E-3,1.2294228E0,-1.1005949E0,-1.1724966E0,-4.4102263E-1,4.2711255E-1,1.3354435E0,2.4532506E-1,-1.0290389E0],"categories":[],"categories_nodes":[],"categories_segments":[],"categories_sizes":[],"default_left":[true,false,true,true,true,false,true,false,false,false,false,false,false,false,false],"id":36,"left_children":[1,3,5,7,9,11,13,-1,-1,-1,-1,-1,-1,-1,-1],"loss_changes":[1.2613036E2,1.2218994E1,3.3372192E1,1.4485442E1,1.2916489E1,9.613037E-3,9.706145E0,0E0,0E0,0E0,0E0,0E0,0E0,0E0,0E0],"parents":[2147483647,0,0,1,1,2,2,3,3,4,4,5,5,6,6],"right_children":[2,4,6,8,10,12,14,-1,-1,-1,-1,-1,-1,-1,-1],"split_conditions":[5E-1,1.3E1,2.5E0,2.5E0,2.626875E1,4.5E0,2.335E1,1.2294228E-2,-1.1005948E-2,-1.1724966E-2,-4.4102264E-3,4.2711254E-3,1.3354435E-2,2.4532506E-3,-1.0290389E-2],"split_indices":[6,2,1,3,5,2,5,0,0,0,0,0,0,0,0],"split_type":[0,0,0,0,0,0,0,0,0,0,0,0,0,0,0],"sum_hessian":[2.1300346E2,1.3787756E2,7.512589E1,8.834607E0,1.2904297E2,3.9504654E1,3.562124E1,5.014653E0,3.8199546E0,9.44477E1,3.459526E1,1.1858379E0,3.8318813E1,2.9167913E1,6.453324E0],"tree_param":{"num_deleted":"0","num_feature":"7","num_nodes":"15","size_leaf_vector":"0"}},{"base_weights":[-3.3543205E-1,-8.9684516E-1,6.93068E-1,2.109565E-1,-9.7370964E-1,1.3111554E0,-7.4864677E-3,1.2217096E0,-1.0939265E0,-1.1641227E0,-4.3693417E-1,4.2502064E-1,1.3271011E0,2.4298419E-1,-1.022068E0],"categories":[],"categories_nodes":[],"categories_segments":[],"categories_sizes":[],"default_left":[true,false,true,true,true,false,true,false,false,false,false,false,false,false,false],"id":37,"left_children":[1,3,5,7,9,11,13,-1,-1,-1,-1,-1,-1,-1,-1],"loss_changes":[1.2392578E2,1.2005302E1,3.2904724E1,1.42792E1,1.2754364E1,6.324768E-3,9.550093E0,0E0,0E0,0E0,0E0,0E0,0E0,0E0,0E0],"parents":[2147483647,0,0,1,1,2,2,3,3,4,4,5,5,6,6],"right_children":[2,4,6,8,10,12,14,-1,-1,-1,-1,-1,-1,-1,-1],"split_conditions":[5E-1,1.3E1,2.5E0,2.5E0,2.626875E1,4.5E0,2.335E1,1.2217096E-2,-1.0939266E-2,-1.1641227E-2,-4.369342E-3,4.250206E-3,1.32710105E-2,2.4298418E-3,-1.022068E-2],"split_indices":[6,2,1,3,5,2,5,0,0,0,0,0,0,0,0],"split_type":[0,0,0,0,0,0,0,0,0,0,0,0,0,0,0],"sum_hessian":[2.1254579E2,1.375767E2,7.4969086E1,8.813175E0,1.2876353E2,3.9365753E1,3.5603333E1,5.0022264E0,3.8109486E0,9.418432E1,3.457921E1,1.184686E0,3.8181065E1,2.916408E1,6.4392543E0],"tree_param":{"num_deleted":"0","num_feature":"7","num_nodes":"15","size_leaf_vector":"0"}},{"base_weights":[-3.3282715E-1,-8.899519E-1,6.877142E-1,2.900932E-1,-9.6060437E-1,1.3030416E0,-7.630324E-3,1.3227277E0,-1.0291451E0,-3.5798207E-1,-1.1339911E0,4.229407E-1,1.3188883E0,2.406658E-1,-1.015178E0],"categories":[],"categories_nodes":[],"categories_segments":[],"categories_sizes":[],"default_left":[true,false,true,true,true,false,true,false,false,false,false,false,false,false,false],"id":38,"left_children":[1,3,5,7,9,11,13,-1,-1,-1,-1,-1,-1,-1,-1],"loss_changes":[1.21763916E2,1.1806831E1,3.244646E1,1.3048506E1,1.3249718E1,3.2043457E-3,9.396839E0,0E0,0E0,0E0,0E0,0E0,0E0,0E0,0E0],"parents":[2147483647,0,0,1,1,2,2,3,3,4,4,5,5,6,6],"right_children":[2,4,6,8,10,12,14,-1,-1,-1,-1,-1,-1,-1,-1],"split_conditions":[5E-1,9.5E0,2.5E0,2.5E0,1.5E0,4.5E0,2.335E1,1.32272765E-2,-1.0291451E-2,-3.5798205E-3,-1.1339911E-2,4.229407E-3,1.3188883E-2,2.406658E-3,-1.0151779E-2],"split_indices":[6,2,1,3,1,2,5,0,0,0,0,0,0,0,0],"split_type":[0,0,0,0,0,0,0,0,0,0,0,0,0,0,0],"sum_hessian":[2.1208215E2,1.3727188E2,7.481027E1,7.579097E0,1.296928E2,3.9225086E1,3.5585182E1,4.2498665E0,3.32923E0,2.9662506E1,1.0003028E2,1.1835304E0,3.8041557E1,2.9160196E1,6.4249883E0],"tree_param":{"num_deleted":"0","num_feature":"7","num_nodes":"15","size_leaf_vector":"0"}},{"base_weights":[-3.3023518E-1,-8.831008E-1,6.8242306E-1,2.0886964E-1,-9.5884347E-1,1.2950504E0,-7.771385E-3,1.2082901E0,-1.0811014E0,-1.1480125E0,-4.2803684E-1,4.208727E-1,1.3108016E0,2.3837028E-1,-1.0083661E0],"categories":[],"categories_nodes":[],"categories_segments":[],"categories_sizes":[],"default_left":[true,false,true,true,true,false,true,false,false,false,false,false,false,false,false],"id":39,"left_children":[1,3,5,7,9,11,13,-1,-1,-1,-1,-1,-1,-1,-1],"loss_changes":[1.19638664E2,1.1611298E1,3.1997108E1,1.3902247E1,1.2481483E1,2.3651123E-4,9.24633E0,0E0,0E0,0E0,0E0,0E0,0E0,0E0,0E0],"parents":[2147483647,0,0,1,1,2,2,3,3,4,4,5,5,6,6],"right_children":[2,4,6,8,10,12,14,-1,-1,-1,-1,-1,-1,-1,-1],"split_conditions":[5E-1,1.3E1,2.5E0,2.5E0,2.626875E1,4.5E0,2.335E1,1.2082901E-2,-1.0811014E-2,-1.1480125E-2,-4.2803683E-3,4.208727E-3,1.3108016E-2,2.383703E-3,-1.00836605E-2],"split_indices":[6,2,1,3,5,2,5,0,0,0,0,0,0,0,0],"split_type":[0,0,0,0,0,0,0,0,0,0,0,0,0,0,0],"sum_hessian":[2.1161598E2,1.3696645E2,7.464954E1,8.770194E0,1.2819624E2,3.9082745E1,3.55668E1,4.9772954E0,3.792899E0,9.365623E1,3.4540016E1,1.1823716E0,3.790037E1,2.9156265E1,6.410535E0],"tree_param":{"num_deleted":"0","num_feature":"7","num_nodes":"15","size_leaf_vector":"0"}},{"base_weights":[-3.2769063E-1,-8.763687E-1,6.771926E-1,4.540702E-1,-9.3645805E-1,1.2871779E0,-7.910113E-3,1.227152E0,-7.953431E-1,-3.5026342E-1,-1.1026872E0,2.3609698E-1,-1.0016311E0],"categories":[],"categories_nodes":[],"categories_segments":[],"categories_sizes":[],"default_left":[true,false,true,true,true,false,true,false,false,false,false,false,false],"id":40,"left_children":[1,3,5,7,9,-1,11,-1,-1,-1,-1,-1,-1],"loss_changes":[1.1755914E2,1.1430023E1,3.1556393E1,7.372149E0,1.24793625E1,0E0,9.098503E0,0E0,0E0,0E0,0E0,0E0,0E0],"parents":[2147483647,0,0,1,1,2,2,3,3,4,4,6,6],"right_children":[2,4,6,8,10,-1,12,-1,-1,-1,-1,-1,-1],"split_conditions":[5E-1,6.5E0,2.5E0,2.5E0,1.5E0,1.2871779E-2,2.335E1,1.227152E-2,-7.9534305E-3,-3.5026341E-3,-1.1026872E-2,2.3609698E-3,-1.0016311E-2],"split_indices":[6,2,1,3,1,0,5,0,0,0,0,0,0],"split_type":[0,0,0,0,0,0,0,0,0,0,0,0,0],"sum_hessian":[2.1114131E2,1.3665434E2,7.448698E1,5.621959E0,1.3103238E2,3.893879E1,3.554819E1,3.4840193E0,2.13794E0,2.9634762E1,1.0139762E2,2.9152288E1,6.3959007E0],"tree_param":{"num_deleted":"0","num_feature":"7","num_nodes":"13","size_leaf_vector":"0"}},{"base_weights":[-3.2516053E-1,-8.696163E-1,6.7197025E-1,2.084917E-1,-9.444086E-1,1.2793345E0,-8.046517E-3,1.1981444E0,-1.0691818E0,-1.1324146E0,-4.193532E-1,4.12539E-1,1.295085E0,2.3384558E-1,-9.9497116E-1],"categories":[],"categories_nodes":[],"categories_segments":[],"categories_sizes":[],"default_left":[true,false,true,true,true,false,true,false,false,false,false,false,false,false,false],"id":41,"left_children":[1,3,5,7,9,11,13,-1,-1,-1,-1,-1,-1,-1,-1],"loss_changes":[1.1549942E2,1.127195E1,3.1119614E1,1.3583457E1,1.2221657E1,8.995056E-3,8.953299E0,0E0,0E0,0E0,0E0,0E0,0E0,0E0,0E0],"parents":[2147483647,0,0,1,1,2,2,3,3,4,4,5,5,6,6],"right_children":[2,4,6,8,10,12,14,-1,-1,-1,-1,-1,-1,-1,-1],"split_conditions":[5E-1,1.3E1,2.5E0,2.5E0,2.626875E1,4.5E0,2.335E1,1.1981444E-2,-1.0691818E-2,-1.1324146E-2,-4.193532E-3,4.1253897E-3,1.2950849E-2,2.3384558E-3,-9.949711E-3],"split_indices":[6,2,1,3,5,2,5,0,0,0,0,0,0,0,0],"split_type":[0,0,0,0,0,0,0,0,0,0,0,0,0,0,0],"sum_hessian":[2.106714E2,1.3634943E2,7.432197E1,8.729443E0,1.2761998E2,3.8792606E1,3.5529366E1,4.9542522E0,3.7751899E0,9.311988E1,3.45001E1,1.1776025E0,3.7615005E1,2.9148272E1,6.3810925E0],"tree_param":{"num_deleted":"0","num_feature":"7","num_nodes":"15","size_leaf_vector":"0"}},{"base_weights":[-3.226734E-1,-8.6303705E-1,6.668572E-1,2.861076E-1,-9.3178195E-1,1.2716899E0,-8.1807E-3,1.2979835E0,-1.0051326E0,-3.4270754E-1,-1.1028886E0,4.1053036E-1,1.2873534E0,2.316159E-1,-9.883847E-1],"categories":[],"categories_nodes":[],"categories_segments":[],"categories_sizes":[],"default_left":[true,false,true,true,true,false,true,false,false,false,false,false,false,false,false],"id":42,"left_children":[1,3,5,7,9,11,13,-1,-1,-1,-1,-1,-1,-1,-1],"loss_changes":[1.1349847E2,1.1091721E1,3.0695465E1,1.2410408E1,1.2678047E1,6.2789917E-3,8.810664E0,0E0,0E0,0E0,0E0,0E0,0E0,0E0,0E0],"parents":[2147483647,0,0,1,1,2,2,3,3,4,4,5,5,6,6],"right_children":[2,4,6,8,10,12,14,-1,-1,-1,-1,-1,-1,-1,-1],"split_conditions":[5E-1,9.5E0,2.5E0,2.5E0,1.5E0,4.5E0,2.335E1,1.2979835E-2,-1.0051325E-2,-3.4270755E-3,-1.1028886E-2,4.1053034E-3,1.2873534E-2,2.316159E-3,-9.883847E-3],"split_indices":[6,2,1,3,1,2,5,0,0,0,0,0,0,0,0],"split_type":[0,0,0,0,0,0,0,0,0,0,0,0,0,0,0],"sum_hessian":[2.1018684E2,1.3603084E2,7.4156006E1,7.499905E0,1.2853094E2,3.864567E1,3.551033E1,4.2018876E0,3.2980175E0,2.9606525E1,9.8924416E1,1.1764292E0,3.7469242E1,2.9144213E1,6.3661184E0],"tree_param":{"num_deleted":"0","num_feature":"7","num_nodes":"15","size_leaf_vector":"0"}},{"base_weights":[-3.20197E-1,-8.564935E-1,6.618009E-1,-3.1141835E-1,-1.0071723E0,1.2641547E0,-8.3124805E-3,3.7560153E-1,-6.6013557E-1,2.1127376E-1,-1.0951184E0,4.0853304E-1,1.2797341E0,2.2940789E-1,-9.8187006E-1],"categories":[],"categories_nodes":[],"categories_segments":[],"categories_sizes":[],"default_left":[true,true,true,false,false,false,true,false,false,false,false,false,false,false,false],"id":43,"left_children":[1,3,5,7,9,11,13,-1,-1,-1,-1,-1,-1,-1,-1],"loss_changes":[1.1153066E2,1.0914696E1,3.027924E1,7.6880317E0,1.1660469E1,3.692627E-3,8.670547E0,0E0,0E0,0E0,0E0,0E0,0E0,0E0,0E0],"parents":[2147483647,0,0,1,1,2,2,3,3,4,4,5,5,6,6],"right_children":[2,4,6,8,10,12,14,-1,-1,-1,-1,-1,-1,-1,-1],"split_conditions":[5E-1,1.5E0,2.5E0,3.65E1,9.5E0,4.5E0,2.335E1,3.7560153E-3,-6.6013555E-3,2.1127376E-3,-1.0951184E-2,4.0853303E-3,1.2797341E-2,2.294079E-3,-9.8187E-3],"split_indices":[6,1,1,2,2,2,5,0,0,0,0,0,0,0,0],"split_type":[0,0,0,0,0,0,0,0,0,0,0,0,0,0,0],"sum_hessian":[2.0970068E2,1.3571223E2,7.398844E1,3.0055256E1,1.0565698E2,3.8497345E1,3.54911E1,1.0093199E1,1.9962057E1,7.0184016E0,9.863858E1,1.1752534E0,3.732209E1,2.9140114E1,6.3509846E0],"tree_param":{"num_deleted":"0","num_feature":"7","num_nodes":"15","size_leaf_vector":"0"}},{"base_weights":[-3.1771848E-1,-8.498972E-1,6.568003E-1,-3.085193E-1,-9.999054E-1,1.256726E0,-8.441748E-3,3.7207967E-1,-6.543304E-1,2.0943183E-1,-1.0874414E0,4.0654713E-1,1.2722244E0,2.2722155E-1,-9.754257E-1],"categories":[],"categories_nodes":[],"categories_segments":[],"categories_sizes":[],"default_left":[true,true,true,false,false,false,true,false,false,false,false,false,false,false,false],"id":44,"left_children":[1,3,5,7,9,11,13,-1,-1,-1,-1,-1,-1,-1,-1],"loss_changes":[1.0958762E2,1.0769623E1,2.9870708E1,7.5497055E0,1.1487938E1,1.2397766E-3,8.5329E0,0E0,0E0,0E0,0E0,0E0,0E0,0E0,0E0],"parents":[2147483647,0,0,1,1,2,2,3,3,4,4,5,5,6,6],"right_children":[2,4,6,8,10,12,14,-1,-1,-1,-1,-1,-1,-1,-1],"split_conditions":[5E-1,1.5E0,2.5E0,3.65E1,9.5E0,4.5E0,2.335E1,3.7207967E-3,-6.5433034E-3,2.0943182E-3,-1.0874414E-2,4.0654712E-3,1.2722244E-2,2.2722154E-3,-9.754257E-3],"split_indices":[6,1,1,2,2,2,5,0,0,0,0,0,0,0,0],"split_type":[0,0,0,0,0,0,0,0,0,0,0,0,0,0,0],"sum_hessian":[2.092306E2,1.3541124E2,7.381937E1,3.0043013E1,1.05368225E2,3.8347694E1,3.5471676E1,1.0096294E1,1.9946718E1,7.0181217E0,9.8350105E1,1.1740754E0,3.717362E1,2.9135979E1,6.3356977E0],"tree_param":{"num_deleted":"0","num_feature":"7","num_nodes":"15","size_leaf_vector":"0"}},{"base_weights":[-3.152672E-1,-8.4337413E-1,6.51854E-1,-3.0565092E-1,-9.927222E-1,1.2494012E0,-8.5691E-3,3.6859402E-1,-6.485851E-1,2.0760617E-1,-1.0798552E0,2.2505592E-1,-9.690501E-1],"categories":[],"categories_nodes":[],"categories_segments":[],"categories_sizes":[],"default_left":[true,true,true,false,false,false,true,false,false,false,false,false,false],"id":45,"left_children":[1,3,5,7,9,-1,11,-1,-1,-1,-1,-1,-1],"loss_changes":[1.0768136E2,1.0627075E1,2.946969E1,7.4139643E0,1.1318573E1,0E0,8.397658E0,0E0,0E0,0E0,0E0,0E0,0E0],"parents":[2147483647,0,0,1,1,2,2,3,3,4,4,6,6],"right_children":[2,4,6,8,10,-1,12,-1,-1,-1,-1,-1,-1],"split_conditions":[5E-1,1.5E0,2.5E0,3.65E1,9.5E0,1.2494012E-2,2.335E1,3.68594E-3,-6.4858506E-3,2.0760617E-3,-1.0798552E-2,2.2505592E-3,-9.690501E-3],"split_indices":[6,1,1,2,2,0,5,0,0,0,0,0,0],"split_type":[0,0,0,0,0,0,0,0,0,0,0,0,0],"sum_hessian":[2.0875621E2,1.3510735E2,7.3648865E1,3.0030401E1,1.0507694E2,3.819679E1,3.5452072E1,1.0099294E1,1.9931107E1,7.0178323E0,9.8059105E1,2.913181E1,6.320265E0],"tree_param":{"num_deleted":"0","num_feature":"7","num_nodes":"13","size_leaf_vector":"0"}},{"base_weights":[-3.1286362E-1,-8.3692265E-1,6.4690995E-1,-3.0281314E-1,-9.8562086E-1,1.2420902E0,-8.694218E-3,6.9143355E-2,-9.3394935E-1,2.0579661E-1,-1.0723575E0,3.985131E-1,1.2576101E0,2.2291125E-1,-9.627418E-1],"categories":[],"categories_nodes":[],"categories_segments":[],"categories_sizes":[],"default_left":[true,true,true,false,false,false,true,false,false,false,false,false,false,false,false],"id":46,"left_children":[1,3,5,7,9,11,13,-1,-1,-1,-1,-1,-1,-1,-1],"loss_changes":[1.05803154E2,1.0486984E1,2.907167E1,7.346079E0,1.1152283E1,9.994507E-3,8.264782E0,0E0,0E0,0E0,0E0,0E0,0E0,0E0,0E0],"parents":[2147483647,0,0,1,1,2,2,3,3,4,4,5,5,6,6],"right_children":[2,4,6,8,10,12,14,-1,-1,-1,-1,-1,-1,-1,-1],"split_conditions":[5E-1,1.5E0,2.5E0,5.3E1,9.5E0,4.5E0,2.335E1,6.9143355E-4,-9.339494E-3,2.057966E-3,-1.0723575E-2,3.985131E-3,1.25761E-2,2.2291124E-3,-9.627418E-3],"split_indices":[6,1,1,2,2,2,5,0,0,0,0,0,0,0,0],"split_type":[0,0,0,0,0,0,0,0,0,0,0,0,0,0,0],"sum_hessian":[2.0827704E2,1.3480069E2,7.347636E1,3.001743E1,1.0478326E2,3.804406E1,3.5432297E1,1.9446936E1,1.0570495E1,7.017533E0,9.7765724E1,1.1692183E0,3.6874844E1,2.9127604E1,6.304692E0],"tree_param":{"num_deleted":"0","num_feature":"7","num_nodes":"15","size_leaf_vector":"0"}},{"base_weights":[-3.1049013E-1,-8.305716E-1,6.420685E-1,4.4014707E-1,-8.884154E-1,1.2349639E0,-8.817157E-3,1.203451E0,-7.839795E-1,-3.2795286E-1,-1.0501304E0,3.9658353E-1,1.25041E0,2.2078727E-1,-9.5649946E-1],"categories":[],"categories_nodes":[],"categories_segments":[],"categories_sizes":[],"default_left":[true,false,true,true,true,false,true,false,false,false,false,false,false,false,false],"id":47,"left_children":[1,3,5,7,9,11,13,-1,-1,-1,-1,-1,-1,-1,-1],"loss_changes":[1.0397288E2,1.0350243E1,2.8685024E1,7.08041E0,1.143145E1,7.7323914E-3,8.134222E0,0E0,0E0,0E0,0E0,0E0,0E0,0E0,0E0],"parents":[2147483647,0,0,1,1,2,2,3,3,4,4,5,5,6,6],"right_children":[2,4,6,8,10,12,14,-1,-1,-1,-1,-1,-1,-1,-1],"split_conditions":[5E-1,6.5E0,2.5E0,2.5E0,1.5E0,4.5E0,2.335E1,1.203451E-2,-7.839794E-3,-3.2795286E-3,-1.0501304E-2,3.965835E-3,1.2504099E-2,2.2078727E-3,-9.564994E-3],"split_indices":[6,2,1,3,1,2,5,0,0,0,0,0,0,0,0],"split_type":[0,0,0,0,0,0,0,0,0,0,0,0,0,0,0],"sum_hessian":[2.0779675E2,1.3449353E2,7.330321E1,5.567911E0,1.2892563E2,3.7890858E1,3.5412354E1,3.43987E0,2.1280408E0,2.9547962E1,9.937766E1,1.16803E0,3.6722824E1,2.912337E1,6.288985E0],"tree_param":{"num_deleted":"0","num_feature":"7","num_nodes":"15","size_leaf_vector":"0"}},{"base_weights":[-3.0812457E-1,-8.243132E-1,6.3727796E-1,-2.9735112E-1,-9.717594E-1,1.2279332E0,-8.93778E-3,7.1286544E-2,-9.237928E-1,2.0453365E-1,-1.0577208E0,3.9466453E-1,1.243308E0,2.1868399E-1,-9.503216E-1],"categories":[],"categories_nodes":[],"categories_segments":[],"categories_sizes":[],"default_left":[true,true,true,false,false,false,true,false,false,false,false,false,false,false,false],"id":48,"left_children":[1,3,5,7,9,11,13,-1,-1,-1,-1,-1,-1,-1,-1],"loss_changes":[1.0217664E2,1.02136E1,2.8305262E1,7.223131E0,1.0851418E1,5.5770874E-3,8.005932E0,0E0,0E0,0E0,0E0,0E0,0E0,0E0,0E0],"parents":[2147483647,0,0,1,1,2,2,3,3,4,4,5,5,6,6],"right_children":[2,4,6,8,10,12,14,-1,-1,-1,-1,-1,-1,-1,-1],"split_conditions":[5E-1,1.5E0,2.5E0,5.3E1,9.5E0,4.5E0,2.335E1,7.1286544E-4,-9.237927E-3,2.0453364E-3,-1.0577207E-2,3.946645E-3,1.2433079E-2,2.18684E-3,-9.503216E-3],"split_indices":[6,1,1,2,2,2,5,0,0,0,0,0,0,0,0],"split_type":[0,0,0,0,0,0,0,0,0,0,0,0,0,0,0],"sum_hessian":[2.0729932E2,1.3417047E2,7.312884E1,2.9993277E1,1.041772E2,3.7736588E1,3.5392254E1,1.9439852E1,1.0553426E1,7.0006866E0,9.717651E1,1.1668401E0,3.6569748E1,2.9119102E1,6.2731495E0],"tree_param":{"num_deleted":"0","num_feature":"7","num_nodes":"15","size_leaf_vector":"0"}},{"base_weights":[-3.0580056E-1,-8.180947E-1,6.3253695E-1,2.0461667E-1,-8.8986766E-1,1.2209954E0,-9.056518E-3,1.1812918E0,-1.0533179E0,-1.0741047E0,-3.8521227E-1,3.927563E-1,1.2363013E0,2.1660069E-1,-9.4420683E-1],"categories":[],"categories_nodes":[],"categories_segments":[],"categories_sizes":[],"default_left":[true,false,true,true,true,false,true,false,false,false,false,false,false,false,false],"id":49,"left_children":[1,3,5,7,9,11,13,-1,-1,-1,-1,-1,-1,-1,-1],"loss_changes":[1.0041376E2,1.0081131E1,2.7932219E1,1.3108411E1,1.132003E1,3.528595E-3,7.8798594E0,0E0,0E0,0E0,0E0,0E0,0E0,0E0,0E0],"parents":[2147483647,0,0,1,1,2,2,3,3,4,4,5,5,6,6],"right_children":[2,4,6,8,10,12,14,-1,-1,-1,-1,-1,-1,-1,-1],"split_conditions":[5E-1,1.3E1,2.5E0,2.5E0,2.626875E1,4.5E0,2.335E1,1.1812918E-2,-1.0533179E-2,-1.0741047E-2,-3.8521227E-3,3.927563E-3,1.2363013E-2,2.1660067E-3,-9.442068E-3],"split_indices":[6,2,1,3,5,2,5,0,0,0,0,0,0,0,0],"split_type":[0,0,0,0,0,0,0,0,0,0,0,0,0,0,0],"sum_hessian":[2.0681212E2,1.3385881E2,7.2953316E1,8.656681E0,1.25202126E2,3.7581314E1,3.5372E1,4.907426E0,3.7492552E0,9.0891525E1,3.4310596E1,1.1656487E0,3.6415665E1,2.9114809E1,6.2571936E0],"tree_param":{"num_deleted":"0","num_feature":"7","num_nodes":"15","size_leaf_vector":"0"}},{"base_weights":[-3.0351782E-1,-8.1205803E-1,6.27845E-1,-2.9104567E-1,-9.585749E-1,1.2141486E0,-9.173029E-3,3.692053E-1,-6.2803394E-1,2.0211548E-1,-1.0436778E0,3.9085868E-1,1.229388E0,2.1453759E-1,-9.3815386E-1],"categories":[],"categories_nodes":[],"categories_segments":[],"categories_sizes":[],"default_left":[true,true,true,false,false,false,true,false,false,false,false,false,false,false,false],"id":50,"left_children":[1,3,5,7,9,11,13,-1,-1,-1,-1,-1,-1,-1,-1],"loss_changes":[9.869342E1,9.98996E0,2.756571E1,7.120865E0,1.053907E1,1.5792847E-3,7.755965E0,0E0,0E0,0E0,0E0,0E0,0E0,0E0,0E0],"parents":[2147483647,0,0,1,1,2,2,3,3,4,4,5,5,6,6],"right_children":[2,4,6,8,10,12,14,-1,-1,-1,-1,-1,-1,-1,-1],"split_conditions":[5E-1,1.5E0,2.5E0,3.65E1,9.5E0,4.5E0,2.335E1,3.6920528E-3,-6.2803393E-3,2.0211546E-3,-1.0436778E-2,3.9085867E-3,1.229388E-2,2.1453758E-3,-9.381538E-3],"split_indices":[6,1,1,2,2,2,5,0,0,0,0,0,0,0,0],"split_type":[0,0,0,0,0,0,0,0,0,0,0,0,0,0,0],"sum_hessian":[2.0629778E2,1.3352106E2,7.277672E1,2.9962198E1,1.0355886E2,3.7425106E1,3.535161E1,1.0092556E1,1.9869642E1,6.9804106E0,9.657845E1,1.1644559E0,3.626065E1,2.9110487E1,6.2411213E0],"tree_param":{"num_deleted":"0","num_feature":"7","num_nodes":"15","size_leaf_vector":"0"}},{"base_weights":[-3.0121553E-1,-8.0593354E-1,6.232005E-1,-2.883496E-1,-9.51849E-1,1.2073902E0,-9.287624E-3,7.523819E-2,-9.0774244E-1,2.0035586E-1,-1.0365864E0,2.1249424E-1,-9.321616E-1],"categories":[],"categories_nodes":[],"categories_segments":[],"categories_sizes":[],"default_left":[true,true,true,false,false,false,true,false,false,false,false,false,false],"id":51,"left_children":[1,3,5,7,9,-1,11,-1,-1,-1,-1,-1,-1],"loss_changes":[9.699006E1,9.861053E0,2.7205564E1,7.037982E0,1.0386635E1,0E0,7.634206E0,0E0,0E0,0E0,0E0,0E0,0E0],"parents":[2147483647,0,0,1,1,2,2,3,3,4,4,6,6],"right_children":[2,4,6,8,10,-1,12,-1,-1,-1,-1,-1,-1],"split_conditions":[5E-1,1.5E0,2.5E0,5.3E1,9.5E0,1.20739015E-2,2.335E1,7.5238186E-4,-9.077424E-3,2.0035584E-3,-1.0365864E-2,2.1249424E-3,-9.321616E-3],"split_indices":[6,1,1,2,2,0,5,0,0,0,0,0,0],"split_type":[0,0,0,0,0,0,0,0,0,0,0,0,0],"sum_hessian":[2.0580266E2,1.3320357E2,7.259909E1,2.9948366E1,1.032552E2,3.726801E1,3.5331078E1,1.9424551E1,1.0523814E1,6.9800825E0,9.627512E1,2.910614E1,6.224939E0],"tree_param":{"num_deleted":"0","num_feature":"7","num_nodes":"13","size_leaf_vector":"0"}},{"base_weights":[-2.9898217E-1,-7.999032E-1,6.1855257E-1,-2.8584948E-1,-9.4519407E-1,1.2006298E0,-9.400121E-3,3.6504516E-1,-6.1869395E-1,1.9861183E-1,-1.0295715E0,3.8315067E-1,1.2159137E0,2.1047062E-1,-9.2622876E-1],"categories":[],"categories_nodes":[],"categories_segments":[],"categories_sizes":[],"default_left":[true,true,true,false,false,false,true,false,false,false,false,false,false,false,false],"id":52,"left_children":[1,3,5,7,9,11,13,-1,-1,-1,-1,-1,-1,-1,-1],"loss_changes":[9.531558E1,9.729408E0,2.6847515E1,6.9280753E0,1.0236824E1,1.0269165E-2,7.5145364E0,0E0,0E0,0E0,0E0,0E0,0E0,0E0,0E0],"parents":[2147483647,0,0,1,1,2,2,3,3,4,4,5,5,6,6],"right_children":[2,4,6,8,10,12,14,-1,-1,-1,-1,-1,-1,-1,-1],"split_conditions":[5E-1,1.5E0,2.5E0,3.65E1,9.5E0,4.5E0,2.335E1,3.6504515E-3,-6.1869393E-3,1.9861183E-3,-1.0295715E-2,3.8315065E-3,1.2159136E-2,2.1047061E-3,-9.262287E-3],"split_indices":[6,1,1,2,2,2,5,0,0,0,0,0,0,0,0],"split_type":[0,0,0,0,0,0,0,0,0,0,0,0,0,0,0],"sum_hessian":[2.0530598E2,1.3288606E2,7.241992E1,2.9936195E1,1.0294987E2,3.71095E1,3.5310425E1,1.0096067E1,1.9840128E1,6.979747E0,9.5970116E1,1.1595285E0,3.5949974E1,2.910177E1,6.208652E0],"tree_param":{"num_deleted":"0","num_feature":"7","num_nodes":"15","size_leaf_vector":"0"}},{"base_weights":[-2.9672584E-1,-7.9390204E-1,6.140003E-1,-2.8320587E-1,-9.386083E-1,1.1940403E0,-9.510531E-3,-8.5545045E-1,1.01057485E-1,1.9688307E-1,-1.022631E0,3.8130602E-1,1.2092638E0,2.0846649E-1,-9.2035383E-1],"categories":[],"categories_nodes":[],"categories_segments":[],"categories_sizes":[],"default_left":[true,true,true,true,false,false,true,false,false,false,false,false,false,false,false],"id":53,"left_children":[1,3,5,7,9,11,13,-1,-1,-1,-1,-1,-1,-1,-1],"loss_changes":[9.367432E1,9.604752E0,2.6499586E1,6.8859444E0,1.0089607E1,8.449554E-3,7.3969145E0,0E0,0E0,0E0,0E0,0E0,0E0,0E0,0E0],"parents":[2147483647,0,0,1,1,2,2,3,3,4,4,5,5,6,6],"right_children":[2,4,6,8,10,12,14,-1,-1,-1,-1,-1,-1,-1,-1],"split_conditions":[5E-1,1.5E0,2.5E0,3.845E2,9.5E0,4.5E0,2.335E1,-8.554504E-3,1.0105749E-3,1.9688306E-3,-1.022631E-2,3.8130602E-3,1.2092638E-2,2.0846648E-3,-9.203538E-3],"split_indices":[6,1,1,0,2,2,5,0,0,0,0,0,0,0,0],"split_type":[0,0,0,0,0,0,0,0,0,0,0,0,0,0,0],"sum_hessian":[2.048053E2,1.3256485E2,7.224045E1,2.9921883E1,1.0264297E2,3.6950806E1,3.5289646E1,1.1528076E1,1.8393808E1,6.979402E0,9.566357E1,1.15833E0,3.5792473E1,2.909738E1,6.1922655E0],"tree_param":{"num_deleted":"0","num_feature":"7","num_nodes":"15","size_leaf_vector":"0"}},{"base_weights":[-2.9450944E-1,-7.8797E-1,6.0949284E-1,-2.8070754E-1,-9.3209034E-1,1.1875327E0,-9.619215E-3,7.8184284E-2,-8.936148E-1,1.9516964E-1,-1.0157635E0,3.7947166E-1,1.2026978E0,2.0648138E-1,-9.1453606E-1],"categories":[],"categories_nodes":[],"categories_segments":[],"categories_sizes":[],"default_left":[true,true,true,false,false,false,true,false,false,false,false,false,false,false,false],"id":54,"left_children":[1,3,5,7,9,11,13,-1,-1,-1,-1,-1,-1,-1,-1],"loss_changes":[9.206551E1,9.479607E0,2.6157562E1,6.8695383E0,9.944916E0,6.717682E-3,7.2813005E0,0E0,0E0,0E0,0E0,0E0,0E0,0E0,0E0],"parents":[2147483647,0,0,1,1,2,2,3,3,4,4,5,5,6,6],"right_children":[2,4,6,8,10,12,14,-1,-1,-1,-1,-1,-1,-1,-1],"split_conditions":[5E-1,1.5E0,2.5E0,5.3E1,9.5E0,4.5E0,2.335E1,7.818428E-4,-8.936148E-3,1.9516964E-3,-1.0157635E-2,3.7947164E-3,1.2026978E-2,2.0648139E-3,-9.14536E-3],"split_indices":[6,1,1,2,2,2,5,0,0,0,0,0,0,0,0],"split_type":[0,0,0,0,0,0,0,0,0,0,0,0,0,0,0],"sum_hessian":[2.0430692E2,1.3224678E2,7.206014E1,2.9912178E1,1.02334595E2,3.679139E1,3.5268753E1,1.9415653E1,1.0496525E1,6.97905E0,9.5355545E1,1.1571306E0,3.563426E1,2.9092966E1,6.175785E0],"tree_param":{"num_deleted":"0","num_feature":"7","num_nodes":"15","size_leaf_vector":"0"}},{"base_weights":[-2.92322E-1,-7.8211766E-1,6.050293E-1,-2.7828032E-1,-9.256385E-1,1.1811045E0,-9.725768E-3,-8.464056E-1,1.0269022E-1,1.9347133E-1,-1.008967E0,3.776471E-1,1.1962131E0,6.5021145E-1,-3.0195954E-1],"categories":[],"categories_nodes":[],"categories_segments":[],"categories_sizes":[],"default_left":[true,true,true,true,false,false,true,false,false,false,false,false,false,false,false],"id":55,"left_children":[1,3,5,7,9,11,13,-1,-1,-1,-1,-1,-1,-1,-1],"loss_changes":[9.048816E1,9.35434E0,2.5821253E1,6.77478E0,9.802673E0,5.0621033E-3,7.1869316E0,0E0,0E0,0E0,0E0,0E0,0E0,0E0,0E0],"parents":[2147483647,0,0,1,1,2,2,3,3,4,4,5,5,6,6],"right_children":[2,4,6,8,10,12,14,-1,-1,-1,-1,-1,-1,-1,-1],"split_conditions":[5E-1,1.5E0,2.5E0,3.845E2,9.5E0,4.5E0,7.8875E0,-8.464056E-3,1.0269022E-3,1.9347132E-3,-1.008967E-2,3.776471E-3,1.1962131E-2,6.5021142E-3,-3.0195953E-3],"split_indices":[6,1,1,0,2,2,5,0,0,0,0,0,0,0,0],"split_type":[0,0,0,0,0,0,0,0,0,0,0,0,0,0,0],"sum_hessian":[2.0380345E2,1.319244E2,7.187905E1,2.9899527E1,1.0202487E2,3.6631298E1,3.5247753E1,1.151138E1,1.8388145E1,6.978691E0,9.504618E1,1.1559305E0,3.547537E1,1.0442039E1,2.4805714E1],"tree_param":{"num_deleted":"0","num_feature":"7","num_nodes":"15","size_leaf_vector":"0"}},{"base_weights":[-2.9007572E-1,-7.7630067E-1,6.0063434E-1,-2.7582937E-1,-9.192512E-1,1.1747539E0,-9.533721E-3,8.001963E-2,-8.846055E-1,1.9178805E-1,-1.0022401E0,3.7583268E-1,1.1898081E0,2.0413797E-1,-9.0687567E-1],"categories":[],"categories_nodes":[],"categories_segments":[],"categories_sizes":[],"default_left":[true,true,true,false,false,false,true,false,false,false,false,false,false,false,false],"id":56,"left_children":[1,3,5,7,9,11,13,-1,-1,-1,-1,-1,-1,-1,-1],"loss_changes":[8.8952225E1,9.233238E0,2.5482838E1,6.762451E0,9.662827E0,3.4942627E-3,7.1338964E0,0E0,0E0,0E0,0E0,0E0,0E0,0E0,0E0],"parents":[2147483647,0,0,1,1,2,2,3,3,4,4,5,5,6,6],"right_children":[2,4,6,8,10,12,14,-1,-1,-1,-1,-1,-1,-1,-1],"split_conditions":[5E-1,1.5E0,2.5E0,5.3E1,9.5E0,4.5E0,2.335E1,8.001963E-4,-8.846055E-3,1.9178804E-3,-1.00224E-2,3.7583266E-3,1.1898081E-2,2.0413797E-3,-9.068756E-3],"split_indices":[6,1,1,2,2,2,5,0,0,0,0,0,0,0,0],"split_type":[0,0,0,0,0,0,0,0,0,0,0,0,0,0,0],"sum_hessian":[2.033152E2,1.3160338E2,7.171182E1,2.9889496E1,1.0171388E2,3.6470592E1,3.5241226E1,1.9411446E1,1.047805E1,6.9783244E0,9.473556E1,1.1547297E0,3.5315865E1,2.9087524E1,6.1537037E0],"tree_param":{"num_deleted":"0","num_feature":"7","num_nodes":"15","size_leaf_vector":"0"}},{"base_weights":[-2.8793067E-1,-7.70561E-1,5.962546E-1,-2.734483E-1,-9.129273E-1,1.1684791E0,-9.639972E-3,-6.291931E-1,3.1683806E-1,5.135224E-1,-9.747886E-1,3.740282E-1,1.1834806E0,2.021944E-1,-9.0118635E-1],"categories":[],"categories_nodes":[],"categories_segments":[],"categories_sizes":[],"default_left":[true,true,true,true,false,false,true,false,false,false,false,false,false,false,false],"id":57,"left_children":[1,3,5,7,9,11,13,-1,-1,-1,-1,-1,-1,-1,-1],"loss_changes":[8.7431244E1,9.111969E0,2.5157768E1,6.683159E0,9.536713E0,1.9989014E-3,7.0227475E0,0E0,0E0,0E0,0E0,0E0,0E0,0E0,0E0],"parents":[2147483647,0,0,1,1,2,2,3,3,4,4,5,5,6,6],"right_children":[2,4,6,8,10,12,14,-1,-1,-1,-1,-1,-1,-1,-1],"split_conditions":[5E-1,1.5E0,2.5E0,5.655E2,3.5E0,4.5E0,2.335E1,-6.291931E-3,3.1683806E-3,5.1352237E-3,-9.747886E-3,3.740282E-3,1.1834806E-2,2.021944E-3,-9.011864E-3],"split_indices":[6,1,1,0,2,2,5,0,0,0,0,0,0,0,0],"split_type":[0,0,0,0,0,0,0,0,0,0,0,0,0,0,0],"sum_hessian":[2.028077E2,1.3127827E2,7.152941E1,2.9876549E1,1.01401726E2,3.630932E1,3.5220093E1,1.860067E1,1.127588E1,3.911265E0,9.749046E1,1.1535286E0,3.515579E1,2.9083069E1,6.137024E0],"tree_param":{"num_deleted":"0","num_feature":"7","num_nodes":"15","size_leaf_vector":"0"}},{"base_weights":[-2.857571E-1,-7.647813E-1,5.9191626E-1,4.2297485E-1,-8.2004577E-1,1.1622777E0,-9.744078E-3,1.1836883E0,-7.8267175E-1,-2.9803705E-1,-9.752171E-1,9.117118E-1,1.2888258E0,6.410486E-1,-2.981601E-1],"categories":[],"categories_nodes":[],"categories_segments":[],"categories_sizes":[],"default_left":[true,false,true,true,true,true,true,false,false,false,false,false,false,false,false],"id":58,"left_children":[1,3,5,7,9,11,13,-1,-1,-1,-1,-1,-1,-1,-1],"loss_changes":[8.5927E1,9.008621E0,2.4837988E1,6.9122458E0,9.95034E0,2.861023E-3,6.985628E0,0E0,0E0,0E0,0E0,0E0,0E0,0E0,0E0],"parents":[2147483647,0,0,1,1,2,2,3,3,4,4,5,5,6,6],"right_children":[2,4,6,8,10,12,14,-1,-1,-1,-1,-1,-1,-1,-1],"split_conditions":[5E-1,6.5E0,2.5E0,2.5E0,1.5E0,2.885625E1,7.8875E0,1.1836883E-2,-7.826718E-3,-2.9803705E-3,-9.752171E-3,9.117118E-3,1.2888257E-2,6.410486E-3,-2.981601E-3],"split_indices":[6,2,1,3,1,5,5,0,0,0,0,0,0,0,0],"split_type":[0,0,0,0,0,0,0,0,0,0,0,0,0,0,0],"sum_hessian":[2.0230368E2,1.3095729E2,7.134638E1,5.526518E0,1.2543078E2,3.6147514E1,3.5198868E1,3.3996751E0,2.1268425E0,2.9410896E1,9.601988E1,1.4883189E1,2.1264324E1,1.0433555E1,2.4765314E1],"tree_param":{"num_deleted":"0","num_feature":"7","num_nodes":"15","size_leaf_vector":"0"}},{"base_weights":[-2.8352433E-1,-7.591633E-1,5.8770734E-1,2.0335576E-1,-8.280761E-1,1.1562138E0,-9.55336E-3,1.1722723E0,-1.0424472E0,-1.0085642E0,-3.4624252E-1,3.667805E-1,1.1712804E0,1.9990373E-1,-8.936894E-1],"categories":[],"categories_nodes":[],"categories_segments":[],"categories_sizes":[],"default_left":[true,false,true,true,true,false,true,false,false,false,false,false,false,false,false],"id":59,"left_children":[1,3,5,7,9,11,13,-1,-1,-1,-1,-1,-1,-1,-1],"loss_changes":[8.448425E1,8.89859E0,2.4519764E1,1.2805883E1,1.0349373E1,1.0341644E-2,6.8809924E0,0E0,0E0,0E0,0E0,0E0,0E0,0E0,0E0],"parents":[2147483647,0,0,1,1,2,2,3,3,4,4,5,5,6,6],"right_children":[2,4,6,8,10,12,14,-1,-1,-1,-1,-1,-1,-1,-1],"split_conditions":[5E-1,1.3E1,2.5E0,2.5E0,2.626875E1,4.5E0,2.335E1,1.1722723E-2,-1.0424471E-2,-1.0085642E-2,-3.4624252E-3,3.6678049E-3,1.17128035E-2,1.999037E-3,-8.936894E-3],"split_indices":[6,2,1,3,5,2,5,0,0,0,0,0,0,0,0],"split_type":[0,0,0,0,0,0,0,0,0,0,0,0,0,0,0],"sum_hessian":[2.0179863E2,1.306179E2,7.1180725E1,8.596597E0,1.2202132E2,3.5988747E1,3.519198E1,4.868877E0,3.7277198E0,8.7974236E1,3.404708E1,1.148632E0,3.4840115E1,2.9077293E1,6.1146846E0],"tree_param":{"num_deleted":"0","num_feature":"7","num_nodes":"15","size_leaf_vector":"0"}},{"base_weights":[-2.8145376E-1,-7.5368667E-1,5.83447E-1,-2.650119E-1,-8.9480263E-1,1.1501521E0,-9.65726E-3,2.5409445E-1,-6.706918E-1,1.9129619E-1,-9.7654754E-1,8.992694E-1,1.2772778E0,6.3377386E-1,-2.9486436E-1],"categories":[],"categories_nodes":[],"categories_segments":[],"categories_sizes":[],"default_left":[true,true,true,false,false,true,true,false,false,false,false,false,false,false,false],"id":60,"left_children":[1,3,5,7,9,11,13,-1,-1,-1,-1,-1,-1,-1,-1],"loss_changes":[8.305118E1,8.815002E0,2.421029E1,6.663678E0,9.192375E0,2.5901794E-2,6.8245926E0,0E0,0E0,0E0,0E0,0E0,0E0,0E0,0E0],"parents":[2147483647,0,0,1,1,2,2,3,3,4,4,5,5,6,6],"right_children":[2,4,6,8,10,12,14,-1,-1,-1,-1,-1,-1,-1,-1],"split_conditions":[5E-1,1.5E0,2.5E0,4.3E1,9.5E0,2.885625E1,7.8875E0,2.5409444E-3,-6.7069177E-3,1.9129618E-3,-9.765475E-3,8.992693E-3,1.2772778E-2,6.3377386E-3,-2.9486434E-3],"split_indices":[6,1,1,2,2,5,5,0,0,0,0,0,0,0,0],"split_type":[0,0,0,0,0,0,0,0,0,0,0,0,0,0,0],"sum_hessian":[2.0126357E2,1.3026688E2,7.099669E1,2.9833508E1,1.0043337E2,3.582605E1,3.517064E1,1.3251104E1,1.6582403E1,6.936172E0,9.34972E1,1.4763708E1,2.1062344E1,1.0426394E1,2.4744244E1],"tree_param":{"num_deleted":"0","num_feature":"7","num_nodes":"15","size_leaf_vector":"0"}},{"base_weights":[-2.7926302E-1,-7.481323E-1,5.7931656E-1,-2.626171E-1,-8.8871384E-1,1.1442245E0,-9.468486E-3,-8.256467E-1,1.1363044E-1,1.8963325E-1,-9.701397E-1,8.938423E-1,1.271281E0,1.9764288E-1,-8.8628995E-1],"categories":[],"categories_nodes":[],"categories_segments":[],"categories_sizes":[],"default_left":[true,true,true,true,false,true,true,false,false,false,false,false,false,false,false],"id":61,"left_children":[1,3,5,7,9,11,13,-1,-1,-1,-1,-1,-1,-1,-1],"loss_changes":[8.165712E1,8.703651E0,2.3902142E1,6.622602E0,9.062637E0,3.0136108E-2,6.7424407E0,0E0,0E0,0E0,0E0,0E0,0E0,0E0,0E0],"parents":[2147483647,0,0,1,1,2,2,3,3,4,4,5,5,6,6],"right_children":[2,4,6,8,10,12,14,-1,-1,-1,-1,-1,-1,-1,-1],"split_conditions":[5E-1,1.5E0,2.5E0,3.845E2,9.5E0,2.885625E1,2.335E1,-8.256467E-3,1.1363043E-3,1.8963325E-3,-9.701396E-3,8.938422E-3,1.271281E-2,1.9764288E-3,-8.8629E-3],"split_indices":[6,1,1,0,2,5,5,0,0,0,0,0,0,0,0],"split_type":[0,0,0,0,0,0,0,0,0,0,0,0,0,0,0],"sum_hessian":[2.0076717E2,1.2993723E2,7.082993E1,2.981963E1,1.001176E2,3.5666477E1,3.5163452E1,1.1466438E1,1.8353191E1,6.935798E0,9.31818E1,1.4711148E1,2.095533E1,2.9071218E1,6.0922337E0],"tree_param":{"num_deleted":"0","num_feature":"7","num_nodes":"15","size_leaf_vector":"0"}},{"base_weights":[-2.7717316E-1,-7.426317E-1,5.751932E-1,-2.603126E-1,-8.8268167E-1,1.1383631E0,-9.571787E-3,9.028924E-2,-8.62699E-1,5.0268734E-1,-9.433717E-1,8.884595E-1,1.2653673E0,6.265978E-1,-2.916077E-1],"categories":[],"categories_nodes":[],"categories_segments":[],"categories_sizes":[],"default_left":[true,true,true,false,false,true,true,false,false,false,false,false,false,false,false],"id":62,"left_children":[1,3,5,7,9,11,13,-1,-1,-1,-1,-1,-1,-1,-1],"loss_changes":[8.027481E1,8.592789E0,2.3606348E1,6.584708E0,8.949394E0,3.4446716E-2,6.6674166E0,0E0,0E0,0E0,0E0,0E0,0E0,0E0,0E0],"parents":[2147483647,0,0,1,1,2,2,3,3,4,4,5,5,6,6],"right_children":[2,4,6,8,10,12,14,-1,-1,-1,-1,-1,-1,-1,-1],"split_conditions":[5E-1,1.5E0,2.5E0,5.3E1,3.5E0,2.885625E1,7.8875E0,9.028924E-4,-8.626989E-3,5.026873E-3,-9.433717E-3,8.884595E-3,1.2653672E-2,6.265978E-3,-2.916077E-3],"split_indices":[6,1,1,2,2,5,5,0,0,0,0,0,0,0,0],"split_type":[0,0,0,0,0,0,0,0,0,0,0,0,0,0,0],"sum_hessian":[2.002588E2,1.2961024E2,7.064856E1,2.9809114E1,9.9801125E1,3.550655E1,3.514201E1,1.937978E1,1.0429335E1,3.8829281E0,9.59182E1,1.4658601E1,2.0847948E1,1.0418961E1,2.472305E1],"tree_param":{"num_deleted":"0","num_feature":"7","num_nodes":"15","size_leaf_vector":"0"}},{"base_weights":[-2.7501866E-1,-7.37162E-1,5.711386E-1,-2.5807482E-1,-8.7665004E-1,1.1325662E0,-9.3849385E-3,-8.1713724E-1,1.14959836E-1,1.892657E-1,-9.5763725E-1,8.831198E-1,1.2595341E0,1.9541179E-1,-8.789852E-1],"categories":[],"categories_nodes":[],"categories_segments":[],"categories_sizes":[],"default_left":[true,true,true,true,false,true,true,false,false,false,false,false,false,false,false],"id":63,"left_children":[1,3,5,7,9,11,13,-1,-1,-1,-1,-1,-1,-1,-1],"loss_changes":[7.892855E1,8.480103E0,2.33078E1,6.516366E0,8.855797E0,3.8829803E-2,6.607011E0,0E0,0E0,0E0,0E0,0E0,0E0,0E0,0E0],"parents":[2147483647,0,0,1,1,2,2,3,3,4,4,5,5,6,6],"right_children":[2,4,6,8,10,12,14,-1,-1,-1,-1,-1,-1,-1,-1],"split_conditions":[5E-1,1.5E0,2.5E0,3.845E2,9.5E0,2.885625E1,2.335E1,-8.171372E-3,1.1495983E-3,1.8926569E-3,-9.576372E-3,8.831198E-3,1.2595341E-2,1.9541178E-3,-8.789852E-3],"split_indices":[6,1,1,0,2,5,5,0,0,0,0,0,0,0,0],"split_type":[0,0,0,0,0,0,0,0,0,0,0,0,0,0,0],"sum_hessian":[1.9976294E2,1.292821E2,7.0480835E1,2.9795681E1,9.948643E1,3.534629E1,3.513454E1,1.1448077E1,1.8347603E1,6.930711E0,9.255572E1,1.4606069E1,2.0740223E1,2.9064856E1,6.069684E0],"tree_param":{"num_deleted":"0","num_feature":"7","num_nodes":"15","size_leaf_vector":"0"}},{"base_weights":[-2.7296686E-1,-7.317601E-1,5.670876E-1,-2.5581357E-1,-8.707276E-1,1.1268322E0,-9.487818E-3,2.5590554E-1,-6.56942E-1,1.8762067E-1,-9.5140594E-1,3.4372556E-1,1.1423224E0,6.1951786E-1,-2.8838962E-1],"categories":[],"categories_nodes":[],"categories_segments":[],"categories_sizes":[],"default_left":[true,true,true,false,false,false,true,false,false,false,false,false,false,false,false],"id":64,"left_children":[1,3,5,7,9,11,13,-1,-1,-1,-1,-1,-1,-1,-1],"loss_changes":[7.759452E1,8.372536E0,2.3021296E1,6.4871783E0,8.731491E0,4.6302795E-2,6.513996E0,0E0,0E0,0E0,0E0,0E0,0E0,0E0,0E0],"parents":[2147483647,0,0,1,1,2,2,3,3,4,4,5,5,6,6],"right_children":[2,4,6,8,10,12,14,-1,-1,-1,-1,-1,-1,-1,-1],"split_conditions":[5E-1,1.5E0,2.5E0,4.3E1,9.5E0,4.5E0,7.8875E0,2.5590553E-3,-6.56942E-3,1.8762066E-3,-9.514059E-3,3.4372555E-3,1.1423224E-2,6.1951787E-3,-2.8838962E-3],"split_indices":[6,1,1,2,2,2,5,0,0,0,0,0,0,0,0],"split_type":[0,0,0,0,0,0,0,0,0,0,0,0,0,0,0],"sum_hessian":[1.9925243E2,1.2895367E2,7.029876E1,2.9784893E1,9.9168785E1,3.5185753E1,3.5113003E1,1.3247328E1,1.6537565E1,6.9303303E0,9.223845E1,1.1322973E0,3.4053455E1,1.0411264E1,2.470174E1],"tree_param":{"num_deleted":"0","num_feature":"7","num_nodes":"15","size_leaf_vector":"0"}},{"base_weights":[-2.7088994E-1,-7.264023E-1,5.630425E-1,-2.535053E-1,-8.648583E-1,1.1210871E0,-9.3027875E-3,-6.035772E-1,3.2437566E-1,4.9610692E-1,-9.250337E-1,8.71157E-1,1.2487577E0,1.9320986E-1,-8.7177294E-1],"categories":[],"categories_nodes":[],"categories_segments":[],"categories_sizes":[],"default_left":[true,true,true,true,false,true,true,false,false,false,false,false,false,false,false],"id":65,"left_children":[1,3,5,7,9,11,13,-1,-1,-1,-1,-1,-1,-1,-1],"loss_changes":[7.6286606E1,8.267769E0,2.2727924E1,6.4206767E0,8.636353E0,6.1538696E-2,6.4746213E0,0E0,0E0,0E0,0E0,0E0,0E0,0E0,0E0],"parents":[2147483647,0,0,1,1,2,2,3,3,4,4,5,5,6,6],"right_children":[2,4,6,8,10,12,14,-1,-1,-1,-1,-1,-1,-1,-1],"split_conditions":[5E-1,1.5E0,2.5E0,5.655E2,3.5E0,2.885625E1,2.335E1,-6.0357717E-3,3.2437565E-3,4.961069E-3,-9.250336E-3,8.71157E-3,1.2487577E-2,1.9320985E-3,-8.71773E-3],"split_indices":[6,1,1,0,2,5,5,0,0,0,0,0,0,0,0],"split_type":[0,0,0,0,0,0,0,0,0,0,0,0,0,0,0],"sum_hessian":[1.987481E2,1.2862126E2,7.012683E1,2.9770609E1,9.8850655E1,3.5021564E1,3.5105267E1,1.8511902E1,1.1258707E1,3.8788896E0,9.497177E1,1.4486339E1,2.0535227E1,2.9058222E1,6.047046E0],"tree_param":{"num_deleted":"0","num_feature":"7","num_nodes":"15","size_leaf_vector":"0"}},{"base_weights":[-2.688334E-1,-7.2102314E-1,5.590614E-1,2.044471E-1,-7.8827727E-1,1.1154737E0,-9.405292E-3,1.1672986E0,-1.0338914E0,-9.665971E-1,-3.2110497E-1,8.6595297E-1,1.2431469E0,1.9137098E-1,-8.66404E-1],"categories":[],"categories_nodes":[],"categories_segments":[],"categories_sizes":[],"default_left":[true,false,true,true,true,true,true,false,false,false,false,false,false,false,false],"id":66,"left_children":[1,3,5,7,9,11,13,-1,-1,-1,-1,-1,-1,-1,-1],"loss_changes":[7.499115E1,8.208656E0,2.2450298E1,1.2597678E1,9.74807E0,6.5906525E-2,6.3745375E0,0E0,0E0,0E0,0E0,0E0,0E0,0E0,0E0],"parents":[2147483647,0,0,1,1,2,2,3,3,4,4,5,5,6,6],"right_children":[2,4,6,8,10,12,14,-1,-1,-1,-1,-1,-1,-1,-1],"split_conditions":[5E-1,1.3E1,2.5E0,2.5E0,2.626875E1,2.885625E1,2.335E1,1.1672986E-2,-1.0338915E-2,-9.665971E-3,-3.2110496E-3,8.6595295E-3,1.2431469E-2,1.9137098E-3,-8.66404E-3],"split_indices":[6,2,1,3,5,5,5,0,0,0,0,0,0,0,0],"split_type":[0,0,0,0,0,0,0,0,0,0,0,0,0,0,0],"sum_hessian":[1.9823857E2,1.2829431E2,6.994427E1,8.553363E0,1.19740944E2,3.486062E1,3.508365E1,4.8441978E0,3.7091653E0,8.588831E1,3.385263E1,1.443393E1,2.0426687E1,2.9053692E1,6.0299554E0],"tree_param":{"num_deleted":"0","num_feature":"7","num_nodes":"15","size_leaf_vector":"0"}},{"base_weights":[-2.668547E-1,-7.158795E-1,5.5511504E-1,-2.4804755E-1,-8.5363644E-1,1.1099191E0,-9.5059555E-3,9.741519E-2,-8.440061E-1,1.866239E-1,-9.334793E-1,8.6078924E-1,1.2376094E0,4.9696875E-1,-3.483431E-1],"categories":[],"categories_nodes":[],"categories_segments":[],"categories_sizes":[],"default_left":[true,true,true,false,false,true,true,false,false,false,false,false,false,false,false],"id":67,"left_children":[1,3,5,7,9,11,13,-1,-1,-1,-1,-1,-1,-1,-1],"loss_changes":[7.373483E1,8.098022E0,2.2176867E1,6.4110556E0,8.413422E0,7.033157E-2,6.3617983E0,0E0,0E0,0E0,0E0,0E0,0E0,0E0,0E0],"parents":[2147483647,0,0,1,1,2,2,3,3,4,4,5,5,6,6],"right_children":[2,4,6,8,10,12,14,-1,-1,-1,-1,-1,-1,-1,-1],"split_conditions":[5E-1,1.5E0,2.5E0,5.3E1,9.5E0,2.885625E1,5.5E0,9.7415183E-4,-8.4400615E-3,1.866239E-3,-9.334793E-3,8.607892E-3,1.2376093E-2,4.969687E-3,-3.483431E-3],"split_indices":[6,1,1,2,2,5,2,0,0,0,0,0,0,0,0],"split_type":[0,0,0,0,0,0,0,0,0,0,0,0,0,0,0],"sum_hessian":[1.9770078E2,1.2793929E2,6.9761475E1,2.9740194E1,9.81991E1,3.4699505E1,3.506197E1,1.9356335E1,1.0383859E1,6.904466E0,9.129463E1,1.4381581E1,2.0317924E1,1.3867268E1,2.1194702E1],"tree_param":{"num_deleted":"0","num_feature":"7","num_nodes":"15","size_leaf_vector":"0"}},{"base_weights":[-2.6481006E-1,-7.1068335E-1,5.5115014E-1,-2.4592283E-1,-8.479175E-1,1.1044214E0,-9.369609E-3,-7.996735E-1,1.2237187E-1,4.8943433E-1,-9.074371E-1,8.556643E-1,1.2321433E0,5.4840446E-1,-3.1541702E-1],"categories":[],"categories_nodes":[],"categories_segments":[],"categories_sizes":[],"default_left":[true,true,true,true,false,true,true,false,false,false,false,false,false,false,false],"id":68,"left_children":[1,3,5,7,9,11,13,-1,-1,-1,-1,-1,-1,-1,-1],"loss_changes":[7.2502205E1,7.9941177E0,2.190485E1,6.3642974E0,8.31485E0,7.481384E-2,6.3289456E0,0E0,0E0,0E0,0E0,0E0,0E0,0E0,0E0],"parents":[2147483647,0,0,1,1,2,2,3,3,4,4,5,5,6,6],"right_children":[2,4,6,8,10,12,14,-1,-1,-1,-1,-1,-1,-1,-1],"split_conditions":[5E-1,1.5E0,2.5E0,3.845E2,3.5E0,2.885625E1,8.0396E0,-7.996735E-3,1.2237186E-3,4.894343E-3,-9.07437E-3,8.556643E-3,1.2321432E-2,5.4840446E-3,-3.1541702E-3],"split_indices":[6,1,1,0,2,5,5,0,0,0,0,0,0,0,0],"split_type":[0,0,0,0,0,0,0,0,0,0,0,0,0,0,0],"sum_hessian":[1.9720662E2,1.276064E2,6.960022E1,2.9726362E1,9.7880035E1,3.4538254E1,3.5061966E1,1.1405819E1,1.8320543E1,3.8628216E0,9.401722E1,1.4329292E1,2.0208961E1,1.2141706E1,2.2920261E1],"tree_param":{"num_deleted":"0","num_feature":"7","num_nodes":"15","size_leaf_vector":"0"}},{"base_weights":[-2.627632E-1,-7.0547205E-1,5.472986E-1,2.0465437E-1,-7.719374E-1,1.0989796E0,-9.213134E-3,1.1615033E0,-1.0264652E0,-9.4924265E-1,-3.1134537E-1,3.2149032E-1,1.1149098E0,1.8928039E-1,-8.591289E-1],"categories":[],"categories_nodes":[],"categories_segments":[],"categories_sizes":[],"default_left":[true,false,true,true,true,false,true,false,false,false,false,false,false,false,false],"id":69,"left_children":[1,3,5,7,9,11,13,-1,-1,-1,-1,-1,-1,-1,-1],"loss_changes":[7.128867E1,7.917778E0,2.1633375E1,1.2407788E1,9.484512E0,7.972717E-2,6.2449007E0,0E0,0E0,0E0,0E0,0E0,0E0,0E0,0E0],"parents":[2147483647,0,0,1,1,2,2,3,3,4,4,5,5,6,6],"right_children":[2,4,6,8,10,12,14,-1,-1,-1,-1,-1,-1,-1,-1],"split_conditions":[5E-1,1.3E1,2.5E0,2.5E0,2.626875E1,4.5E0,2.335E1,1.1615033E-2,-1.0264652E-2,-9.492426E-3,-3.1134535E-3,3.2149032E-3,1.1149097E-2,1.8928038E-3,-8.591289E-3],"split_indices":[6,2,1,3,5,2,5,0,0,0,0,0,0,0,0],"split_type":[0,0,0,0,0,0,0,0,0,0,0,0,0,0,0],"sum_hessian":[1.9670862E2,1.2727847E2,6.943015E1,8.520874E0,1.187576E2,3.4376896E1,3.505326E1,4.8263173E0,3.6945562E0,8.498257E1,3.377503E1,1.1154866E0,3.326141E1,2.9046818E1,6.0064416E0],"tree_param":{"num_deleted":"0","num_feature":"7","num_nodes":"15","size_leaf_vector":"0"}},{"base_weights":[-2.608725E-1,-7.0045954E-1,5.433854E-1,-2.4076356E-1,-8.3698225E-1,1.0935146E0,-9.314372E-3,1.0166054E-1,-8.329572E-1,1.8561292E-1,-9.160125E-1,8.4413165E-1,1.2220508E0,4.9280527E-1,-3.4519765E-1],"categories":[],"categories_nodes":[],"categories_segments":[],"categories_sizes":[],"default_left":[true,true,true,false,false,true,true,false,false,false,false,false,false,false,false],"id":70,"left_children":[1,3,5,7,9,11,13,-1,-1,-1,-1,-1,-1,-1,-1],"loss_changes":[7.008705E1,7.826771E0,2.1368202E1,6.309188E0,8.108337E0,9.714508E-2,6.2469587E0,0E0,0E0,0E0,0E0,0E0,0E0,0E0,0E0],"parents":[2147483647,0,0,1,1,2,2,3,3,4,4,5,5,6,6],"right_children":[2,4,6,8,10,12,14,-1,-1,-1,-1,-1,-1,-1,-1],"split_conditions":[5E-1,1.5E0,2.5E0,5.3E1,9.5E0,2.885625E1,5.5E0,1.0166054E-3,-8.329572E-3,1.8561292E-3,-9.160125E-3,8.441316E-3,1.22205075E-2,4.9280524E-3,-3.4519765E-3],"split_indices":[6,1,1,2,2,5,2,0,0,0,0,0,0,0,0],"split_type":[0,0,0,0,0,0,0,0,0,0,0,0,0,0,0],"sum_hessian":[1.961663E2,1.2692265E2,6.9243645E1,2.969567E1,9.722698E1,3.4212135E1,3.5031513E1,1.9340654E1,1.0355014E1,6.8782873E0,9.03487E1,1.420983E1,2.0002304E1,1.3853863E1,2.117765E1],"tree_param":{"num_deleted":"0","num_feature":"7","num_nodes":"15","size_leaf_vector":"0"}},{"base_weights":[-2.58879E-1,-6.953937E-1,5.395213E-1,-2.3870555E-1,-8.3140504E-1,1.0881796E0,-9.180143E-3,-7.891846E-1,1.2665857E-1,4.8285988E-1,-8.9028466E-1,8.391299E-1,1.2167815E0,5.419873E-1,-3.1168073E-1],"categories":[],"categories_nodes":[],"categories_segments":[],"categories_sizes":[],"default_left":[true,true,true,true,false,true,true,false,false,false,false,false,false,false,false],"id":71,"left_children":[1,3,5,7,9,11,13,-1,-1,-1,-1,-1,-1,-1,-1],"loss_changes":[6.8917725E1,7.726719E0,2.1108133E1,6.270808E0,8.0063095E0,1.0157776E-1,6.17636E0,0E0,0E0,0E0,0E0,0E0,0E0,0E0,0E0],"parents":[2147483647,0,0,1,1,2,2,3,3,4,4,5,5,6,6],"right_children":[2,4,6,8,10,12,14,-1,-1,-1,-1,-1,-1,-1,-1],"split_conditions":[5E-1,1.5E0,2.5E0,3.845E2,3.5E0,2.885625E1,8.0396E0,-7.891846E-3,1.2665857E-3,4.828599E-3,-8.902847E-3,8.391299E-3,1.2167815E-2,5.4198727E-3,-3.1168072E-3],"split_indices":[6,1,1,0,2,5,5,0,0,0,0,0,0,0,0],"split_type":[0,0,0,0,0,0,0,0,0,0,0,0,0,0,0],"sum_hessian":[1.9567119E2,1.2658923E2,6.9081955E1,2.9681633E1,9.69076E1,3.4050716E1,3.5031235E1,1.1378349E1,1.8303284E1,3.846577E0,9.306103E1,1.4157803E1,1.9892914E1,1.21329155E1,2.289832E1],"tree_param":{"num_deleted":"0","num_feature":"7","num_nodes":"15","size_leaf_vector":"0"}},{"base_weights":[-2.568825E-1,-6.90311E-1,5.357676E-1,2.0481104E-1,-7.5600445E-1,1.082897E0,-9.026436E-3,1.1557803E0,-1.0192157E0,-9.3233484E-1,-3.0185574E-1,8.3416474E-1,1.2115773E0,4.884331E-1,-3.417596E-1],"categories":[],"categories_nodes":[],"categories_segments":[],"categories_sizes":[],"default_left":[true,false,true,true,true,true,true,false,false,false,false,false,false,false,false],"id":72,"left_children":[1,3,5,7,9,11,13,-1,-1,-1,-1,-1,-1,-1,-1],"loss_changes":[6.7766335E1,7.638237E0,2.0848513E1,1.2222123E1,9.229942E0,1.0604477E-1,6.1293807E0,0E0,0E0,0E0,0E0,0E0,0E0,0E0,0E0],"parents":[2147483647,0,0,1,1,2,2,3,3,4,4,5,5,6,6],"right_children":[2,4,6,8,10,12,14,-1,-1,-1,-1,-1,-1,-1,-1],"split_conditions":[5E-1,1.3E1,2.5E0,2.5E0,2.626875E1,2.885625E1,5.5E0,1.1557803E-2,-1.0192157E-2,-9.323348E-3,-3.0185573E-3,8.341647E-3,1.2115773E-2,4.884331E-3,-3.4175958E-3],"split_indices":[6,2,1,3,5,5,2,0,0,0,0,0,0,0,0],"split_type":[0,0,0,0,0,0,0,0,0,0,0,0,0,0,0],"sum_hessian":[1.9517256E2,1.2626098E2,6.891158E1,8.487992E0,1.1777298E2,3.3889297E1,3.5022285E1,4.808182E0,3.6798105E0,8.407616E1,3.3696827E1,1.4105873E1,1.9783424E1,1.3849045E1,2.117324E1],"tree_param":{"num_deleted":"0","num_feature":"7","num_nodes":"15","size_leaf_vector":"0"}},{"base_weights":[-2.5493392E-1,-6.85423E-1,5.3196836E-1,-2.3370343E-1,-8.2073987E-1,1.0776646E0,-8.895397E-3,2.665846E-1,-6.282758E-1,1.8458861E-1,-8.98978E-1,8.2923466E-1,1.2064365E0,1.873734E-1,-8.5195714E-1],"categories":[],"categories_nodes":[],"categories_segments":[],"categories_sizes":[],"default_left":[true,true,true,false,false,true,true,false,false,false,false,false,false,false,false],"id":73,"left_children":[1,3,5,7,9,11,13,-1,-1,-1,-1,-1,-1,-1,-1],"loss_changes":[6.664318E1,7.5652924E0,2.0596006E1,6.2179465E0,7.8154755E0,1.1054993E-1,6.1200323E0,0E0,0E0,0E0,0E0,0E0,0E0,0E0,0E0],"parents":[2147483647,0,0,1,1,2,2,3,3,4,4,5,5,6,6],"right_children":[2,4,6,8,10,12,14,-1,-1,-1,-1,-1,-1,-1,-1],"split_conditions":[5E-1,1.5E0,2.5E0,4.3E1,9.5E0,2.885625E1,2.335E1,2.665846E-3,-6.282758E-3,1.8458861E-3,-8.98978E-3,8.292346E-3,1.2064365E-2,1.8737339E-3,-8.519571E-3],"split_indices":[6,1,1,2,2,5,5,0,0,0,0,0,0,0,0],"split_type":[0,0,0,0,0,0,0,0,0,0,0,0,0,0,0],"sum_hessian":[1.946546E2,1.2590497E2,6.8749626E1,2.965077E1,9.62542E1,3.3727894E1,3.5021736E1,1.3216992E1,1.6433779E1,6.851818E0,8.940238E1,1.4054039E1,1.9673855E1,2.9039053E1,5.982683E0],"tree_param":{"num_deleted":"0","num_feature":"7","num_nodes":"15","size_leaf_vector":"0"}},{"base_weights":[-2.5304168E-1,-6.804558E-1,5.28244E-1,-2.3159812E-1,-8.1529605E-1,1.0724823E0,-8.998272E-3,-5.7689434E-1,3.3512357E-1,4.7638196E-1,-8.7355E-1,8.2433987E-1,1.201358E0,5.96966E-1,-2.7794138E-1],"categories":[],"categories_nodes":[],"categories_segments":[],"categories_sizes":[],"default_left":[true,true,true,true,false,true,true,false,false,false,false,false,false,false,false],"id":74,"left_children":[1,3,5,7,9,11,13,-1,-1,-1,-1,-1,-1,-1,-1],"loss_changes":[6.5522224E1,7.4717674E0,2.0350042E1,6.188392E0,7.71006E0,1.15097046E-1,6.032828E0,0E0,0E0,0E0,0E0,0E0,0E0,0E0,0E0],"parents":[2147483647,0,0,1,1,2,2,3,3,4,4,5,5,6,6],"right_children":[2,4,6,8,10,12,14,-1,-1,-1,-1,-1,-1,-1,-1],"split_conditions":[5E-1,1.5E0,2.5E0,5.655E2,3.5E0,2.885625E1,7.8875E0,-5.768943E-3,3.3512355E-3,4.7638193E-3,-8.735499E-3,8.243399E-3,1.201358E-2,5.9696604E-3,-2.7794137E-3],"split_indices":[6,1,1,0,2,5,5,0,0,0,0,0,0,0,0],"split_type":[0,0,0,0,0,0,0,0,0,0,0,0,0,0,0],"sum_hessian":[1.9413753E2,1.2557105E2,6.856648E1,2.9635992E1,9.593506E1,3.356655E1,3.499993E1,1.8404448E1,1.1231544E1,3.8301685E0,9.210489E1,1.4002319E1,1.9564232E1,1.0383918E1,2.4616013E1],"tree_param":{"num_deleted":"0","num_feature":"7","num_nodes":"15","size_leaf_vector":"0"}},{"base_weights":[-2.5106683E-1,-6.7546254E-1,5.245917E-1,-2.2944795E-1,-8.0984217E-1,1.0673482E0,-8.821383E-3,1.079743E-1,-8.154489E-1,1.8414046E-1,-8.8769925E-1,8.194791E-1,1.1963398E0,4.839884E-1,-3.383814E-1],"categories":[],"categories_nodes":[],"categories_segments":[],"categories_sizes":[],"default_left":[true,true,true,false,false,true,true,false,false,false,false,false,false,false,false],"id":75,"left_children":[1,3,5,7,9,11,13,-1,-1,-1,-1,-1,-1,-1,-1],"loss_changes":[6.44271E1,7.3806076E0,2.0100687E1,6.1434474E0,7.640629E0,1.1966705E-1,6.0091505E0,0E0,0E0,0E0,0E0,0E0,0E0,0E0,0E0],"parents":[2147483647,0,0,1,1,2,2,3,3,4,4,5,5,6,6],"right_children":[2,4,6,8,10,12,14,-1,-1,-1,-1,-1,-1,-1,-1],"split_conditions":[5E-1,1.5E0,2.5E0,5.3E1,9.5E0,2.885625E1,5.5E0,1.0797429E-3,-8.154488E-3,1.8414046E-3,-8.876992E-3,8.194791E-3,1.1963398E-2,4.839884E-3,-3.3838141E-3],"split_indices":[6,1,1,2,2,5,2,0,0,0,0,0,0,0,0],"split_type":[0,0,0,0,0,0,0,0,0,0,0,0,0,0,0],"sum_hessian":[1.9363988E2,1.25243195E2,6.839669E1,2.9624624E1,9.561857E1,3.340529E1,3.49914E1,1.9317347E1,1.030728E1,6.8464503E0,8.877212E1,1.3950709E1,1.9454578E1,1.3834821E1,2.1156582E1],"tree_param":{"num_deleted":"0","num_feature":"7","num_nodes":"15","size_leaf_vector":"0"}},{"base_weights":[-2.4915448E-1,-6.7060065E-1,5.2088565E-1,-2.274932E-1,-8.04485E-1,1.0622613E0,-8.6927125E-3,-7.728485E-1,1.3324548E-1,1.8254295E-1,-8.820647E-1,2.9022592E-1,1.0788941E0,1.8542653E-1,-8.45078E-1],"categories":[],"categories_nodes":[],"categories_segments":[],"categories_sizes":[],"default_left":[true,true,true,true,false,false,true,false,false,false,false,false,false,false,false],"id":76,"left_children":[1,3,5,7,9,11,13,-1,-1,-1,-1,-1,-1,-1,-1],"loss_changes":[6.3355217E1,7.286625E0,1.9858885E1,6.1249647E0,7.5350075E0,1.266098E-1,6.000075E0,0E0,0E0,0E0,0E0,0E0,0E0,0E0,0E0],"parents":[2147483647,0,0,1,1,2,2,3,3,4,4,5,5,6,6],"right_children":[2,4,6,8,10,12,14,-1,-1,-1,-1,-1,-1,-1,-1],"split_conditions":[5E-1,1.5E0,2.5E0,3.845E2,9.5E0,4.5E0,2.335E1,-7.728485E-3,1.3324548E-3,1.8254295E-3,-8.820646E-3,2.9022591E-3,1.0788941E-2,1.8542653E-3,-8.45078E-3],"split_indices":[6,1,1,0,2,2,5,0,0,0,0,0,0,0,0],"split_type":[0,0,0,0,0,0,0,0,0,0,0,0,0,0,0],"sum_hessian":[1.9314485E2,1.2491014E2,6.82347E1,2.9610294E1,9.529985E1,3.3244133E1,3.4990574E1,1.1333779E1,1.8276516E1,6.8460555E0,8.845379E1,1.0901941E0,3.215394E1,2.9030983E1,5.9595904E0],"tree_param":{"num_deleted":"0","num_feature":"7","num_nodes":"15","size_leaf_vector":"0"}},{"base_weights":[-2.4735633E-1,-6.6575783E-1,5.171813E-1,-2.2551496E-1,-7.9916996E-1,1.057135E0,-8.79626E-3,1.09064884E-1,-8.0775654E-1,4.701185E-1,-8.569664E-1,8.084731E-1,1.1870822E0,1.8366212E-1,-8.3993953E-1],"categories":[],"categories_nodes":[],"categories_segments":[],"categories_sizes":[],"default_left":[true,true,true,false,false,true,true,false,false,false,false,false,false,false,false],"id":77,"left_children":[1,3,5,7,9,11,13,-1,-1,-1,-1,-1,-1,-1,-1],"loss_changes":[6.2282974E1,7.1955643E0,1.9619345E1,6.048908E0,7.4440994E0,1.4149857E-1,5.907839E0,0E0,0E0,0E0,0E0,0E0,0E0,0E0,0E0],"parents":[2147483647,0,0,1,1,2,2,3,3,4,4,5,5,6,6],"right_children":[2,4,6,8,10,12,14,-1,-1,-1,-1,-1,-1,-1,-1],"split_conditions":[5E-1,1.5E0,2.5E0,5.3E1,3.5E0,2.885625E1,2.335E1,1.0906488E-3,-8.077566E-3,4.701185E-3,-8.569663E-3,8.084731E-3,1.1870821E-2,1.8366211E-3,-8.399395E-3],"split_indices":[6,1,1,2,2,5,5,0,0,0,0,0,0,0,0],"split_type":[0,0,0,0,0,0,0,0,0,0,0,0,0,0,0],"sum_hessian":[1.9262866E2,1.2458007E2,6.80486E1,2.9598654E1,9.4981415E1,3.307988E1,3.4968716E1,1.9313189E1,1.0285467E1,3.8258746E0,9.115554E1,1.3832357E1,1.9247522E1,2.9026424E1,5.9422936E0],"tree_param":{"num_deleted":"0","num_feature":"7","num_nodes":"15","size_leaf_vector":"0"}},{"base_weights":[-2.4552311E-1,-6.609352E-1,5.135737E-1,2.0578662E-1,-7.253546E-1,1.052139E0,-8.898158E-3,1.1510199E0,-1.0113375E0,-9.000886E-1,-2.828381E-1,8.037212E-1,1.1822304E0,4.8003307E-1,-3.3580709E-1],"categories":[],"categories_nodes":[],"categories_segments":[],"categories_sizes":[],"default_left":[true,false,true,true,true,true,true,false,false,false,false,false,false,false,false],"id":78,"left_children":[1,3,5,7,9,11,13,-1,-1,-1,-1,-1,-1,-1,-1],"loss_changes":[6.1236214E1,7.142441E0,1.9387205E1,1.2029306E1,8.777161E0,1.4598083E-1,5.906795E0,0E0,0E0,0E0,0E0,0E0,0E0,0E0,0E0],"parents":[2147483647,0,0,1,1,2,2,3,3,4,4,5,5,6,6],"right_children":[2,4,6,8,10,12,14,-1,-1,-1,-1,-1,-1,-1,-1],"split_conditions":[5E-1,1.3E1,2.5E0,2.5E0,2.626875E1,2.885625E1,5.5E0,1.1510199E-2,-1.0113375E-2,-9.000886E-3,-2.828381E-3,8.037211E-3,1.1822303E-2,4.8003304E-3,-3.3580707E-3],"split_indices":[6,2,1,3,5,5,2,0,0,0,0,0,0,0,0],"split_type":[0,0,0,0,0,0,0,0,0,0,0,0,0,0,0],"sum_hessian":[1.9211588E2,1.24249985E2,6.78659E1,8.444201E0,1.1580578E2,3.2919067E1,3.4946827E1,4.7835503E0,3.6606512E0,8.228166E1,3.3524117E1,1.3781168E1,1.9137897E1,1.3815581E1,2.1131247E1],"tree_param":{"num_deleted":"0","num_feature":"7","num_nodes":"15","size_leaf_vector":"0"}},{"base_weights":[-2.436657E-1,-6.56278E-1,5.0995713E-1,-2.2085634E-1,-7.889989E-1,1.0471873E0,-8.7691955E-3,-7.630432E-1,1.3701671E-1,1.8148877E-1,-8.658196E-1,7.990013E-1,1.1774338E0,5.284426E-1,-3.0394223E-1],"categories":[],"categories_nodes":[],"categories_segments":[],"categories_sizes":[],"default_left":[true,true,true,true,false,true,true,false,false,false,false,false,false,false,false],"id":79,"left_children":[1,3,5,7,9,11,13,-1,-1,-1,-1,-1,-1,-1,-1],"loss_changes":[6.022431E1,7.0434E0,1.9155357E1,6.035186E0,7.2643623E0,1.5048599E-1,5.8605514E0,0E0,0E0,0E0,0E0,0E0,0E0,0E0,0E0],"parents":[2147483647,0,0,1,1,2,2,3,3,4,4,5,5,6,6],"right_children":[2,4,6,8,10,12,14,-1,-1,-1,-1,-1,-1,-1,-1],"split_conditions":[5E-1,1.5E0,2.5E0,3.845E2,9.5E0,2.885625E1,8.0396E0,-7.630432E-3,1.3701671E-3,1.8148876E-3,-8.658196E-3,7.990013E-3,1.1774338E-2,5.2844263E-3,-3.0394222E-3],"split_indices":[6,1,1,0,2,5,5,0,0,0,0,0,0,0,0],"split_type":[0,0,0,0,0,0,0,0,0,0,0,0,0,0,0],"sum_hessian":[1.9159964E2,1.2389543E2,6.770421E1,2.9564924E1,9.4330505E1,3.2758446E1,3.4945763E1,1.1305158E1,1.8259766E1,6.8192587E0,8.7511246E1,1.3730118E1,1.9028328E1,1.2111918E1,2.2833843E1],"tree_param":{"num_deleted":"0","num_feature":"7","num_nodes":"15","size_leaf_vector":"0"}},{"base_weights":[-2.4181214E-1,-6.5154797E-1,5.064421E-1,-8.105123E-1,-2.8836164E-1,1.0422785E0,-8.620961E-3,8.494363E-1,-8.894077E-1,-8.1453997E-1,1.4204171E-1,7.9431266E-1,1.172691E0,3.7003425E-1,-4.2430475E-1],"categories":[],"categories_nodes":[],"categories_segments":[],"categories_sizes":[],"default_left":[true,true,true,false,true,true,true,false,false,false,false,false,false,false,false],"id":80,"left_children":[1,3,5,7,9,11,13,-1,-1,-1,-1,-1,-1,-1,-1],"loss_changes":[5.9225506E1,6.9579544E0,1.8923758E1,1.2030174E1,9.055659E0,1.550026E-1,5.8134184E0,0E0,0E0,0E0,0E0,0E0,0E0,0E0,0E0],"parents":[2147483647,0,0,1,1,2,2,3,3,4,4,5,5,6,6],"right_children":[2,4,6,8,10,12,14,-1,-1,-1,-1,-1,-1,-1,-1],"split_conditions":[5E-1,2.626875E1,2.5E0,1.35E1,3.89E2,2.885625E1,3.96E2,8.494362E-3,-8.894077E-3,-8.145399E-3,1.4204171E-3,7.943126E-3,1.1726909E-2,3.7003425E-3,-4.2430474E-3],"split_indices":[6,5,1,2,0,5,0,0,0,0,0,0,0,0,0],"split_type":[0,0,0,0,0,0,0,0,0,0,0,0,0,0,0],"sum_hessian":[1.911008E2,1.2356642E2,6.753438E1,8.509098E1,3.847544E1,3.259803E1,3.4936348E1,3.417642E0,8.167334E1,1.6910027E1,2.1565414E1,1.3679211E1,1.891882E1,1.8339931E1,1.6596416E1],"tree_param":{"num_deleted":"0","num_feature":"7","num_nodes":"15","size_leaf_vector":"0"}},{"base_weights":[-2.3996608E-1,-6.468719E-1,5.028761E-1,-2.1633755E-1,-7.7887917E-1,1.037412E0,-8.550809E-3,2.736417E-1,-6.050556E-1,4.6304244E-1,-8.3595115E-1,7.896548E-1,1.168001E0,4.7562388E-1,-3.3226174E-1],"categories":[],"categories_nodes":[],"categories_segments":[],"categories_sizes":[],"default_left":[true,true,true,false,false,true,true,false,false,false,false,false,false,false,false],"id":81,"left_children":[1,3,5,7,9,11,13,-1,-1,-1,-1,-1,-1,-1,-1],"loss_changes":[5.823822E1,6.891693E0,1.8699564E1,5.9814944E0,7.0986023E0,